{"learner":{"attributes":{"scikit_learn":"{\"_estimator_type\": \"regressor\"}"},"feature_names":[],"feature_types":[],"gradient_booster":{"model":{"gbtree_model_param":{"num_parallel_tree":"1","num_trees":"20"},"iteration_indptr":[0,1,2,3,4,5,6,7,8,9,10,11,12,13,14,15,16,17,18,19,20],"tree_info":[0,0,0,0,0,0,0,0,0,0,0,0,0,0,0,0,0,0,0,0],"trees":[{"base_weights":[1.8204772E-1,-7.244427E0,7.01812E0,-1.12205305E1,-1.7086365E0,3.678739E0,1.1526657E1,-1.3168584E1,-0E0,-6.655721E0,-0E0,-2.8252816E-1,5.7833905E0,5.549828E0,1.4079936E1,-8.127259E0,-1.6725176E1,-1.790149E0,1.3423538E-1,-4.13758E-1,-0E0,3.0610824E0,-1.6942929E0,1.296269E0,-2.1706238E0,-0E0,7.6785245E0,7.122057E0,-0E0,1.5086699E1,-0E0,-9.082206E0,-0E0,-8.674741E-1,-0E0,-1.3078824E-1,-0E0,5.041046E-2,-0E0,-0E0,4.122057E0,-2.680941E0,-0E0,1.6049255E-1,-0E0,-0E0,-3.9267254E0,-7.950745E-2,3.0492553E-2,-0E0,8.750909E0,3.8491374E-1,-0E0,1.0082092E0,8.019704E-1,-0E0,-4.8275867E-1,-0E0,2.6481345E-1,-0E0,-1.5568562E-1,-2.2090085E-1,-0E0,-0E0,4.4945136E-1,-0E0,8.780785E-2],"categories":[],"categories_nodes":[],"categories_segments":[],"categories_sizes":[],"default_left":[0,0,0,0,0,0,0,0,0,0,0,0,0,0,0,0,0,0,0,0,0,0,0,0,0,0,0,0,0,0,0,0,0,0,0,0,0,0,0,0,0,0,0,0,0,0,0,0,0,0,0,0,0,0,0,0,0,0,0,0,0,0,0,0,0,0,0],"id":0,"left_children":[1,3,5,7,9,11,13,15,17,19,21,23,25,27,29,31,33,35,37,-1,-1,39,41,43,45,47,49,51,-1,53,-1,55,-1,-1,-1,-1,-1,-1,-1,-1,57,59,-1,-1,-1,-1,61,-1,-1,-1,63,-1,-1,65,-1,-1,-1,-1,-1,-1,-1,-1,-1,-1,-1,-1,-1],"loss_changes":[8.1206777E3,1.524363E3,1.0702231E3,8.291045E2,2.994267E2,4.8183386E2,2.4441797E2,2.6102295E2,1.6095243E1,8.066025E1,1.4250293E2,6.22329E1,4.2124683E2,5.610553E1,1.9078809E2,1.3084131E2,1.0318213E2,1.1345732E1,2.977381E0,0E0,0E0,5.921991E1,4.46361E1,3.9753525E1,7.1525696E1,1.450246E1,1.6939038E2,1.7594208E1,0E0,8.160693E1,0E0,7.8552246E1,0E0,0E0,0E0,0E0,0E0,0E0,0E0,0E0,4.343109E1,2.2905663E1,0E0,0E0,0E0,0E0,1.3278717E1,0E0,0E0,0E0,1.6354004E1,0E0,0E0,3.1187167E0,0E0,0E0,0E0,0E0,0E0,0E0,0E0,0E0,0E0,0E0,0E0,0E0,0E0],"parents":[2147483647,0,0,1,1,2,2,3,3,4,4,5,5,6,6,7,7,8,8,9,9,10,10,11,11,12,12,13,13,14,14,15,15,16,16,17,17,18,18,21,21,22,22,23,23,24,24,25,25,26,26,27,27,29,29,31,31,40,40,41,41,46,46,50,50,53,53],"right_children":[2,4,6,8,10,12,14,16,18,20,22,24,26,28,30,32,34,36,38,-1,-1,40,42,44,46,48,50,52,-1,54,-1,56,-1,-1,-1,-1,-1,-1,-1,-1,58,60,-1,-1,-1,-1,62,-1,-1,-1,64,-1,-1,66,-1,-1,-1,-1,-1,-1,-1,-1,-1,-1,-1,-1,-1],"split_conditions":[3.79E1,3.4E-1,4.3E1,3.11E1,3.38E1,1.52E1,1.27E1,1.69E1,2.7E-1,2.36E1,2.26E1,8.7E0,3.2E-1,1.58E1,2.08E1,2.54E1,3.58E1,3.39E1,3.6E1,-4.13758E-1,-0E0,6.7E-1,3.76E1,1.61E1,9.5E0,3.9E-1,2.15E1,3.41E1,-0E0,1.19E1,-0E0,5.8E0,-0E0,-8.674741E-1,-0E0,-1.3078824E-1,-0E0,5.041046E-2,-0E0,-0E0,5.7E0,1.07E1,-0E0,1.6049255E-1,-0E0,-0E0,3.05E1,-7.950745E-2,3.0492553E-2,-0E0,2.64E1,3.8491374E-1,-0E0,4.43E1,8.019704E-1,-0E0,-4.8275867E-1,-0E0,2.6481345E-1,-0E0,-1.5568562E-1,-2.2090085E-1,-0E0,-0E0,4.4945136E-1,-0E0,8.780785E-2],"split_indices":[0,14,0,5,0,4,2,11,14,4,8,9,14,11,11,8,0,0,0,0,0,15,3,11,2,16,8,8,0,5,0,9,0,0,0,0,0,0,0,0,9,2,0,0,0,0,8,0,0,0,3,0,0,0,0,0,0,0,0,0,0,0,0,0,0,0,0],"split_type":[0,0,0,0,0,0,0,0,0,0,0,0,0,0,0,0,0,0,0,0,0,0,0,0,0,0,0,0,0,0,0,0,0,0,0,0,0,0,0,0,0,0,0,0,0,0,0,0,0,0,0,0,0,0,0,0,0,0,0,0,0,0,0,0,0,0,0],"sum_hessian":[1.58E2,7.5E1,8.3E1,4.2E1,3.3E1,5E1,3.3E1,3.5E1,7E0,8E0,2.5E1,1.6E1,3.4E1,1.2E1,2.1E1,1.7E1,1.8E1,4E0,3E0,6E0,2E0,9E0,1.6E1,6E0,1E1,8E0,2.6E1,8E0,4E0,1.9E1,2E0,1.5E1,2E0,1.7E1,1E0,3E0,1E0,2E0,1E0,1E0,8E0,1.2E1,4E0,4E0,2E0,3E0,7E0,4E0,4E0,4E0,2.2E1,7E0,1E0,2E0,1.7E1,1E0,1.4E1,2E0,6E0,1E0,1.1E1,6E0,1E0,1E0,2.1E1,1E0,1E0],"tree_param":{"num_deleted":"0","num_feature":"19","num_nodes":"67","size_leaf_vector":"1"}},{"base_weights":[9.662132E-1,-6.774816E0,6.915366E0,-1.0411255E1,-4.968437E-1,4.0048633E0,1.1297228E1,-1.1317121E1,-1.4232076E0,-3.3401124E0,3.6707244E0,2.3591895E0,7.7888036E0,6.058272E0,1.4161584E1,-0E0,-1.1631348E1,-1.1954842E-1,-0E0,-5.237159E0,3.1981964E-2,3.001044E-1,-0E0,3.9370909E0,-0E0,-0E0,8.908263E0,4.7200885E-1,8.618891E0,7.64464E-1,-0E0,-1.19497385E1,-0E0,-6.916237E-1,-4.1276595E-1,-0E0,5.7815676E0,5.2548923E-2,-1.1078873E0,4.678963E-1,-0E0,3.15979E-2,-0E0,-0E0,5.2807355E-1,-6.0718226E-1,-0E0,-0E0,-5.809479E-2,1.817627E-2,-1.1249415E-2,3.3123305E-1,-0E0,-0E0,4.989868E-2,-7.52657E-2,-0E0],"categories":[],"categories_nodes":[],"categories_segments":[],"categories_sizes":[],"default_left":[0,0,0,0,0,0,0,0,0,0,0,0,0,0,0,0,0,0,0,0,0,0,0,0,0,0,0,0,0,0,0,0,0,0,0,0,0,0,0,0,0,0,0,0,0,0,0,0,0,0,0,0,0,0,0,0,0],"id":1,"left_children":[1,3,5,7,9,11,13,15,17,19,21,23,25,27,29,-1,31,-1,-1,33,-1,-1,-1,35,37,-1,39,41,43,-1,-1,45,-1,47,-1,49,51,53,55,-1,-1,-1,-1,-1,-1,-1,-1,-1,-1,-1,-1,-1,-1,-1,-1,-1,-1],"loss_changes":[7.2785083E3,1.4381499E3,9.4954395E2,1.9845264E2,3.2889148E2,2.3509119E2,2.2221826E2,1.3152002E2,1.0713799E1,1.8522102E2,1.1743326E2,1.7919014E2,1.21661194E2,1.1958722E2,1.9670874E2,0E0,1.274917E2,0E0,0E0,9.68891E1,0E0,0E0,0E0,1.8315894E2,6.172969E0,0E0,1.9206299E1,8.366792E-1,1.1224518E2,0E0,0E0,1.6047852E1,0E0,4.273264E0,0E0,1.2090648E0,1.0050067E2,4.9438586E0,2.9268084E0,0E0,0E0,0E0,0E0,0E0,0E0,0E0,0E0,0E0,0E0,0E0,0E0,0E0,0E0,0E0,0E0,0E0,0E0],"parents":[2147483647,0,0,1,1,2,2,3,3,4,4,5,5,6,6,7,7,8,8,9,9,10,10,11,11,12,12,13,13,14,14,16,16,19,19,23,23,24,24,26,26,27,27,28,28,31,31,33,33,35,35,36,36,37,37,38,38],"right_children":[2,4,6,8,10,12,14,16,18,20,22,24,26,28,30,-1,32,-1,-1,34,-1,-1,-1,36,38,-1,40,42,44,-1,-1,46,-1,48,-1,50,52,54,56,-1,-1,-1,-1,-1,-1,-1,-1,-1,-1,-1,-1,-1,-1,-1,-1,-1,-1],"split_conditions":[3.73E1,3.6E-1,4.29E1,3.87E1,3.43E1,2.93E1,3.4E-1,9.8E0,3.58E1,2.13E1,3.79E1,1.58E1,2.1E1,1.63E1,1.93E1,-0E0,1.16E1,-1.1954842E-1,-0E0,1.2E1,3.1981964E-2,3.001044E-1,-0E0,2.89E1,4.09E1,-0E0,4.09E1,3.91E1,2.4E-1,7.64464E-1,-0E0,1.42E1,-0E0,3.48E1,-4.1276595E-1,7.7E-1,2.44E1,3.75E1,4.54E1,4.678963E-1,-0E0,3.15979E-2,-0E0,-0E0,5.2807355E-1,-6.0718226E-1,-0E0,-0E0,-5.809479E-2,1.817627E-2,-1.1249415E-2,3.3123305E-1,-0E0,-0E0,4.989868E-2,-7.52657E-2,-0E0],"split_indices":[0,14,0,7,7,5,14,11,3,4,7,11,8,4,11,0,10,0,0,6,0,0,0,7,3,0,3,3,14,0,0,9,0,0,0,18,5,3,3,0,0,0,0,0,0,0,0,0,0,0,0,0,0,0,0,0,0],"split_type":[0,0,0,0,0,0,0,0,0,0,0,0,0,0,0,0,0,0,0,0,0,0,0,0,0,0,0,0,0,0,0,0,0,0,0,0,0,0,0,0,0,0,0,0,0,0,0,0,0,0,0,0,0,0,0,0,0],"sum_hessian":[1.56E2,6.7E1,8.9E1,4.1E1,2.6E1,5.6E1,3.3E1,3.6E1,5E0,1.7E1,9E0,4.2E1,1.4E1,1.4E1,1.9E1,1E0,3.5E1,3E0,2E0,1.3E1,4E0,6E0,3E0,2.6E1,1.6E1,2E0,1.2E1,6E0,8E0,1.7E1,2E0,3.4E1,1E0,7E0,6E0,9E0,1.7E1,1.2E1,4E0,1.1E1,1E0,5E0,1E0,2E0,6E0,3.3E1,1E0,2E0,5E0,7E0,2E0,1.5E1,2E0,8E0,4E0,3E0,1E0],"tree_param":{"num_deleted":"0","num_feature":"19","num_nodes":"57","size_leaf_vector":"1"}},{"base_weights":[1.6060588E-1,-6.2267756E0,6.1424956E0,-1.241841E1,-2.580765E0,1.4799107E0,8.829013E0,-0E0,-1.3852042E1,-4.394296E0,2.4286199E0,-0E0,4.1507897E0,6.113267E0,1.3214447E1,-1.4367224E1,-0E0,-7.232766E0,-1.0055487E0,3.7598863E0,-0E0,4.3371448E-1,-1.8360748E0,3.7597787E-1,-0E0,2.8819535E0,8.05422E0,1.2073753E-1,7.7066535E-1,-0E0,-1.4754201E1,-0E0,-8.262549E0,-4.1521206E0,4.8096642E-1,-0E0,2.1870057E-1,9.3966834E-2,-0E0,-0E0,-1.051059E-1,-5.555318E-2,9.31311E-1,-0E0,4.5303364E0,-0E0,8.503795E0,-7.5743794E-1,-0E0,-4.5227858E-1,-0E0,-0E0,-2.505949E-1,1.8360208E-1,-6.7512356E-2,-0E0,5.219803E-2,-0E0,2.5145158E-1,-0E0,4.4122347E-1],"categories":[],"categories_nodes":[],"categories_segments":[],"categories_sizes":[],"default_left":[0,0,0,0,0,0,0,0,0,0,0,0,0,0,0,0,0,0,0,0,0,0,0,0,0,0,0,0,0,0,0,0,0,0,0,0,0,0,0,0,0,0,0,0,0,0,0,0,0,0,0,0,0,0,0,0,0,0,0,0,0],"id":2,"left_children":[1,3,5,7,9,11,13,-1,15,17,19,21,23,25,27,29,-1,31,33,35,-1,37,39,-1,41,43,45,-1,-1,-1,47,-1,49,51,53,-1,-1,-1,-1,-1,-1,-1,55,-1,57,-1,59,-1,-1,-1,-1,-1,-1,-1,-1,-1,-1,-1,-1,-1,-1],"loss_changes":[6.303617E3,1.6013652E3,9.610906E2,4.7890332E2,5.027319E2,1.4951309E2,3.571548E2,0E0,1.5703418E2,2.950982E2,7.882767E1,2.3424864E1,1.718285E2,9.321228E1,2.1194629E2,5.2777344E1,0E0,1.1432703E2,1.3693456E2,1.6683609E1,0E0,1.4461689E1,1.8674755E0,0E0,8.040089E0,1.050912E2,7.656653E1,0E0,0E0,0E0,4.1879395E1,0E0,6.675037E1,4.5792007E1,1.0414213E2,0E0,0E0,0E0,0E0,0E0,0E0,0E0,2.2713184E-2,0E0,3.1915329E1,0E0,2.770691E1,0E0,0E0,0E0,0E0,0E0,0E0,0E0,0E0,0E0,0E0,0E0,0E0,0E0,0E0],"parents":[2147483647,0,0,1,1,2,2,3,3,4,4,5,5,6,6,8,8,9,9,10,10,11,11,12,12,13,13,14,14,15,15,17,17,18,18,19,19,21,21,22,22,24,24,25,25,26,26,30,30,32,32,33,33,34,34,42,42,44,44,46,46],"right_children":[2,4,6,8,10,12,14,-1,16,18,20,22,24,26,28,30,-1,32,34,36,-1,38,40,-1,42,44,46,-1,-1,-1,48,-1,50,52,54,-1,-1,-1,-1,-1,-1,-1,56,-1,58,-1,60,-1,-1,-1,-1,-1,-1,-1,-1,-1,-1,-1,-1,-1,-1],"split_conditions":[3.79E1,4.2E-1,1.18E1,1.12E1,2.37E1,4.17E1,5.1E-1,-0E0,3.81E1,1.18E1,2.07E1,1.43E1,2.95E1,1.65E1,5.2E0,2.5E0,-0E0,3.6E-1,2.5E-1,7.9E0,-0E0,1.34E1,9.2E0,3.7597787E-1,4.3E1,2.1E-1,6.6E-1,1.2073753E-1,7.7066535E-1,-0E0,4.1E-1,-0E0,8.8E-1,1.24E1,9.8E0,-0E0,2.1870057E-1,9.3966834E-2,-0E0,-0E0,-1.051059E-1,-5.555318E-2,3.26E1,-0E0,2.16E1,-0E0,3.8E1,-7.5743794E-1,-0E0,-4.5227858E-1,-0E0,-0E0,-2.505949E-1,1.8360208E-1,-6.7512356E-2,-0E0,5.219803E-2,-0E0,2.5145158E-1,-0E0,4.4122347E-1],"split_indices":[0,13,2,11,4,0,13,0,7,2,11,6,8,4,6,10,0,16,17,6,0,11,2,0,0,17,15,0,0,0,14,0,15,2,6,0,0,0,0,0,0,0,3,0,8,0,0,0,0,0,0,0,0,0,0,0,0,0,0,0,0],"split_type":[0,0,0,0,0,0,0,0,0,0,0,0,0,0,0,0,0,0,0,0,0,0,0,0,0,0,0,0,0,0,0,0,0,0,0,0,0,0,0,0,0,0,0,0,0,0,0,0,0,0,0,0,0,0,0,0,0,0,0,0,0],"sum_hessian":[1.63E2,7.8E1,8.5E1,2.7E1,5.1E1,3.3E1,5.2E1,3E0,2.4E1,3.9E1,1.2E1,2.1E1,1.2E1,3.5E1,1.7E1,2.3E1,1E0,1.9E1,2E1,1E1,2E0,1.6E1,5E0,6E0,6E0,1.6E1,1.9E1,4E0,1.3E1,1E0,2.2E1,3E0,1.6E1,8E0,1.2E1,2E0,8E0,4E0,1.2E1,1E0,4E0,2E0,4E0,5E0,1.1E1,1E0,1.8E1,2.1E1,1E0,1.4E1,2E0,1E0,7E0,6E0,6E0,1E0,3E0,1E0,1E1,1E0,1.7E1],"tree_param":{"num_deleted":"0","num_feature":"19","num_nodes":"61","size_leaf_vector":"1"}},{"base_weights":[-1.3362394E-1,-6.842038E0,5.8688607E0,-9.036119E0,-0E0,2.884898E0,1.0189804E1,-1.178621E1,-4.2845984E0,3.328529E0,-5.481575E0,1.4981829E0,8.11397E0,2.9883947E0,1.1842504E1,-0E0,-1.2104623E1,1.3131269E0,-6.1561103E0,-7.02713E-1,2.7004662E-1,-3.35152E-1,-0E0,3.368628E-1,2.6264971E-1,-0E0,9.519143E0,-0E0,3.469902E0,1.2504575E1,-0E0,-1.2427316E1,-0E0,8.837147E-2,-0E0,-7.561224E0,-0E0,-7.205277E-2,-0E0,1.0000695E0,-1.6081066E-1,1.0332692E1,-0E0,-0E0,1.9484645E-1,4.6722922E-1,1.3096204E1,-6.384224E-1,-0E0,-4.3002945E-1,-0E0,1.0105946E-1,-7.88249E-2,5.5979246E-1,-0E0,-0E0,4.7234345E-2,-0E0,6.712917E-1],"categories":[],"categories_nodes":[],"categories_segments":[],"categories_sizes":[],"default_left":[0,0,0,0,0,0,0,0,0,0,0,0,0,0,0,0,0,0,0,0,0,0,0,0,0,0,0,0,0,0,0,0,0,0,0,0,0,0,0,0,0,0,0,0,0,0,0,0,0,0,0,0,0,0,0,0,0,0,0],"id":3,"left_children":[1,3,5,7,9,11,13,15,17,19,21,23,25,27,29,-1,31,33,35,37,-1,-1,-1,39,-1,-1,41,-1,43,45,-1,47,-1,-1,-1,49,-1,-1,-1,51,-1,53,-1,-1,-1,55,57,-1,-1,-1,-1,-1,-1,-1,-1,-1,-1,-1,-1],"loss_changes":[6.93557E3,1.3053354E3,1.0002749E3,6.12021E2,3.654411E2,2.977913E2,2.328628E2,1.425498E2,3.2889508E2,1.6773853E2,1.4320038E1,1.4727716E2,6.654767E1,1.59472275E1,1.224978E2,0E0,1.3846387E2,2.149413E0,1.7607434E2,4.2546988E0,0E0,0E0,0E0,7.2955536E1,0E0,0E0,2.2438965E1,0E0,9.980629E0,3.628784E1,0E0,1.4639014E2,0E0,0E0,0E0,6.3656006E1,0E0,0E0,0E0,1.02348724E2,0E0,4.730591E0,0E0,0E0,0E0,1.1299572E0,2.0823242E1,0E0,0E0,0E0,0E0,0E0,0E0,0E0,0E0,0E0,0E0,0E0,0E0],"parents":[2147483647,0,0,1,1,2,2,3,3,4,4,5,5,6,6,7,7,8,8,9,9,10,10,11,11,12,12,13,13,14,14,16,16,17,17,18,18,19,19,23,23,26,26,28,28,29,29,31,31,35,35,39,39,41,41,45,45,46,46],"right_children":[2,4,6,8,10,12,14,16,18,20,22,24,26,28,30,-1,32,34,36,38,-1,-1,-1,40,-1,-1,42,-1,44,46,-1,48,-1,-1,-1,50,-1,-1,-1,52,-1,54,-1,-1,-1,56,58,-1,-1,-1,-1,-1,-1,-1,-1,-1,-1,-1,-1],"split_conditions":[3.79E1,3.11E1,4.3E1,3.4E-1,1.8E1,3.5E-1,1.15E1,9.8E0,1.58E1,2.8E-1,9.9E0,4.64E1,6.4E0,5.9E0,2.08E1,-0E0,1.16E1,1.85E1,3.43E1,3.34E1,2.7004662E-1,-3.35152E-1,-0E0,4.22E1,2.6264971E-1,-0E0,7.2E0,-0E0,4.7E0,1.19E1,-0E0,5.8E-1,-0E0,8.837147E-2,-0E0,8E-1,-0E0,-7.205277E-2,-0E0,4.8E-1,-1.6081066E-1,4.27E1,-0E0,-0E0,1.9484645E-1,4.43E1,1.35E1,-6.384224E-1,-0E0,-4.3002945E-1,-0E0,1.0105946E-1,-7.88249E-2,5.5979246E-1,-0E0,-0E0,4.7234345E-2,-0E0,6.712917E-1],"split_indices":[0,5,0,14,11,17,2,11,12,14,2,3,6,2,11,0,10,4,7,0,0,0,0,0,0,0,10,0,4,5,0,16,0,0,0,18,0,0,0,16,0,0,0,0,0,0,12,0,0,0,0,0,0,0,0,0,0,0,0],"split_type":[0,0,0,0,0,0,0,0,0,0,0,0,0,0,0,0,0,0,0,0,0,0,0,0,0,0,0,0,0,0,0,0,0,0,0,0,0,0,0,0,0,0,0,0,0,0,0,0,0,0,0,0,0,0,0,0,0,0,0],"sum_hessian":[1.7E2,8.1E1,8.9E1,6.2E1,1.9E1,5.5E1,3.4E1,3.7E1,2.5E1,1.3E1,6E0,4.6E1,9E0,8E0,2.6E1,1E0,3.6E1,5E0,2E1,3E0,1E1,4E0,2E0,3.8E1,8E0,2E0,7E0,1E0,7E0,2.4E1,2E0,3.5E1,1E0,3E0,2E0,1.6E1,4E0,2E0,1E0,3.5E1,3E0,6E0,1E0,1E0,6E0,2E0,2.2E1,3.4E1,1E0,1.3E1,3E0,2.8E1,7E0,5E0,1E0,1E0,1E0,1E0,2.1E1],"tree_param":{"num_deleted":"0","num_feature":"19","num_nodes":"59","size_leaf_vector":"1"}},{"base_weights":[-4.597916E-2,-5.906834E0,4.8984385E0,-1.2310514E1,-2.98278E0,-0E0,7.349308E0,-5.3592683E-3,-1.296049E1,-6.268003E0,-3.591191E-1,3.0726027E0,-1.2609787E0,2.1076808E0,9.218435E0,-0E0,-1.3339472E1,-8.278903E0,-0E0,-1.7557293E0,1.9385514E0,-0E0,2.7094734E-1,2.6838684E-1,-2.2562685E0,-0E0,2.02947E-1,5.054465E0,1.1060187E1,-0E0,-1.3706351E1,-8.73721E0,-0E0,5.8412362E-2,-7.606001E-2,-3.2786696E0,6.4035225E-1,-8.568866E-2,4.0517097E0,-0E0,2.1990662E-2,-3.1057625E0,-0E0,-5.0522994E-2,8.997955E-2,7.2813287E0,-0E0,6.1333543E-1,1.4625804E-1,-0E0,-7.045065E-1,-4.7145244E-1,-0E0,-0E0,-1.9732885E-1,-0E0,1.3415805E-1,-0E0,2.249066E-1,-1.9206291E-1,-0E0,1.3606739E-2,-0E0,3.9008173E-1,-0E0],"categories":[],"categories_nodes":[],"categories_segments":[],"categories_sizes":[],"default_left":[0,0,0,0,0,0,0,0,0,0,0,0,0,0,0,0,0,0,0,0,0,0,0,0,0,0,0,0,0,0,0,0,0,0,0,0,0,0,0,0,0,0,0,0,0,0,0,0,0,0,0,0,0,0,0,0,0,0,0,0,0,0,0,0,0],"id":4,"left_children":[1,3,5,7,9,11,13,-1,15,17,19,21,23,25,27,-1,29,31,33,35,37,-1,-1,39,41,43,-1,45,47,-1,49,51,-1,-1,-1,53,55,-1,57,-1,-1,59,-1,-1,61,63,-1,-1,-1,-1,-1,-1,-1,-1,-1,-1,-1,-1,-1,-1,-1,-1,-1,-1,-1],"loss_changes":[5.08128E3,1.3270488E3,1.0932627E3,5.8299316E1,4.313979E2,1.4042131E2,4.7473975E2,0E0,4.1336426E1,2.908156E2,1.1388861E2,4.297516E1,5.54941E1,9.682086E1,1.2038623E2,0E0,2.0509766E1,6.403601E1,1.4715406E1,1.19709915E2,1.152204E2,0E0,0E0,5.349895E-1,4.3407196E1,5.1456275E0,0E0,2.0190356E2,8.7021484E1,0E0,1.48220215E1,3.5843994E1,0E0,0E0,0E0,5.5713394E1,2.5516998E1,0E0,1.4118362E1,0E0,0E0,4.2022537E1,0E0,0E0,2.5574777E-1,3.3307434E1,0E0,0E0,0E0,0E0,0E0,0E0,0E0,0E0,0E0,0E0,0E0,0E0,0E0,0E0,0E0,0E0,0E0,0E0,0E0],"parents":[2147483647,0,0,1,1,2,2,3,3,4,4,5,5,6,6,8,8,9,9,10,10,11,11,12,12,13,13,14,14,16,16,17,17,18,18,19,19,20,20,23,23,24,24,25,25,27,27,28,28,30,30,31,31,35,35,36,36,38,38,41,41,44,44,45,45],"right_children":[2,4,6,8,10,12,14,-1,16,18,20,22,24,26,28,-1,30,32,34,36,38,-1,-1,40,42,44,-1,46,48,-1,50,52,-1,-1,-1,54,56,-1,58,-1,-1,60,-1,-1,62,64,-1,-1,-1,-1,-1,-1,-1,-1,-1,-1,-1,-1,-1,-1,-1,-1,-1,-1,-1],"split_conditions":[3.73E1,4.2E-1,1.18E1,2.6E0,3.4E-1,9.2E0,4.01E1,-5.3592683E-3,5.8E-1,2.35E1,4.2E-1,2.66E1,8.14E1,2.7E-1,1.5E1,-0E0,1.19E1,1.07E1,1.8E1,4.9E-1,6.4E0,-0E0,2.7094734E-1,9.5E0,9.65E1,7.3E-1,2.02947E-1,7.5E-1,2.08E1,-0E0,3.5E-1,1.11E1,-0E0,5.8412362E-2,-7.606001E-2,1.46E1,5.8E0,-8.568866E-2,2.99E1,-0E0,2.1990662E-2,2.98E1,-0E0,-5.0522994E-2,3.95E1,1.46E1,-0E0,6.1333543E-1,1.4625804E-1,-0E0,-7.045065E-1,-4.7145244E-1,-0E0,-0E0,-1.9732885E-1,-0E0,1.3415805E-1,-0E0,2.249066E-1,-1.9206291E-1,-0E0,1.3606739E-2,-0E0,3.9008173E-1,-0E0],"split_indices":[0,13,2,10,14,2,0,0,15,4,17,8,1,17,4,0,11,10,11,16,9,0,0,2,1,15,0,15,11,0,16,9,0,0,0,12,10,0,0,0,0,8,0,0,0,4,0,0,0,0,0,0,0,0,0,0,0,0,0,0,0,0,0,0,0],"split_type":[0,0,0,0,0,0,0,0,0,0,0,0,0,0,0,0,0,0,0,0,0,0,0,0,0,0,0,0,0,0,0,0,0,0,0,0,0,0,0,0,0,0,0,0,0,0,0,0,0,0,0,0,0,0,0,0,0,0,0,0,0,0,0,0,0],"sum_hessian":[1.73E2,8E1,9.3E1,2.3E1,5.7E1,3.2E1,6.1E1,2E0,2.1E1,2.3E1,3.4E1,1E1,2.2E1,1.8E1,4.3E1,1E0,2E1,1.7E1,6E0,2.4E1,1E1,6E0,4E0,5E0,1.7E1,8E0,1E1,1.6E1,2.7E1,1E0,1.9E1,1.6E1,1E0,3E0,3E0,1.7E1,7E0,2E0,8E0,1E0,4E0,1.3E1,4E0,4E0,4E0,1.1E1,5E0,2.2E1,5E0,1E0,1.8E1,1.4E1,2E0,2E0,1.5E1,4E0,3E0,1E0,7E0,1.1E1,2E0,3E0,1E0,1E1,1E0],"tree_param":{"num_deleted":"0","num_feature":"19","num_nodes":"65","size_leaf_vector":"1"}},{"base_weights":[-0E0,-1.1251691E1,1.8003185E0,-0E0,-1.2621272E1,-2.1294873E0,4.9095488E0,-5.1807403E-3,-0E0,-1.3688425E1,-0E0,-7.593153E0,-1.1441819E-2,2.4854126E0,9.295398E0,-7.101537E-1,-0E0,-0E0,-8.670145E0,-2.0866463E0,2.8923123E0,-2.6603332E0,4.5512853E0,-0E0,4.759024E-1,-0E0,-9.531074E0,-3.3020048E0,1.325274E-1,4.301288E0,-0E0,-0E0,-2.3232125E-1,5.7168627E0,-0E0,-5.024871E-1,-0E0,-2.2019172E-1,-0E0,2.3860602E-1,-0E0,9.043236E-2,3.781851E-1,-0E0,5.9092224E-2],"categories":[],"categories_nodes":[],"categories_segments":[],"categories_sizes":[],"default_left":[0,0,0,0,0,0,0,0,0,0,0,0,0,0,0,0,0,0,0,0,0,0,0,0,0,0,0,0,0,0,0,0,0,0,0,0,0,0,0,0,0,0,0,0,0],"id":5,"left_children":[1,3,5,7,9,11,13,-1,-1,15,-1,17,19,21,23,-1,-1,-1,25,27,29,31,33,-1,-1,-1,35,37,-1,39,-1,-1,-1,41,43,-1,-1,-1,-1,-1,-1,-1,-1,-1,-1],"loss_changes":[3.3720557E3,2.7411743E2,1.7733068E3,3.2208085E-2,1.8678345E2,6.413493E2,7.2027246E2,0E0,0E0,5.6650635E1,0E0,1.2990436E2,2.8119507E2,6.156925E2,2.2504883E1,0E0,0E0,0E0,1.2853784E2,1.879884E2,7.143446E1,1.09732056E2,1.6387598E2,0E0,0E0,0E0,3.1030273E1,1.2378476E2,0E0,2.8491516E1,0E0,0E0,0E0,1.1634961E2,9.777293E0,0E0,0E0,0E0,0E0,0E0,0E0,0E0,0E0,0E0,0E0],"parents":[2147483647,0,0,1,1,2,2,3,3,4,4,5,5,6,6,9,9,11,11,12,12,13,13,14,14,18,18,19,19,20,20,21,21,22,22,26,26,27,27,29,29,33,33,34,34],"right_children":[2,4,6,8,10,12,14,-1,-1,16,-1,18,20,22,24,-1,-1,-1,26,28,30,32,34,-1,-1,-1,36,38,-1,40,-1,-1,-1,42,44,-1,-1,-1,-1,-1,-1,-1,-1,-1,-1],"split_conditions":[4.1E-1,3.4E0,1.18E1,8.68E1,3.81E1,7.65E1,3E1,-5.1807403E-3,-0E0,1.61E1,-0E0,1.2E0,4.7E-1,2.5E-1,5.6E0,-7.101537E-1,-0E0,-0E0,1.32E1,9.65E1,6.3E0,3.5E0,2.07E1,-0E0,4.759024E-1,-0E0,1.1E1,3.4E-1,1.325274E-1,8.39E1,-0E0,-0E0,-2.3232125E-1,4.5E-1,4.9E0,-5.024871E-1,-0E0,-2.2019172E-1,-0E0,2.3860602E-1,-0E0,9.043236E-2,3.781851E-1,-0E0,5.9092224E-2],"split_indices":[13,10,2,1,7,1,8,0,0,2,0,10,13,17,9,0,0,0,11,1,10,10,11,0,0,0,9,17,0,1,0,0,0,13,10,0,0,0,0,0,0,0,0,0,0],"split_type":[0,0,0,0,0,0,0,0,0,0,0,0,0,0,0,0,0,0,0,0,0,0,0,0,0,0,0,0,0,0,0,0,0,0,0,0,0,0,0,0,0,0,0,0,0],"sum_hessian":[1.63E2,2.2E1,1.41E2,3E0,1.9E1,6.1E1,8E1,2E0,1E0,1.7E1,2E0,1.5E1,4.6E1,5.4E1,2.6E1,1.6E1,1E0,2E0,1.3E1,2.9E1,1.7E1,1.4E1,4E1,1E0,2.5E1,1E0,1.2E1,2.5E1,4E0,1.1E1,6E0,5E0,9E0,3E1,1E1,1.1E1,1E0,2E1,5E0,1E1,1E0,1.2E1,1.8E1,4E0,6E0],"tree_param":{"num_deleted":"0","num_feature":"19","num_nodes":"45","size_leaf_vector":"1"}},{"base_weights":[1.745377E-1,-5.5734496E0,5.4516664E0,-1.1575985E1,-3.2130044E0,2.7213728E0,9.917459E0,-2.1014647E0,-1.3093433E1,-7.0632515E0,-5.348812E-1,-0E0,4.3977365E0,4.0343213E0,1.23308E1,-1.21551804E-1,-0E0,-0E0,-6.755431E-1,-8.39367E0,-0E0,-3.5564537E0,1.8065695E-1,1.9106773E0,-1.8448768E0,-0E0,5.7750993E0,-0E0,5.346793E0,-0E0,1.299552E1,-4.552513E-1,-0E0,-0E0,3.2930505E-2,-2.2275911E-1,-0E0,2.5274422E0,-6.612007E-1,1.762069E-1,-0E0,-0E0,-3.6925697E0,7.5666374E-1,-5.3539753E-2,2.6666641E-2,7.2137833E0,2.932723E-1,-0E0,-0E0,6.754344E-1,-0E0,1.6291778E-1,-7.39151E-2,1.3625241E-2,-0E0,-2.0260048E-1,-0E0,6.827774E-2,5.4859288E-2,-0E0,-0E0,3.7627065E-1],"categories":[],"categories_nodes":[],"categories_segments":[],"categories_sizes":[],"default_left":[0,0,0,0,0,0,0,0,0,0,0,0,0,0,0,0,0,0,0,0,0,0,0,0,0,0,0,0,0,0,0,0,0,0,0,0,0,0,0,0,0,0,0,0,0,0,0,0,0,0,0,0,0,0,0,0,0,0,0,0,0,0,0],"id":6,"left_children":[1,3,5,7,9,11,13,15,17,19,21,23,25,27,29,-1,-1,-1,-1,31,33,35,37,39,41,43,45,-1,47,-1,49,-1,-1,-1,-1,-1,-1,51,53,-1,-1,-1,55,57,-1,59,61,-1,-1,-1,-1,-1,-1,-1,-1,-1,-1,-1,-1,-1,-1,-1,-1],"loss_changes":[5.1250884E3,9.4840894E2,9.317927E2,1.2245459E2,5.389268E2,2.8604276E2,2.4093921E2,1.5589714E0,6.2487793E0,2.61615E2,1.1655838E2,8.0753296E1,2.1826642E2,3.3396576E1,1.8464917E2,0E0,0E0,0E0,0E0,8.31532E1,1.3013015E0,3.2305557E1,7.762768E1,2.5590862E1,6.483415E1,8.594189E0,1.5896814E2,0E0,1.2118607E1,0E0,8.953784E1,0E0,0E0,0E0,0E0,0E0,0E0,3.5901215E1,2.6956524E1,0E0,0E0,0E0,5.8509064E0,7.1806593E0,0E0,7.2172112E0,3.982483E1,0E0,0E0,0E0,0E0,0E0,0E0,0E0,0E0,0E0,0E0,0E0,0E0,0E0,0E0,0E0,0E0],"parents":[2147483647,0,0,1,1,2,2,3,3,4,4,5,5,6,6,7,7,8,8,9,9,10,10,11,11,12,12,13,13,14,14,19,19,20,20,21,21,22,22,23,23,24,24,25,25,26,26,28,28,30,30,37,37,38,38,42,42,43,43,45,45,46,46],"right_children":[2,4,6,8,10,12,14,16,18,20,22,24,26,28,30,-1,-1,-1,-1,32,34,36,38,40,42,44,46,-1,48,-1,50,-1,-1,-1,-1,-1,-1,52,54,-1,-1,-1,56,58,-1,60,62,-1,-1,-1,-1,-1,-1,-1,-1,-1,-1,-1,-1,-1,-1,-1,-1],"split_conditions":[3.79E1,4E-1,4.3E1,3.6E0,1E1,1.18E1,1.27E1,3.37E1,2.86E1,2.77E1,7.3E0,8.39E1,2.3E-1,4.42E1,1.19E1,-1.21551804E-1,-0E0,-0E0,-6.755431E-1,4.7E-1,3.39E1,5.5E-1,9.2E0,5.1E-1,1.25E1,1.01E1,7.1E-1,-0E0,2.08E1,-0E0,5.6E0,-4.552513E-1,-0E0,-0E0,3.2930505E-2,-2.2275911E-1,-0E0,1.32E1,4.4E-1,1.762069E-1,-0E0,-0E0,9.3E0,7.61E1,-5.3539753E-2,1.48E1,1.28E1,2.932723E-1,-0E0,-0E0,6.754344E-1,-0E0,1.6291778E-1,-7.39151E-2,1.3625241E-2,-0E0,-2.0260048E-1,-0E0,6.827774E-2,5.4859288E-2,-0E0,-0E0,3.7627065E-1],"split_indices":[0,13,0,10,2,2,2,0,3,4,9,1,17,0,5,0,0,0,0,16,0,16,9,13,6,9,15,0,6,0,9,0,0,0,0,0,0,4,17,0,0,0,2,1,0,2,2,0,0,0,0,0,0,0,0,0,0,0,0,0,0,0,0],"split_type":[0,0,0,0,0,0,0,0,0,0,0,0,0,0,0,0,0,0,0,0,0,0,0,0,0,0,0,0,0,0,0,0,0,0,0,0,0,0,0,0,0,0,0,0,0,0,0,0,0,0,0,0,0,0,0,0,0,0,0,0,0,0,0],"sum_hessian":[1.67E2,7.9E1,8.8E1,2E1,5.9E1,5.7E1,3.1E1,4E0,1.6E1,2.2E1,3.7E1,2.1E1,3.6E1,1.1E1,2E1,3E0,1E0,1E0,1.5E1,1.9E1,3E0,9E0,2.8E1,9E0,1.2E1,9E0,2.7E1,4E0,7E0,1E0,1.9E1,1.7E1,2E0,1E0,2E0,7E0,2E0,1E1,1.8E1,4E0,5E0,5E0,7E0,6E0,3E0,7E0,2E1,6E0,1E0,1E0,1.8E1,1E0,9E0,1.5E1,3E0,1E0,6E0,1E0,5E0,5E0,2E0,1E0,1.9E1],"tree_param":{"num_deleted":"0","num_feature":"19","num_nodes":"63","size_leaf_vector":"1"}},{"base_weights":[-1.4406179E-1,-6.100509E0,4.773222E0,-9.19161E0,-1.7334921E0,2.1323738E0,9.621619E0,-7.3460716E-1,-7.0448475E0,-3.804245E0,8.163963E-1,-0E0,3.5046637E0,2.6236877E0,1.1353135E1,-0E0,-7.2818203E0,-0E0,-5.4375954E0,1.3487875E-1,-0E0,1.0107563E0,-1.9018523E0,-0E0,4.0831466E0,-0E0,1.4858617E-1,-0E0,5.879263E-1,-7.530806E0,-0E0,-0E0,-5.980778E0,-1.3436966E-2,-0E0,-0E0,2.1211998E0,-1.7131943E-1,-0E0,4.560977E0,-0E0,-3.8974237E-1,-0E0,-3.45704E-1,-0E0,-3.4330465E-2,-0E0,1.4584297E-1,-0E0,2.8985706E-3,2.6659447E-1],"categories":[],"categories_nodes":[],"categories_segments":[],"categories_sizes":[],"default_left":[0,0,0,0,0,0,0,0,0,0,0,0,0,0,0,0,0,0,0,0,0,0,0,0,0,0,0,0,0,0,0,0,0,0,0,0,0,0,0,0,0,0,0,0,0,0,0,0,0,0,0],"id":7,"left_children":[1,3,5,7,9,11,13,-1,15,17,19,21,23,25,27,-1,29,-1,31,-1,33,35,37,-1,39,-1,-1,-1,-1,41,-1,-1,43,-1,-1,45,47,-1,-1,49,-1,-1,-1,-1,-1,-1,-1,-1,-1,-1,-1],"loss_changes":[4.552981E3,8.332366E2,9.374691E2,1.5145996E2,2.0195033E2,1.4614798E2,1.6972144E2,0E0,5.561609E1,1.24498566E2,4.227384E1,4.4730225E1,9.483453E1,6.7480736E0,5.849121E1,0E0,5.761914E1,0E0,5.106198E1,0E0,3.611041E-1,3.4582935E1,3.33814E1,0E0,8.23078E1,0E0,0E0,0E0,0E0,6.063855E1,0E0,0E0,6.0843384E1,0E0,0E0,1.8857292E0,3.1086819E1,0E0,0E0,4.2992065E1,0E0,0E0,0E0,0E0,0E0,0E0,0E0,0E0,0E0,0E0,0E0],"parents":[2147483647,0,0,1,1,2,2,3,3,4,4,5,5,6,6,8,8,9,9,10,10,11,11,12,12,13,13,14,14,16,16,18,18,20,20,21,21,22,22,24,24,29,29,32,32,35,35,36,36,39,39],"right_children":[2,4,6,8,10,12,14,-1,16,18,20,22,24,26,28,-1,30,-1,32,-1,34,36,38,-1,40,-1,-1,-1,-1,42,-1,-1,44,-1,-1,46,48,-1,-1,50,-1,-1,-1,-1,-1,-1,-1,-1,-1,-1,-1],"split_conditions":[3.73E1,3.4E-1,4.28E1,3.07E1,3.51E1,2.4E-1,3.3E-1,-7.3460716E-1,9.8E0,3.4E0,3.79E1,6.1E0,3.3E-1,8E0,5.2E0,-0E0,1.16E1,-0E0,5.7E0,1.3487875E-1,3.62E1,4.6E-1,4.06E1,-0E0,4.23E1,-0E0,1.4858617E-1,-0E0,5.879263E-1,5.8E-1,-0E0,-0E0,2.5E1,-1.3436966E-2,-0E0,3E-1,1.58E1,-1.7131943E-1,-0E0,3.2E-1,-0E0,-3.8974237E-1,-0E0,-3.45704E-1,-0E0,-3.4330465E-2,-0E0,1.4584297E-1,-0E0,2.8985706E-3,2.6659447E-1],"split_indices":[0,14,0,0,7,17,14,0,11,10,7,10,16,5,6,0,10,0,9,0,0,13,3,0,7,0,0,0,0,16,0,0,12,0,0,14,11,0,0,14,0,0,0,0,0,0,0,0,0,0,0],"split_type":[0,0,0,0,0,0,0,0,0,0,0,0,0,0,0,0,0,0,0,0,0,0,0,0,0,0,0,0,0,0,0,0,0,0,0,0,0,0,0,0,0,0,0,0,0,0,0,0,0,0,0],"sum_hessian":[1.53E2,7E1,8.3E1,3.9E1,3.1E1,5.6E1,2.7E1,8E0,3.1E1,1.9E1,1.2E1,2.4E1,3.2E1,7E0,2E1,1E0,3E1,6E0,1.3E1,6E0,6E0,1.8E1,6E0,3E0,2.9E1,1E0,6E0,1E0,1.9E1,2.9E1,1E0,1E0,1.2E1,4E0,2E0,7E0,1.1E1,4E0,2E0,2.7E1,2E0,2.8E1,1E0,1E1,2E0,3E0,4E0,9E0,2E0,6E0,2.1E1],"tree_param":{"num_deleted":"0","num_feature":"19","num_nodes":"51","size_leaf_vector":"1"}},{"base_weights":[-1.8450132E-1,-7.3748875E0,3.3863852E0,-9.35073E0,-0E0,1.0024558E0,8.704391E0,-1.35E1,-6.537289E0,6.383848E-2,-8.644493E-1,-3.8902324E-1,4.953382E0,2.720212E0,1.084628E1,-0E0,-7.056978E-1,-3.735288E-1,-0E0,-0E0,-9.415109E-2,-2.0146427E0,1.3073306E0,5.119076E-1,2.2085586E0,-0E0,4.118043E0,5.844013E-1,-0E0,-0E0,7.628212E-2,-3.756858E0,5.1430337E-2,3.0978956E0,-0E0,-0E0,2.6016994E0,-0E0,2.2715549E-1,-0E0,-1.9822347E-1,5.8421936E-2,-1.2697411E-2,1.9998653E-1,-0E0,-0E0,1.5394938E-1],"categories":[],"categories_nodes":[],"categories_segments":[],"categories_sizes":[],"default_left":[0,0,0,0,0,0,0,0,0,0,0,0,0,0,0,0,0,0,0,0,0,0,0,0,0,0,0,0,0,0,0,0,0,0,0,0,0,0,0,0,0,0,0,0,0,0,0],"id":8,"left_children":[1,3,5,7,9,11,13,15,17,-1,19,21,23,25,27,-1,-1,-1,29,-1,-1,31,33,-1,35,-1,37,-1,-1,-1,-1,39,41,43,-1,-1,45,-1,-1,-1,-1,-1,-1,-1,-1,-1,-1],"loss_changes":[4.2243794E3,7.683616E2,1.2634025E3,2.1334424E2,1.3993289E1,4.7088818E2,2.4498926E2,5.5102295E1,2.1169849E2,0E0,1.7347672E1,1.6413397E2,1.720481E2,3.7312866E1,1.4408008E2,0E0,0E0,0E0,6.982754E0,0E0,0E0,1.5243289E2,6.2838696E1,0E0,1.8611168E1,0E0,5.1311264E0,0E0,0E0,0E0,0E0,1.634372E1,1.3876063E1,5.4411926E1,0E0,0E0,2.1709557E1,0E0,0E0,0E0,0E0,0E0,0E0,0E0,0E0,0E0,0E0],"parents":[2147483647,0,0,1,1,2,2,3,3,4,4,5,5,6,6,7,7,8,8,10,10,11,11,12,12,13,13,14,14,18,18,21,21,22,22,24,24,26,26,31,31,32,32,33,33,36,36],"right_children":[2,4,6,8,10,12,14,16,18,-1,20,22,24,26,28,-1,-1,-1,30,-1,-1,32,34,-1,36,-1,38,-1,-1,-1,-1,40,42,44,-1,-1,46,-1,-1,-1,-1,-1,-1,-1,-1,-1,-1],"split_conditions":[3.58E1,4.1E-1,4.3E1,3.17E1,6.3E-1,2.74E1,3.4E-1,2.5E0,3.4E-1,6.383848E-2,7.3E-1,4.8E-1,3.05E1,9.51E1,2.08E1,-0E0,-7.056978E-1,-3.735288E-1,3.33E1,-0E0,-9.415109E-2,3.76E1,1.41E1,5.119076E-1,7.6E0,-0E0,1.53E1,5.844013E-1,-0E0,-0E0,7.628212E-2,3.61E1,1.88E1,3.89E1,-0E0,-0E0,1.98E1,-0E0,2.2715549E-1,-0E0,-1.9822347E-1,5.8421936E-2,-1.2697411E-2,1.9998653E-1,-0E0,-0E0,1.5394938E-1],"split_indices":[0,14,0,0,18,5,14,10,14,0,15,13,3,1,11,0,0,0,0,0,0,3,11,0,6,0,4,0,0,0,0,0,11,3,0,0,8,0,0,0,0,0,0,0,0,0,0],"split_type":[0,0,0,0,0,0,0,0,0,0,0,0,0,0,0,0,0,0,0,0,0,0,0,0,0,0,0,0,0,0,0,0,0,0,0,0,0,0,0,0,0,0,0,0,0,0,0],"sum_hessian":[1.61E2,5.4E1,1.07E2,4.2E1,1.2E1,7.6E1,3.1E1,1.4E1,2.8E1,3E0,9E0,5.5E1,2.1E1,1E1,2.1E1,1E0,1.3E1,2.5E1,3E0,3E0,6E0,3.1E1,2.4E1,5E0,1.6E1,4E0,6E0,1.9E1,2E0,1E0,2E0,1.9E1,1.2E1,1E1,1.4E1,2E0,1.4E1,1E0,5E0,1E0,1.8E1,9E0,3E0,9E0,1E0,2E0,1.2E1],"tree_param":{"num_deleted":"0","num_feature":"19","num_nodes":"47","size_leaf_vector":"1"}},{"base_weights":[-4.2715133E-4,-4.887613E0,4.8839436E0,-1.4031701E1,-2.816528E0,2.2763329E0,8.411724E0,-1.0526486E-1,-1.6183874E1,-7.2126245E0,-6.709251E-1,-0E0,3.8749418E0,2.7249043E0,1.0784586E1,-8.761942E-1,-0E0,-8.875658E0,-0E0,-2.4252748E0,2.474001E0,-2.82958E0,1.0785086E0,9.120531E-2,5.83681E0,-0E0,3.8978806E0,5.832071E-1,-0E0,-0E0,-9.7826395E0,-3.2083254E0,-0E0,4.1240816E0,-0E0,-3.1347096E0,-0E0,1.3273233E-1,-0E0,1.168517E0,-0E0,-0E0,6.4845815E0,2.1153858E-1,-0E0,-0E0,-5.097185E-1,-0E0,-1.9306535E-1,-0E0,2.2652283E-1,-4.508972E-2,2.437973E-2,-0E0,-1.7651619E-1,-0E0,8.907382E-2,-0E0,3.419518E-1],"categories":[],"categories_nodes":[],"categories_segments":[],"categories_sizes":[],"default_left":[0,0,0,0,0,0,0,0,0,0,0,0,0,0,0,0,0,0,0,0,0,0,0,0,0,0,0,0,0,0,0,0,0,0,0,0,0,0,0,0,0,0,0,0,0,0,0,0,0,0,0,0,0,0,0,0,0,0,0],"id":9,"left_children":[1,3,5,7,9,11,13,-1,15,17,19,21,23,25,27,-1,-1,29,-1,31,33,35,37,39,41,-1,43,-1,-1,-1,45,47,-1,49,51,53,-1,-1,-1,55,-1,-1,57,-1,-1,-1,-1,-1,-1,-1,-1,-1,-1,-1,-1,-1,-1,-1,-1],"loss_changes":[3.8671104E3,1.3449279E3,6.098977E2,1.4238379E2,5.671525E2,1.9655232E2,2.6732764E2,0E0,1.8976904E2,2.467533E2,2.758606E2,7.233019E1,1.628833E2,3.2446533E1,1.4253833E2,0E0,0E0,9.6286255E1,0E0,6.7640564E1,7.214958E1,2.9127693E0,3.304551E1,9.449884E0,5.9566406E1,0E0,3.7482224E0,0E0,0E0,0E0,1.9451782E1,7.5295746E1,0E0,1.4644852E1,4.203927E0,3.3574982E0,0E0,0E0,0E0,9.483925E0,0E0,0E0,2.8789368E1,0E0,0E0,0E0,0E0,0E0,0E0,0E0,0E0,0E0,0E0,0E0,0E0,0E0,0E0,0E0,0E0],"parents":[2147483647,0,0,1,1,2,2,3,3,4,4,5,5,6,6,8,8,9,9,10,10,11,11,12,12,13,13,14,14,17,17,19,19,20,20,21,21,22,22,23,23,24,24,26,26,30,30,31,31,33,33,34,34,35,35,39,39,42,42],"right_children":[2,4,6,8,10,12,14,-1,16,18,20,22,24,26,28,-1,-1,30,-1,32,34,36,38,40,42,-1,44,-1,-1,-1,46,48,-1,50,52,54,-1,-1,-1,56,-1,-1,58,-1,-1,-1,-1,-1,-1,-1,-1,-1,-1,-1,-1,-1,-1,-1,-1],"split_conditions":[3.84E1,1.16E1,4.29E1,1.46E1,4.2E-1,1.52E1,1.27E1,-1.0526486E-1,2.83E1,1.5E1,2.87E1,4.8E-1,1.28E1,9.45E1,2.08E1,-8.761942E-1,-0E0,1.12E1,-0E0,5.1E-1,1.71E1,3.05E1,1.34E1,8.25E1,1.09E1,-0E0,2.5E1,5.832071E-1,-0E0,-0E0,5.8E-1,2.71E1,-0E0,2.99E1,3.78E1,3.88E1,-0E0,1.3273233E-1,-0E0,3.91E1,-0E0,-0E0,6.1E-1,2.1153858E-1,-0E0,-0E0,-5.097185E-1,-0E0,-1.9306535E-1,-0E0,2.2652283E-1,-4.508972E-2,2.437973E-2,-0E0,-1.7651619E-1,-0E0,8.907382E-2,-0E0,3.419518E-1],"split_indices":[0,4,0,11,13,4,2,0,8,2,5,13,2,1,11,0,0,11,0,16,11,8,11,1,11,0,12,0,0,0,15,7,0,0,5,0,0,0,0,0,0,0,15,0,0,0,0,0,0,0,0,0,0,0,0,0,0,0,0],"split_type":[0,0,0,0,0,0,0,0,0,0,0,0,0,0,0,0,0,0,0,0,0,0,0,0,0,0,0,0,0,0,0,0,0,0,0,0,0,0,0,0,0,0,0,0,0,0,0,0,0,0,0,0,0,0,0,0,0,0,0],"sum_hessian":[1.6E2,8.1E1,7.9E1,1.3E1,6.8E1,4.8E1,3.1E1,3E0,1E1,2E1,4.8E1,1.9E1,2.9E1,1.1E1,2E1,9E0,1E0,1.6E1,4E0,3.3E1,1.5E1,6E0,1.3E1,1.2E1,1.7E1,4E0,7E0,1.8E1,2E0,2E0,1.4E1,2.5E1,8E0,9E0,6E0,5E0,1E0,6E0,7E0,6E0,6E0,2E0,1.5E1,6E0,1E0,1E0,1.3E1,3E0,2.2E1,1E0,8E0,3E0,3E0,1E0,4E0,1E0,5E0,1E0,1.4E1],"tree_param":{"num_deleted":"0","num_feature":"19","num_nodes":"59","size_leaf_vector":"1"}},{"base_weights":[-6.5926924E-2,-9.690217E0,1.4077324E0,-0E0,-1.0995975E1,-2.2098396E0,4.3954654E0,-1.1899801E1,-0E0,-6.836244E0,-1.6674727E-1,3.523229E0,1.0161524E1,-6.174229E-1,-0E0,-0E0,-8.216398E0,-2.0790455E0,2.2100377E0,1.2544775E0,6.45353E0,-0E0,5.473005E-1,-2.8006237E-3,-0E0,-9.219942E0,-0E0,-3.8663971E0,1.4099299E0,3.2844265E0,-0E0,2.8417072E0,-0E0,3.7096706E-1,6.536996E-1,-0E0,-4.8884353E-1,-2.2853021E-1,-0E0,1.9721381E-1,-0E0,2.0671807E-1,-0E0,-0E0,1.1661203E-2,1.7487496E-1,-0E0,-6.831021E-2,1.256766E-1,-0E0,5.5020522E-2],"categories":[],"categories_nodes":[],"categories_segments":[],"categories_sizes":[],"default_left":[0,0,0,0,0,0,0,0,0,0,0,0,0,0,0,0,0,0,0,0,0,0,0,0,0,0,0,0,0,0,0,0,0,0,0,0,0,0,0,0,0,0,0,0,0,0,0,0,0,0,0],"id":10,"left_children":[1,3,5,-1,7,9,11,13,-1,15,17,19,21,-1,-1,23,25,27,29,31,33,-1,-1,-1,-1,35,-1,37,39,41,43,45,47,-1,49,-1,-1,-1,-1,-1,-1,-1,-1,-1,-1,-1,-1,-1,-1,-1,-1],"loss_changes":[2.550112E3,2.8553296E2,1.6528204E3,0E0,1.5135986E2,5.621256E2,2.4981787E2,5.421924E1,0E0,1.2468756E2,2.2599582E2,4.200816E2,2.9212158E1,0E0,0E0,9.412191E-3,9.245752E1,2.170968E2,3.1764153E1,9.719045E1,8.806738E1,0E0,0E0,0E0,0E0,4.1950928E1,0E0,8.89299E1,5.9895462E1,4.147995E1,3.807542E-1,6.2836227E1,9.045784E1,0E0,4.2741566E0,0E0,0E0,0E0,0E0,0E0,0E0,0E0,0E0,0E0,0E0,0E0,0E0,0E0,0E0,0E0,0E0],"parents":[2147483647,0,0,1,1,2,2,4,4,5,5,6,6,7,7,9,9,10,10,11,11,12,12,15,15,16,16,17,17,18,18,19,19,20,20,25,25,27,27,28,28,29,29,30,30,31,31,32,32,34,34],"right_children":[2,4,6,-1,8,10,12,14,-1,16,18,20,22,-1,-1,24,26,28,30,32,34,-1,-1,-1,-1,36,-1,38,40,42,44,46,48,-1,50,-1,-1,-1,-1,-1,-1,-1,-1,-1,-1,-1,-1,-1,-1,-1,-1],"split_conditions":[4.1E-1,3.6E0,1.18E1,-0E0,3.81E1,7.66E1,9.57E1,4.1E-1,-0E0,1.41E1,4.7E-1,4.9E-1,1.35E1,-6.174229E-1,-0E0,8E0,5.1E-1,2.13E1,6.3E0,1.48E1,1.99E1,-0E0,5.473005E-1,-2.8006237E-3,-0E0,2.6E-1,-0E0,3.92E1,1.66E1,1.31E1,1.5E1,2.07E1,4.64E1,3.7096706E-1,6.6E1,-0E0,-4.8884353E-1,-2.2853021E-1,-0E0,1.9721381E-1,-0E0,2.0671807E-1,-0E0,-0E0,1.1661203E-2,1.7487496E-1,-0E0,-6.831021E-2,1.256766E-1,-0E0,5.5020522E-2],"split_indices":[13,10,2,0,7,1,1,14,0,11,13,13,12,0,0,2,13,4,10,2,11,0,0,0,0,14,0,7,11,6,11,11,3,0,1,0,0,0,0,0,0,0,0,0,0,0,0,0,0,0,0],"split_type":[0,0,0,0,0,0,0,0,0,0,0,0,0,0,0,0,0,0,0,0,0,0,0,0,0,0,0,0,0,0,0,0,0,0,0,0,0,0,0,0,0,0,0,0,0,0,0,0,0,0,0],"sum_hessian":[1.72E2,2.3E1,1.49E2,3E0,2E1,6.6E1,8.3E1,1.8E1,2E0,1.8E1,4.8E1,7.5E1,8E0,1.7E1,1E0,4E0,1.4E1,2.9E1,1.9E1,4.5E1,3E1,1E0,7E0,2E0,2E0,1.2E1,2E0,2.1E1,8E0,1.1E1,8E0,2E1,2.5E1,2.4E1,6E0,1E0,1.1E1,1.9E1,2E0,4E0,4E0,9E0,2E0,2E0,6E0,1.8E1,2E0,1.7E1,8E0,1E0,5E0],"tree_param":{"num_deleted":"0","num_feature":"19","num_nodes":"51","size_leaf_vector":"1"}},{"base_weights":[1.1441656E-1,-8.098684E0,1.9119927E0,-2.5701196E0,-6.2103343E-1,-2.3869815E0,3.7930737E0,-4.2883515E0,-0E0,-1.0096985E1,-7.578981E-1,2.2991788E0,7.8867836E0,-0E0,-2.3619942E-1,-0E0,-7.1086437E-1,-2.9765868E0,3.3474872E-1,1.3653908E0,7.8841367E0,3.1909642E0,1.14833555E1,-0E0,-3.4076767E0,2.7600994E0,-1.4324292E0,3.013364E0,2.935456E-3,-0E0,4.1919753E-1,4.6295547E0,-0E0,1.2066038E1,-0E0,-1.8764003E-1,-0E0,-0E0,1.9701657E-1,-1.18182674E-1,-0E0,1.662576E-1,-0E0,-4.4091117E-2,1.2432635E-1,2.956191E-1,-0E0,-0E0,6.335269E-1],"categories":[],"categories_nodes":[],"categories_segments":[],"categories_sizes":[],"default_left":[0,0,0,0,0,0,0,0,0,0,0,0,0,0,0,0,0,0,0,0,0,0,0,0,0,0,0,0,0,0,0,0,0,0,0,0,0,0,0,0,0,0,0,0,0,0,0,0,0],"id":11,"left_children":[1,3,5,7,-1,9,11,13,-1,15,17,19,21,-1,-1,-1,-1,23,25,27,29,31,33,-1,35,37,39,41,43,-1,-1,45,-1,47,-1,-1,-1,-1,-1,-1,-1,-1,-1,-1,-1,-1,-1,-1,-1],"loss_changes":[2.4043875E3,5.1110632E2,1.1390822E3,1.0320682E2,0E0,3.987685E2,4.7933325E2,2.0871124E1,0E0,1.9683038E2,1.14687546E2,2.878773E2,2.2194629E2,0E0,0E0,0E0,0E0,2.9670609E1,1.1152293E2,1.2026259E2,2.8884888E0,6.0525696E1,1.907251E1,0E0,2.0514008E1,6.384433E1,2.771133E1,3.1246078E1,1.08332184E2,0E0,0E0,5.179883E1,0E0,3.9433594E0,0E0,0E0,0E0,0E0,0E0,0E0,0E0,0E0,0E0,0E0,0E0,0E0,0E0,0E0,0E0],"parents":[2147483647,0,0,1,1,2,2,3,3,5,5,6,6,7,7,9,9,10,10,11,11,12,12,17,17,18,18,19,19,20,20,21,21,22,22,24,24,25,25,26,26,27,27,28,28,31,31,33,33],"right_children":[2,4,6,8,-1,10,12,14,-1,16,18,20,22,-1,-1,-1,-1,24,26,28,30,32,34,-1,36,38,40,42,44,-1,-1,46,-1,48,-1,-1,-1,-1,-1,-1,-1,-1,-1,-1,-1,-1,-1,-1,-1],"split_conditions":[4.2E-1,1.7E1,3.3E-1,3.57E1,-6.2103343E-1,1.16E1,5.1E-1,9.8E0,-0E0,8.6E0,8.08E1,9.51E1,1.37E1,-0E0,-2.3619942E-1,-0E0,-7.1086437E-1,1.32E1,1.96E1,1.41E1,1.35E1,7.3E-1,2.33E1,-0E0,1.06E1,7.3E-1,3.91E1,1.45E1,2.13E1,-0E0,4.1919753E-1,1.9E1,-0E0,2.49E1,-0E0,-1.8764003E-1,-0E0,-0E0,1.9701657E-1,-1.18182674E-1,-0E0,1.662576E-1,-0E0,-4.4091117E-2,1.2432635E-1,2.956191E-1,-0E0,-0E0,6.335269E-1],"split_indices":[13,11,14,7,0,4,13,11,0,4,1,1,2,0,0,0,0,11,12,11,12,15,2,0,2,15,7,6,4,0,0,11,0,8,0,0,0,0,0,0,0,0,0,0,0,0,0,0,0],"split_type":[0,0,0,0,0,0,0,0,0,0,0,0,0,0,0,0,0,0,0,0,0,0,0,0,0,0,0,0,0,0,0,0,0,0,0,0,0,0,0,0,0,0,0,0,0,0,0,0,0],"sum_hessian":[1.65E2,2.8E1,1.37E2,1.4E1,1.4E1,4E1,9.7E1,1E1,4E0,5E0,3.5E1,7.4E1,2.3E1,1E0,9E0,2E0,3E0,1.4E1,2.1E1,6.6E1,8E0,1.2E1,1.1E1,1E0,1.3E1,1.1E1,1E1,2.6E1,4E1,1E0,7E0,8E0,4E0,1E1,1E0,1.2E1,1E0,2E0,9E0,8E0,2E0,2.4E1,2E0,2.7E1,1.3E1,6E0,2E0,1E0,9E0],"tree_param":{"num_deleted":"0","num_feature":"19","num_nodes":"49","size_leaf_vector":"1"}},{"base_weights":[-1.3866863E-2,-4.876838E0,4.0703306E0,-1.3499354E1,-3.0366998E0,1.8861853E0,8.125651E0,-8.942538E-2,-7.916879E-1,-5.2924013E0,-0E0,5.3346187E-1,4.7579527E0,3.0098836E0,9.942213E0,-0E0,-6.5854096E0,-1.1294451E0,2.588211E0,1.4578583E0,-1.7152772E0,-0E0,5.393581E0,-0E0,4.2696304E0,1.0805577E1,-0E0,-1.571469E-1,2.261856E0,-0E0,-6.89541E0,6.1858177E-2,-2.4438007E0,2.3228164E-1,-0E0,-0E0,2.5188966E0,-2.7233639E0,-0E0,-0E0,5.9895377E0,2.3310883E-1,-0E0,5.562003E-1,-0E0,-0E0,1.3761044E-1,-0E0,-3.526962E-1,-0E0,9.168765E-2,-1.6830175E-1,-0E0,-3.6200363E-2,9.03038E-2,1.7566341E-1,-0E0,-0E0,-1.4951123E-1,-0E0,3.1456465E-1],"categories":[],"categories_nodes":[],"categories_segments":[],"categories_sizes":[],"default_left":[0,0,0,0,0,0,0,0,0,0,0,0,0,0,0,0,0,0,0,0,0,0,0,0,0,0,0,0,0,0,0,0,0,0,0,0,0,0,0,0,0,0,0,0,0,0,0,0,0,0,0,0,0,0,0,0,0,0,0,0,0],"id":12,"left_children":[1,3,5,7,9,11,13,-1,-1,15,17,19,21,23,25,27,29,31,33,35,37,-1,39,-1,41,43,-1,-1,45,-1,47,49,51,-1,-1,53,55,57,-1,-1,59,-1,-1,-1,-1,-1,-1,-1,-1,-1,-1,-1,-1,-1,-1,-1,-1,-1,-1,-1,-1],"loss_changes":[3.4837876E3,1.0788424E3,7.1715173E2,1.5085034E2,4.840938E2,1.9316891E2,1.286405E2,0E0,0E0,2.2401575E2,9.377693E1,9.762659E1,2.8874725E1,2.7954819E1,1.4264966E2,8.484832E1,8.200415E1,5.6852318E1,4.0921158E1,6.729335E1,2.696975E1,0E0,3.0008545E1,0E0,2.8071518E0,8.934082E0,0E0,0E0,4.718645E0,0E0,1.6577148E1,1.0057339E1,4.1021812E1,0E0,0E0,1.6600157E1,8.85867E1,3.2564125E0,0E0,0E0,8.595062E0,0E0,0E0,0E0,0E0,0E0,0E0,0E0,0E0,0E0,0E0,0E0,0E0,0E0,0E0,0E0,0E0,0E0,0E0,0E0,0E0],"parents":[2147483647,0,0,1,1,2,2,3,3,4,4,5,5,6,6,9,9,10,10,11,11,12,12,13,13,14,14,15,15,16,16,17,17,18,18,19,19,20,20,22,22,24,24,25,25,28,28,30,30,31,31,32,32,35,35,36,36,37,37,40,40],"right_children":[2,4,6,8,10,12,14,-1,-1,16,18,20,22,24,26,28,30,32,34,36,38,-1,40,-1,42,44,-1,-1,46,-1,48,50,52,-1,-1,54,56,58,-1,-1,60,-1,-1,-1,-1,-1,-1,-1,-1,-1,-1,-1,-1,-1,-1,-1,-1,-1,-1,-1,-1],"split_conditions":[3.73E1,1.16E1,4.3E1,1.46E1,1.21E1,2.15E1,1.23E1,-8.942538E-2,-7.916879E-1,1.41E1,3.4E-1,1.77E1,3.79E1,4.42E1,2.08E1,2.21E1,1.2E0,7.83E1,4.4E-1,4.7E-1,7.3E0,-0E0,6.4E0,-0E0,2.08E1,2.33E1,-0E0,-1.571469E-1,2.99E1,-0E0,1.52E1,4.7E0,8.53E1,2.3228164E-1,-0E0,6.6E0,1.06E1,7.58E1,-0E0,-0E0,7.21E1,2.3310883E-1,-0E0,5.562003E-1,-0E0,-0E0,1.3761044E-1,-0E0,-3.526962E-1,-0E0,9.168765E-2,-1.6830175E-1,-0E0,-3.6200363E-2,9.03038E-2,1.7566341E-1,-0E0,-0E0,-1.4951123E-1,-0E0,3.1456465E-1],"split_indices":[0,4,0,11,2,4,2,0,0,11,17,11,0,0,11,4,10,1,16,13,10,0,6,0,6,2,0,0,0,0,5,10,1,0,0,10,9,1,0,0,1,0,0,0,0,0,0,0,0,0,0,0,0,0,0,0,0,0,0,0,0],"split_type":[0,0,0,0,0,0,0,0,0,0,0,0,0,0,0,0,0,0,0,0,0,0,0,0,0,0,0,0,0,0,0,0,0,0,0,0,0,0,0,0,0,0,0,0,0,0,0,0,0,0,0,0,0,0,0,0,0,0,0,0,0],"sum_hessian":[1.73E2,8E1,9.3E1,1.2E1,6.8E1,6.3E1,3E1,3E0,9E0,3.9E1,2.9E1,4.6E1,1.7E1,1E1,2E1,9E0,3E1,2E1,9E0,3.6E1,1E1,3E0,1.4E1,4E0,6E0,1.8E1,2E0,5E0,4E0,1E0,2.9E1,7E0,1.3E1,4E0,5E0,1.4E1,2.2E1,7E0,3E0,2E0,1.2E1,5E0,1E0,1.7E1,1E0,1E0,3E0,1E0,2.8E1,5E0,2E0,1E1,3E0,1.2E1,2E0,1.8E1,4E0,1E0,6E0,1E0,1.1E1],"tree_param":{"num_deleted":"0","num_feature":"19","num_nodes":"61","size_leaf_vector":"1"}},{"base_weights":[1.16504505E-1,-3.7673411E0,4.22099E0,-1.36095295E1,-2.384273E0,2.3408287E0,8.093832E0,-0E0,-7.284127E-1,-4.892867E0,2.6509902E-1,-0E0,3.5833745E0,-0E0,8.44823E0,-5.891322E0,-3.0836868E-1,-4.515906E-1,3.101982E0,-1.8572044E0,4.4998932E-1,-0E0,5.2220836E0,8.790253E0,-0E0,-6.119768E0,-0E0,-1.2579326E-1,4.02301E-1,-1.8612802E0,1.3068542E0,4.0085506E0,-0E0,-0E0,-1.0113193E-1,1.1321497E0,-0E0,3.6532898E-2,-7.34921E-2,6.332874E-2,6.4060817E0,-0E0,4.677178E-1,-0E0,-3.16657E-1,-0E0,4.2605687E-2,-0E0,-1.3216476E-1,1.19175725E-1,-0E0,-0E0,2.419503E-1,6.1145674E-2,-0E0,-0E0,1.8191637E-2,3.5835764E-1,1.9250564E-2],"categories":[],"categories_nodes":[],"categories_segments":[],"categories_sizes":[],"default_left":[0,0,0,0,0,0,0,0,0,0,0,0,0,0,0,0,0,0,0,0,0,0,0,0,0,0,0,0,0,0,0,0,0,0,0,0,0,0,0,0,0,0,0,0,0,0,0,0,0,0,0,0,0,0,0,0,0,0,0],"id":13,"left_children":[1,3,5,7,9,11,13,-1,-1,15,17,19,21,-1,23,25,27,29,31,33,35,37,39,41,-1,43,-1,-1,45,47,49,51,-1,-1,-1,53,-1,-1,-1,55,57,-1,-1,-1,-1,-1,-1,-1,-1,-1,-1,-1,-1,-1,-1,-1,-1,-1,-1],"loss_changes":[2.5869697E3,9.238313E2,4.5923254E2,3.0898438E1,5.3939343E2,2.0129263E2,6.932678E1,0E0,0E0,1.1928308E2,9.9065506E1,2.982106E1,2.7721167E2,0E0,5.8338257E1,4.7608887E1,3.783579E1,7.2427086E1,3.232489E1,1.0438023E0,8.02671E0,1.995279E1,1.12030945E2,5.017151E1,0E0,3.9604248E1,0E0,0E0,2.0951607E0,4.2446598E1,1.3034892E1,1.1948044E1,0E0,0E0,0E0,2.145176E-1,0E0,0E0,0E0,8.9453566E-1,2.253302E1,0E0,0E0,0E0,0E0,0E0,0E0,0E0,0E0,0E0,0E0,0E0,0E0,0E0,0E0,0E0,0E0,0E0,0E0],"parents":[2147483647,0,0,1,1,2,2,3,3,4,4,5,5,6,6,9,9,10,10,11,11,12,12,14,14,15,15,16,16,17,17,18,18,19,19,20,20,21,21,22,22,23,23,25,25,28,28,29,29,30,30,31,31,35,35,39,39,40,40],"right_children":[2,4,6,8,10,12,14,-1,-1,16,18,20,22,-1,24,26,28,30,32,34,36,38,40,42,-1,44,-1,-1,46,48,50,52,-1,-1,-1,54,-1,-1,-1,56,58,-1,-1,-1,-1,-1,-1,-1,-1,-1,-1,-1,-1,-1,-1,-1,-1,-1,-1],"split_conditions":[3.79E1,2.94E1,4.43E1,1.36E1,3.4E-1,3.2E-1,8E0,-0E0,-7.284127E-1,3.11E1,3.02E1,3.8E-1,1.92E1,-0E0,2.08E1,1.16E1,3.47E1,3.51E1,2.07E1,5.6E0,1.16E1,1.28E1,4E0,4.5E-1,-0E0,9.8E0,-0E0,-1.2579326E-1,8.01E1,2.67E1,3.77E1,3.9E-1,-0E0,-0E0,-1.0113193E-1,2.96E1,-0E0,3.6532898E-2,-7.34921E-2,4.8E-1,7.9E0,-0E0,4.677178E-1,-0E0,-3.16657E-1,-0E0,4.2605687E-2,-0E0,-1.3216476E-1,1.19175725E-1,-0E0,-0E0,2.419503E-1,6.1145674E-2,-0E0,-0E0,1.8191637E-2,3.5835764E-1,1.9250564E-2],"split_indices":[0,0,0,11,14,14,5,0,0,5,5,16,5,0,11,10,0,7,11,2,6,11,10,13,0,11,0,0,1,7,7,14,0,0,0,12,0,0,0,18,10,0,0,0,0,0,0,0,0,0,0,0,0,0,0,0,0,0,0],"split_type":[0,0,0,0,0,0,0,0,0,0,0,0,0,0,0,0,0,0,0,0,0,0,0,0,0,0,0,0,0,0,0,0,0,0,0,0,0,0,0,0,0,0,0,0,0,0,0,0,0,0,0,0,0,0,0,0,0,0,0],"sum_hessian":[1.6E2,8.1E1,7.9E1,8E0,7.3E1,5.6E1,2.3E1,1E0,7E0,3.9E1,3.4E1,1.7E1,3.9E1,1E0,2.2E1,3E1,9E0,2.5E1,9E0,7E0,1E1,1.1E1,2.8E1,2.1E1,1E0,2.9E1,1E0,5E0,4E0,1.7E1,8E0,7E0,2E0,1E0,6E0,7E0,3E0,4E0,7E0,7E0,2.1E1,2E0,1.9E1,1E0,2.8E1,1E0,3E0,3E0,1.4E1,4E0,4E0,2E0,5E0,6E0,1E0,1E0,6E0,1.7E1,4E0],"tree_param":{"num_deleted":"0","num_feature":"19","num_nodes":"59","size_leaf_vector":"1"}},{"base_weights":[-1.31950155E-2,-4.978305E0,2.4029508E0,-6.6272855E0,-0E0,-0E0,4.5796785E0,-2.7498012E0,-9.444672E0,-1.0759681E0,1.9949265E0,-1.110896E0,3.1252756E0,-0E0,5.3593264E0,-0E0,-3.803872E0,-0E0,-9.724474E0,-1.7824669E0,-0E0,1.6272679E-1,-0E0,-0E0,-2.1430056E0,3.7042098E0,-0E0,-2.4606432E-1,4.946461E-2,9.9619484E-1,6.3079996E0,-4.1035233E0,-0E0,-4.996398E-1,-0E0,-0E0,-1.1056105E-1,-1.1672547E0,9.754414E-2,-4.1347218E0,-4.9143308E-1,2.057307E-1,-0E0,-0E0,1.70887E-2,-0E0,-2.7394408E-2,1.4296341E-1,-0E0,-0E0,6.671837E0,-2.1681009E-1,-0E0,-0E0,-1.15516916E-1,-0E0,-2.221138E-1,-0E0,-4.4270743E-2,-3.867569E-3,-0E0,3.394965E-1,-0E0],"categories":[],"categories_nodes":[],"categories_segments":[],"categories_sizes":[],"default_left":[0,0,0,0,0,0,0,0,0,0,0,0,0,0,0,0,0,0,0,0,0,0,0,0,0,0,0,0,0,0,0,0,0,0,0,0,0,0,0,0,0,0,0,0,0,0,0,0,0,0,0,0,0,0,0,0,0,0,0,0,0,0,0],"id":14,"left_children":[1,3,5,7,9,11,13,15,17,19,21,23,25,27,29,-1,31,-1,33,35,-1,-1,-1,37,39,41,43,45,-1,47,49,51,-1,-1,-1,-1,-1,53,-1,55,57,-1,-1,-1,-1,-1,-1,-1,59,-1,61,-1,-1,-1,-1,-1,-1,-1,-1,-1,-1,-1,-1],"loss_changes":[2.0651125E3,4.7593848E2,5.849525E2,3.2183215E2,3.5455463E1,1.9710791E2,1.9868494E2,7.272154E1,2.8796875E1,1.384043E1,1.8489622E1,5.962167E1,4.422653E0,4.3386292E0,1.2763342E2,0E0,2.1072449E1,0E0,1.6536621E1,8.808977E0,0E0,0E0,0E0,4.7878326E1,3.065364E1,1.4375458E0,4.6723783E-1,1.0770738E0,0E0,3.7143635E1,5.0639038E1,1.0653488E1,0E0,0E0,0E0,0E0,0E0,1.8401148E1,0E0,1.3693085E0,4.5179434E0,0E0,0E0,0E0,0E0,0E0,0E0,0E0,2.9916178E-2,0E0,1.1127441E1,0E0,0E0,0E0,0E0,0E0,0E0,0E0,0E0,0E0,0E0,0E0,0E0],"parents":[2147483647,0,0,1,1,2,2,3,3,4,4,5,5,6,6,7,7,8,8,9,9,10,10,11,11,12,12,13,13,14,14,16,16,18,18,19,19,23,23,24,24,25,25,26,26,27,27,29,29,30,30,31,31,37,37,39,39,40,40,48,48,50,50],"right_children":[2,4,6,8,10,12,14,16,18,20,22,24,26,28,30,-1,32,-1,34,36,-1,-1,-1,38,40,42,44,46,-1,48,50,52,-1,-1,-1,-1,-1,54,-1,56,58,-1,-1,-1,-1,-1,-1,-1,60,-1,62,-1,-1,-1,-1,-1,-1,-1,-1,-1,-1,-1,-1],"split_conditions":[3.58E1,4.1E-1,3.99E1,1.66E1,2.81E1,2.74E1,1.72E1,2.84E1,2.5E0,5.2E-1,2.9E1,1.34E1,3.84E1,7.6E-1,3.3E-1,-0E0,1.63E1,-0E0,8E-1,1.16E1,-0E0,1.6272679E-1,-0E0,7.5E-1,1.84E1,3.77E1,2.85E1,1.68E1,4.946461E-2,1.78E1,5.2E-1,9.14E1,-0E0,-4.996398E-1,-0E0,-0E0,-1.1056105E-1,3.7E0,9.754414E-2,2.98E1,3.21E1,2.057307E-1,-0E0,-0E0,1.70887E-2,-0E0,-2.7394408E-2,1.4296341E-1,4.3E1,-0E0,2.4E1,-2.1681009E-1,-0E0,-0E0,-1.15516916E-1,-0E0,-2.221138E-1,-0E0,-4.4270743E-2,-3.867569E-3,-0E0,3.394965E-1,-0E0],"split_indices":[0,14,0,11,5,5,5,7,10,16,3,11,0,18,14,0,11,0,18,11,0,0,0,15,5,7,3,12,0,12,18,1,0,0,0,0,0,10,0,7,7,0,0,0,0,0,0,0,0,0,11,0,0,0,0,0,0,0,0,0,0,0,0],"split_type":[0,0,0,0,0,0,0,0,0,0,0,0,0,0,0,0,0,0,0,0,0,0,0,0,0,0,0,0,0,0,0,0,0,0,0,0,0,0,0,0,0,0,0,0,0,0,0,0,0,0,0,0,0,0,0,0,0,0,0,0,0,0,0],"sum_hessian":[1.68E2,5.6E1,1.12E2,4.2E1,1.4E1,5.4E1,5.8E1,2E1,2.2E1,9E0,5E0,4E1,1.4E1,9E0,4.9E1,5E0,1.5E1,1E0,2.1E1,7E0,2E0,3E0,2E0,1.7E1,2.3E1,1E1,4E0,6E0,3E0,1.1E1,3.8E1,1.4E1,1E0,2E1,1E0,1E0,6E0,9E0,8E0,7E0,1.6E1,8E0,2E0,1E0,3E0,2E0,4E0,5E0,6E0,3E0,3.5E1,1.3E1,1E0,4E0,5E0,1E0,6E0,6E0,1E1,4E0,2E0,3.4E1,1E0],"tree_param":{"num_deleted":"0","num_feature":"19","num_nodes":"63","size_leaf_vector":"1"}},{"base_weights":[-3.381808E-1,-3.7681828E0,3.1831408E0,-1.2218447E1,-2.1198945E0,7.153524E-1,4.8815107E0,-6.830674E-2,-7.168764E-1,-6.1066704E0,-3.773095E-1,-5.986888E-1,2.362222E0,2.1035514E0,6.7308545E0,-6.6186423E0,-0E0,7.2404736E-1,-2.0182092E0,6.3984835E-1,-1.7125456E0,-0E0,2.9213545E0,-0E0,3.7727966E0,3.2420564E0,9.9673195E0,-0E0,-6.8381486E0,-2.27366E-1,3.0034478E0,-3.2323873E0,-0E0,4.8387624E-2,-0E0,-2.3552988E0,-0E0,-0E0,1.5119839E-1,4.8695745E0,-0E0,-0E0,1.8096802E-1,5.249963E-1,-0E0,-3.528319E-1,-0E0,-6.159345E-2,4.158081E-2,-0E0,2.0692253E-1,-1.7544675E-1,-0E0,-0E0,5.3323593E-2,-1.411574E-1,-0E0,-0E0,2.7880806E-1],"categories":[],"categories_nodes":[],"categories_segments":[],"categories_sizes":[],"default_left":[0,0,0,0,0,0,0,0,0,0,0,0,0,0,0,0,0,0,0,0,0,0,0,0,0,0,0,0,0,0,0,0,0,0,0,0,0,0,0,0,0,0,0,0,0,0,0,0,0,0,0,0,0,0,0,0,0,0,0],"id":15,"left_children":[1,3,5,7,9,11,13,-1,-1,15,17,19,21,23,25,27,-1,29,31,33,35,-1,37,-1,39,41,43,-1,45,47,49,51,53,-1,-1,55,-1,-1,-1,57,-1,-1,-1,-1,-1,-1,-1,-1,-1,-1,-1,-1,-1,-1,-1,-1,-1,-1,-1],"loss_changes":[2.0469725E3,1.0424917E3,2.8421924E2,1.22336426E2,4.5390335E2,9.911957E1,1.3381775E2,0E0,0E0,4.920221E1,1.137998E2,3.66547E1,5.0550102E1,7.345952E1,1.1787598E2,9.362915E0,0E0,9.3503265E1,9.2615845E1,1.6991498E0,1.9962376E1,0E0,2.4468994E0,0E0,6.631966E1,2.5732834E1,9.662109E0,0E0,4.849365E0,2.5238235E1,6.301934E1,2.3108994E1,5.686811E0,0E0,0E0,1.0709728E1,0E0,0E0,0E0,4.271454E1,0E0,0E0,0E0,0E0,0E0,0E0,0E0,0E0,0E0,0E0,0E0,0E0,0E0,0E0,0E0,0E0,0E0,0E0,0E0],"parents":[2147483647,0,0,1,1,2,2,3,3,4,4,5,5,6,6,9,9,10,10,11,11,12,12,13,13,14,14,15,15,17,17,18,18,19,19,20,20,22,22,24,24,25,25,26,26,28,28,29,29,30,30,31,31,32,32,35,35,39,39],"right_children":[2,4,6,8,10,12,14,-1,-1,16,18,20,22,24,26,28,-1,30,32,34,36,-1,38,-1,40,42,44,-1,46,48,50,52,54,-1,-1,56,-1,-1,-1,58,-1,-1,-1,-1,-1,-1,-1,-1,-1,-1,-1,-1,-1,-1,-1,-1,-1,-1,-1],"split_conditions":[3.79E1,1.16E1,2.18E1,1.46E1,4.2E-1,4.11E1,1.32E1,-6.830674E-2,-7.168764E-1,1.5E1,1.71E1,3.16E1,2.64E1,4.17E1,2.89E1,5.8E-1,-0E0,4.6E-1,1.42E1,3.95E1,2.34E1,-0E0,1.76E1,-0E0,7.7E-1,1.95E1,1.99E1,-0E0,8.7E-1,2.37E1,6.7E0,8.38E1,4.9E0,4.8387624E-2,-0E0,8.1E-1,-0E0,-0E0,1.5119839E-1,5.9E0,-0E0,-0E0,1.8096802E-1,5.249963E-1,-0E0,-3.528319E-1,-0E0,-6.159345E-2,4.158081E-2,-0E0,2.0692253E-1,-1.7544675E-1,-0E0,-0E0,5.3323593E-2,-1.411574E-1,-0E0,-0E0,2.7880806E-1],"split_indices":[0,4,5,11,13,0,2,0,0,2,11,3,3,0,8,15,0,13,2,0,12,0,8,0,18,8,11,0,15,4,9,1,10,0,0,15,0,0,0,2,0,0,0,0,0,0,0,0,0,0,0,0,0,0,0,0,0,0,0],"split_type":[0,0,0,0,0,0,0,0,0,0,0,0,0,0,0,0,0,0,0,0,0,0,0,0,0,0,0,0,0,0,0,0,0,0,0,0,0,0,0,0,0,0,0,0,0,0,0,0,0,0,0,0,0,0,0,0,0,0,0],"sum_hessian":[1.67E2,8.6E1,8.1E1,1.2E1,7.4E1,3.6E1,4.5E1,3E0,9E0,2E1,5.4E1,1.7E1,1.9E1,2.1E1,2.4E1,1.8E1,2E0,2.9E1,2.5E1,4E0,1.3E1,1E0,1.8E1,1E1,1.1E1,1.4E1,1E1,1E0,1.7E1,1.8E1,1.1E1,1.8E1,7E0,3E0,1E0,1E1,3E0,1E0,1.7E1,9E0,2E0,1E0,1.3E1,9E0,1E0,1.6E1,1E0,1.4E1,4E0,2E0,9E0,1.7E1,1E0,3E0,4E0,8E0,2E0,1E0,8E0],"tree_param":{"num_deleted":"0","num_feature":"19","num_nodes":"59","size_leaf_vector":"1"}},{"base_weights":[5.9425447E-2,-5.342261E0,2.9258018E0,-1.0721844E1,-3.404151E0,3.6923206E-1,6.077676E0,-1.1370648E1,-0E0,-5.13062E0,-0E0,-3.3196232E-1,6.4814386E0,3.9719695E-1,7.149442E0,-0E0,-1.1964449E1,-0E0,-5.425825E0,1.554779E0,-1.8563522E0,-1.5865581E0,2.323808E-1,4.014859E-1,-0E0,-0E0,2.2909825E0,7.4186025E0,-0E0,-0E0,-6.294301E-1,-5.667594E0,-0E0,-0E0,1.5180619E-1,-0E0,-1.5311687E-1,-2.4398732E0,-0E0,-2.1761286E-1,1.6050584E0,-1.618786E-2,-0E0,-0E0,1.3954423E-1,7.570118E0,-0E0,-0E0,-2.8962985E-1,-0E0,-1.3371895E-1,2.3303032E-3,-0E0,-0E0,-5.043496E-2,9.0418845E-2,-0E0,4.260834E-2,4.0434405E-1],"categories":[],"categories_nodes":[],"categories_segments":[],"categories_sizes":[],"default_left":[0,0,0,0,0,0,0,0,0,0,0,0,0,0,0,0,0,0,0,0,0,0,0,0,0,0,0,0,0,0,0,0,0,0,0,0,0,0,0,0,0,0,0,0,0,0,0,0,0,0,0,0,0,0,0,0,0,0,0],"id":16,"left_children":[1,3,5,7,9,11,13,15,-1,17,19,21,23,25,27,-1,29,-1,31,33,35,37,39,-1,-1,41,43,45,-1,-1,-1,47,-1,-1,-1,-1,-1,49,51,53,55,-1,-1,-1,-1,57,-1,-1,-1,-1,-1,-1,-1,-1,-1,-1,-1,-1,-1],"loss_changes":[2.5307214E3,4.0610962E2,8.1160736E2,5.7046875E1,2.2716849E2,3.336546E2,2.0783667E2,2.3128662E1,0E0,5.7817444E1,5.379914E1,5.355972E1,5.0785797E1,2.9913954E1,3.8932007E1,0E0,1.0100342E1,0E0,8.171814E0,2.675153E1,2.1807018E1,4.9258823E1,3.5225407E1,0E0,0E0,4.1927484E-1,7.4535713E0,2.4450073E1,0E0,0E0,0E0,2.2597656E0,0E0,0E0,0E0,0E0,0E0,1.4435471E1,8.688501E-3,1.3250174E1,3.1757507E0,0E0,0E0,0E0,0E0,2.5223755E1,0E0,0E0,0E0,0E0,0E0,0E0,0E0,0E0,0E0,0E0,0E0,0E0,0E0],"parents":[2147483647,0,0,1,1,2,2,3,3,4,4,5,5,6,6,7,7,9,9,10,10,11,11,12,12,13,13,14,14,16,16,18,18,19,19,20,20,21,21,22,22,25,25,26,26,27,27,31,31,37,37,38,38,39,39,40,40,45,45],"right_children":[2,4,6,8,10,12,14,16,-1,18,20,22,24,26,28,-1,30,-1,32,34,36,38,40,-1,-1,42,44,46,-1,-1,-1,48,-1,-1,-1,-1,-1,50,52,54,56,-1,-1,-1,-1,58,-1,-1,-1,-1,-1,-1,-1,-1,-1,-1,-1,-1,-1],"split_conditions":[3.58E1,3.07E1,4.13E1,2.14E1,3.4E-1,2.78E1,3.3E-1,1.59E1,-0E0,1.24E1,6.5E-1,2.4E-1,3.79E1,4.4E1,7.9E-1,-0E0,2.87E1,-0E0,1.37E1,1.26E1,1.42E1,7.8E-1,3.81E1,4.014859E-1,-0E0,1.01E1,4.7E0,2.08E1,-0E0,-0E0,-6.294301E-1,5.8E-1,-0E0,-0E0,1.5180619E-1,-0E0,-1.5311687E-1,2.71E1,1.34E1,9E0,2.49E1,-1.618786E-2,-0E0,-0E0,1.3954423E-1,4.15E1,-0E0,-0E0,-2.8962985E-1,-0E0,-1.3371895E-1,2.3303032E-3,-0E0,-0E0,-5.043496E-2,9.0418845E-2,-0E0,4.260834E-2,4.0434405E-1],"split_indices":[0,0,0,12,14,4,14,8,0,12,18,17,7,0,18,0,0,0,2,11,4,18,3,0,0,2,4,11,0,0,0,15,0,0,0,0,0,7,11,6,12,0,0,0,0,0,0,0,0,0,0,0,0,0,0,0,0,0,0],"split_type":[0,0,0,0,0,0,0,0,0,0,0,0,0,0,0,0,0,0,0,0,0,0,0,0,0,0,0,0,0,0,0,0,0,0,0,0,0,0,0,0,0,0,0,0,0,0,0,0,0,0,0,0,0,0,0,0,0,0,0],"sum_hessian":[1.63E2,5.5E1,1.08E2,1.2E1,4.3E1,6.2E1,4.6E1,1.1E1,1E0,2.7E1,1.6E1,5.5E1,7E0,9E0,3.7E1,1E0,1E1,1E0,2.6E1,7E0,9E0,2.2E1,3.3E1,5E0,2E0,4E0,5E0,3.5E1,2E0,1E0,9E0,2.4E1,2E0,3E0,4E0,4E0,5E0,1.7E1,5E0,2E1,1.3E1,3E0,1E0,1E0,4E0,3.4E1,1E0,1E0,2.3E1,1E0,1.6E1,3E0,2E0,7E0,1.3E1,1.1E1,2E0,4E0,3E1],"tree_param":{"num_deleted":"0","num_feature":"19","num_nodes":"59","size_leaf_vector":"1"}},{"base_weights":[1.7631075E-1,-3.2972448E0,3.3730679E0,-5.843237E0,-0E0,1.7406436E0,5.8369327E0,-6.989992E0,-0E0,-1.4629077E0,2.2996557E0,-0E0,2.8600106E0,-0E0,6.1918507E0,-7.221659E0,-0E0,3.2378294E-2,-6.710803E-2,9.713529E-2,-2.278296E0,2.0792575E-1,-0E0,9.2759185E-2,-1.6117532E0,-0E0,4.0076575E0,6.639545E0,-0E0,-7.4543815E0,-0E0,-0E0,-2.7008624E0,-0E0,-2.796263E0,2.7108511E-2,-1.1528625E-1,-0E0,4.548815E0,6.8253207E0,-0E0,-0E0,-3.799719E-1,-1.9397983E-1,-0E0,-0E0,-1.5289135E-1,-0E0,-5.6916207E-2,-0E0,2.3785205E-1,3.5085496E-1,-0E0],"categories":[],"categories_nodes":[],"categories_segments":[],"categories_sizes":[],"default_left":[0,0,0,0,0,0,0,0,0,0,0,0,0,0,0,0,0,0,0,0,0,0,0,0,0,0,0,0,0,0,0,0,0,0,0,0,0,0,0,0,0,0,0,0,0,0,0,0,0,0,0,0,0],"id":17,"left_children":[1,3,5,7,9,11,13,15,17,19,21,23,25,-1,27,29,-1,-1,-1,-1,31,-1,-1,-1,33,35,37,39,-1,41,-1,-1,43,-1,45,-1,47,-1,49,51,-1,-1,-1,-1,-1,-1,-1,-1,-1,-1,-1,-1,-1],"loss_changes":[1.8884753E3,6.325645E2,2.7605066E2,2.5664917E2,1.2225188E2,1.3509639E2,6.4206665E1,6.637305E1,1.2485736E1,7.720441E1,6.959657E1,6.3902126E1,1.2282852E2,0E0,4.5830322E1,6.3972656E1,0E0,0E0,0E0,0E0,3.3803238E1,0E0,0E0,0E0,3.4003304E1,1.0147549E0,4.2253845E1,2.3455322E1,0E0,1.6492676E1,0E0,0E0,4.2478683E1,0E0,4.430664E0,0E0,8.937565E0,0E0,2.1938171E1,2.2436768E1,0E0,0E0,0E0,0E0,0E0,0E0,0E0,0E0,0E0,0E0,0E0,0E0,0E0],"parents":[2147483647,0,0,1,1,2,2,3,3,4,4,5,5,6,6,7,7,8,8,9,9,10,10,11,11,12,12,14,14,15,15,20,20,24,24,25,25,26,26,27,27,29,29,32,32,34,34,36,36,38,38,39,39],"right_children":[2,4,6,8,10,12,14,16,18,20,22,24,26,-1,28,30,-1,-1,-1,-1,32,-1,-1,-1,34,36,38,40,-1,42,-1,-1,44,-1,46,-1,48,-1,50,52,-1,-1,-1,-1,-1,-1,-1,-1,-1,-1,-1,-1,-1],"split_conditions":[3.79E1,3.4E-1,4.3E1,2.35E1,3.51E1,1.52E1,2.4E-1,1.16E1,1.8E1,6.76E1,3.79E1,7.6E0,1.04E1,-0E0,1.93E1,5.5E-1,-0E0,3.2378294E-2,-6.710803E-2,9.713529E-2,1.16E1,2.0792575E-1,-0E0,9.2759185E-2,8.14E1,2.21E1,2.16E1,2.08E1,-0E0,5.8E-1,-0E0,-0E0,2.61E1,-0E0,7.9E0,2.7108511E-2,2.7E-1,-0E0,6.1E-1,4.43E1,-0E0,-0E0,-3.799719E-1,-1.9397983E-1,-0E0,-0E0,-1.5289135E-1,-0E0,-5.6916207E-2,-0E0,2.3785205E-1,3.5085496E-1,-0E0],"split_indices":[0,14,0,4,7,4,14,10,11,1,7,6,2,0,11,16,0,0,0,0,11,0,0,0,1,5,8,6,0,15,0,0,8,0,4,0,14,0,15,7,0,0,0,0,0,0,0,0,0,0,0,0,0],"split_type":[0,0,0,0,0,0,0,0,0,0,0,0,0,0,0,0,0,0,0,0,0,0,0,0,0,0,0,0,0,0,0,0,0,0,0,0,0,0,0,0,0,0,0,0,0,0,0,0,0,0,0,0,0],"sum_hessian":[1.68E2,7.9E1,8.9E1,4.3E1,3.6E1,5.7E1,3.2E1,3.5E1,8E0,2.4E1,1.2E1,2E1,3.7E1,2E0,3E1,3.4E1,1E0,3E0,5E0,2E0,2.2E1,7E0,5E0,7E0,1.3E1,1.1E1,2.6E1,2.7E1,3E0,3.3E1,1E0,2E0,2E1,5E0,8E0,2E0,9E0,4E0,2.2E1,2.6E1,1E0,1E0,3.2E1,1.2E1,8E0,1E0,7E0,3E0,6E0,1E0,2.1E1,2.5E1,1E0],"tree_param":{"num_deleted":"0","num_feature":"19","num_nodes":"53","size_leaf_vector":"1"}},{"base_weights":[-3.1337422E-1,-3.630976E0,2.4040518E0,-1.0350593E1,-1.8937885E0,1.167533E0,5.6059933E0,-1.1076015E1,-0E0,-5.0969567E0,-1.2734312E-1,5.8320063E-1,6.2966156E0,-0E0,5.8995824E0,-4.8529338E-2,-6.5052927E-1,-6.010632E0,-0E0,-8.0589175E-1,3.190805E0,-1.7496406E-1,1.390964E0,-0E0,3.610963E-1,-0E0,6.113381E0,-3.1112427E-1,-0E0,-0E0,-2.2614045E0,1.8197432E-1,-0E0,3.1455E-1,-2.6268787E0,-0E0,2.1390865E0,6.3383446E0,-0E0,-1.1741537E-2,5.8536448E-2,-1.3006793E-1,-0E0,8.8993624E-2,-0E0,-0E0,-1.4508057E-1,-9.479305E-3,-0E0,-0E0,1.2149427E-1,-0E0,3.2659936E-1],"categories":[],"categories_nodes":[],"categories_segments":[],"categories_sizes":[],"default_left":[0,0,0,0,0,0,0,0,0,0,0,0,0,0,0,0,0,0,0,0,0,0,0,0,0,0,0,0,0,0,0,0,0,0,0,0,0,0,0,0,0,0,0,0,0,0,0,0,0,0,0,0,0],"id":18,"left_children":[1,3,5,7,9,11,13,15,-1,17,19,21,23,-1,25,-1,-1,27,-1,29,31,33,35,-1,-1,-1,37,-1,-1,39,41,-1,-1,43,45,47,49,51,-1,-1,-1,-1,-1,-1,-1,-1,-1,-1,-1,-1,-1,-1,-1],"loss_changes":[1.4814829E3,7.334469E2,2.7413452E2,9.492871E1,2.9791772E2,1.2833466E2,3.9508972E1,1.0170593E2,0E0,5.8463806E1,7.553789E1,5.0985683E1,1.03880005E1,0E0,1.6562012E1,0E0,0E0,2.746643E0,0E0,6.1608162E1,2.077259E0,5.6356236E1,5.1956757E1,0E0,0E0,0E0,1.5849182E1,0E0,0E0,1.3162637E1,2.1335884E1,0E0,0E0,2.653268E1,3.7315025E0,2.516002E-1,2.9969261E1,4.68573E0,0E0,0E0,0E0,0E0,0E0,0E0,0E0,0E0,0E0,0E0,0E0,0E0,0E0,0E0,0E0],"parents":[2147483647,0,0,1,1,2,2,3,3,4,4,5,5,6,6,7,7,9,9,10,10,11,11,12,12,14,14,17,17,19,19,20,20,21,21,22,22,26,26,29,29,30,30,33,33,34,34,35,35,36,36,37,37],"right_children":[2,4,6,8,10,12,14,16,-1,18,20,22,24,-1,26,-1,-1,28,-1,30,32,34,36,-1,-1,-1,38,-1,-1,40,42,-1,-1,44,46,48,50,52,-1,-1,-1,-1,-1,-1,-1,-1,-1,-1,-1,-1,-1,-1,-1],"split_conditions":[3.73E1,1.16E1,4.43E1,2.83E1,4.2E-1,3.58E1,4.7E0,1.46E1,-0E0,4.16E1,5E-1,1.52E1,8.8E0,-0E0,4.4E-1,-4.8529338E-2,-6.5052927E-1,3.75E1,-0E0,1.71E1,1.43E1,1.2E1,1.04E1,-0E0,3.610963E-1,-0E0,4.27E1,-3.1112427E-1,-0E0,1.63E1,2.75E1,1.8197432E-1,-0E0,1.28E1,7.9E0,3.8E-1,3.2E-1,8.12E1,-0E0,-1.1741537E-2,5.8536448E-2,-1.3006793E-1,-0E0,8.8993624E-2,-0E0,-0E0,-1.4508057E-1,-9.479305E-3,-0E0,-0E0,1.2149427E-1,-0E0,3.2659936E-1],"split_indices":[0,4,0,8,13,5,4,11,0,3,17,4,2,0,13,0,0,7,0,11,2,6,2,0,0,0,7,0,0,11,11,0,0,11,4,16,16,1,0,0,0,0,0,0,0,0,0,0,0,0,0,0,0],"split_type":[0,0,0,0,0,0,0,0,0,0,0,0,0,0,0,0,0,0,0,0,0,0,0,0,0,0,0,0,0,0,0,0,0,0,0,0,0,0,0,0,0,0,0,0,0,0,0,0,0,0,0,0,0],"sum_hessian":[1.61E2,7.4E1,8.7E1,1.3E1,6.1E1,6.6E1,2.1E1,1.2E1,1E0,1.9E1,4.2E1,6.2E1,4E0,1E0,2E1,3E0,9E0,1.5E1,4E0,3.8E1,4E0,2.6E1,3.6E1,1E0,3E0,1E0,1.9E1,1.4E1,1E0,2.2E1,1.6E1,3E0,1E0,1.9E1,7E0,1E1,2.6E1,1.8E1,1E0,1.4E1,8E0,1.5E1,1E0,8E0,1.1E1,1E0,6E0,6E0,4E0,1E0,2.5E1,1E0,1.7E1],"tree_param":{"num_deleted":"0","num_feature":"19","num_nodes":"53","size_leaf_vector":"1"}},{"base_weights":[-1.3067661E-1,-4.2643695E0,2.2392702E0,-7.072465E0,-1.5161808E-1,-0E0,3.8259873E0,-6.0554933E-2,-8.219329E0,-2.7135468E0,1.241366E0,-8.1885755E-1,2.1168964E0,2.4017274E0,6.363894E0,-0E0,-8.4396715E0,-3.3822799E0,-0E0,2.6824503E0,-0E0,-1.362017E0,-0E0,-0E0,2.6033728E0,-0E0,3.0646884E0,-0E0,7.0010777E0,-9.014965E0,-3.3282187E-2,-3.8758469E0,-0E0,3.356534E0,-0E0,-5.495358E-3,-0E0,-0E0,-1.8173841E0,-0E0,1.3699551E-1,6.619549E-2,-6.045543E-1,-0E0,3.4174726E0,-0E0,7.4300847E0,-0E0,-4.6231112E-1,-0E0,-2.167348E-1,1.9837412E-1,-0E0,-0E0,-1.0417657E-1,-5.736931E-2,-0E0,-0E0,6.2161447E-3,2.0600204E-1,-0E0,-0E0,3.921635E-1],"categories":[],"categories_nodes":[],"categories_segments":[],"categories_sizes":[],"default_left":[0,0,0,0,0,0,0,0,0,0,0,0,0,0,0,0,0,0,0,0,0,0,0,0,0,0,0,0,0,0,0,0,0,0,0,0,0,0,0,0,0,0,0,0,0,0,0,0,0,0,0,0,0,0,0,0,0,0,0,0,0,0,0],"id":19,"left_children":[1,3,5,7,9,11,13,-1,15,17,19,21,23,25,27,-1,29,31,-1,33,35,37,-1,-1,39,41,43,-1,45,47,-1,49,-1,51,-1,-1,-1,-1,53,-1,-1,-1,55,57,59,-1,61,-1,-1,-1,-1,-1,-1,-1,-1,-1,-1,-1,-1,-1,-1,-1,-1],"loss_changes":[1.5384814E3,5.965288E2,3.3334796E2,1.1757361E2,1.108772E2,7.8372086E1,9.947919E1,0E0,2.4209839E1,2.603814E1,4.164501E1,2.4406334E1,1.6296795E1,6.0429993E1,4.6740906E1,0E0,9.001709E0,2.0801514E1,0E0,2.5370705E1,4.8318326E-2,1.1626881E1,0E0,0E0,5.1802826E-1,9.569349E0,2.4174408E1,0E0,3.765985E1,7.4143066E0,0E0,1.5117004E1,0E0,2.0055855E1,0E0,0E0,0E0,0E0,1.3308601E1,0E0,0E0,0E0,4.0240736E0,6.1824724E-2,4.11333E1,0E0,2.6833252E1,0E0,0E0,0E0,0E0,0E0,0E0,0E0,0E0,0E0,0E0,0E0,0E0,0E0,0E0,0E0,0E0],"parents":[2147483647,0,0,1,1,2,2,3,3,4,4,5,5,6,6,8,8,9,9,10,10,11,11,12,12,13,13,14,14,16,16,17,17,19,19,20,20,21,21,24,24,25,25,26,26,28,28,29,29,31,31,33,33,38,38,42,42,43,43,44,44,46,46],"right_children":[2,4,6,8,10,12,14,-1,16,18,20,22,24,26,28,-1,30,32,-1,34,36,38,-1,-1,40,42,44,-1,46,48,-1,50,-1,52,-1,-1,-1,-1,54,-1,-1,-1,56,58,60,-1,62,-1,-1,-1,-1,-1,-1,-1,-1,-1,-1,-1,-1,-1,-1,-1,-1],"split_conditions":[3.62E1,4.3E-1,4.01E1,1.26E1,1.14E1,2.15E1,5.2E-1,-6.0554933E-2,3.7E0,2.77E1,2.07E1,7.8E-1,3.67E1,1.42E1,6.1E-1,-0E0,2.61E1,8.08E1,-0E0,3.59E1,3.67E1,8.02E1,-0E0,-0E0,7.2E1,1.38E1,1.03E1,-0E0,2.1E1,5.4E-1,-3.3282187E-2,2.6E-1,-0E0,1.43E1,-0E0,-5.495358E-3,-0E0,-0E0,2.6E-1,-0E0,1.3699551E-1,6.619549E-2,5.1E-1,9.42E1,9.9E0,-0E0,2.64E1,-0E0,-4.6231112E-1,-0E0,-2.167348E-1,1.9837412E-1,-0E0,-0E0,-1.0417657E-1,-5.736931E-2,-0E0,-0E0,6.2161447E-3,2.0600204E-1,-0E0,-0E0,3.921635E-1],"split_indices":[0,13,0,11,2,4,13,0,9,5,11,18,0,4,15,0,4,1,0,0,3,1,0,0,1,11,2,0,8,18,0,14,0,2,0,0,0,0,14,0,0,0,13,1,9,0,3,0,0,0,0,0,0,0,0,0,0,0,0,0,0,0,0],"split_type":[0,0,0,0,0,0,0,0,0,0,0,0,0,0,0,0,0,0,0,0,0,0,0,0,0,0,0,0,0,0,0,0,0,0,0,0,0,0,0,0,0,0,0,0,0,0,0,0,0,0,0,0,0,0,0,0,0,0,0,0,0,0,0],"sum_hessian":[1.53E2,5.7E1,9.6E1,3.2E1,2.5E1,4.1E1,5.5E1,7E0,2.5E1,1.1E1,1.4E1,2.9E1,1.2E1,3.9E1,1.6E1,1E0,2.4E1,9E0,2E0,8E0,6E0,2.3E1,6E0,2E0,1E1,9E0,3E1,2E0,1.4E1,2.1E1,3E0,8E0,1E0,7E0,1E0,3E0,3E0,7E0,1.6E1,1E0,9E0,3E0,6E0,4E0,2.6E1,1E0,1.3E1,1E0,2E1,1E0,7E0,6E0,1E0,1E0,1.5E1,4E0,2E0,1E0,3E0,2E1,6E0,1E0,1.2E1],"tree_param":{"num_deleted":"0","num_feature":"19","num_nodes":"63","size_leaf_vector":"1"}}]},"name":"gbtree"},"learner_model_param":{"base_score":"1.11487686E2","boost_from_average":"1","num_class":"0","num_feature":"19","num_target":"1"},"objective":{"name":"reg:squarederror","reg_loss_param":{"scale_pos_weight":"1"}}},"version":[2,1,4]}