{"learner":{"attributes":{"scikit_learn":"{\"_estimator_type\": \"regressor\"}"},"feature_names":[],"feature_types":[],"gradient_booster":{"model":{"gbtree_model_param":{"num_parallel_tree":"1","num_trees":"20"},"iteration_indptr":[0,1,2,3,4,5,6,7,8,9,10,11,12,13,14,15,16,17,18,19,20],"tree_info":[0,0,0,0,0,0,0,0,0,0,0,0,0,0,0,0,0,0,0,0],"trees":[{"base_weights":[1.7538314E-1,-4.1625257E0,5.4086995E0,-1.0281378E1,-1.9583093E0,-1.2588747E0,6.505543E0,-1.2397315E1,-0E0,-4.0650635E0,7.899313E-1,-1.0325604E1,6.670476E-1,2.6401908E0,8.427112E0,-1.3627338E1,9.737301E-3,5.944746E0,-3.9202902E0,4.3274956E0,-4.7600055E0,-3.391931E0,4.0904813E0,-0E0,-5.777627E-1,-4.6725044E0,3.6220665E0,-2.2987742E0,4.4752254E0,6.0916066E0,1.3357531E1,-0E0,-1.3948926E1,-0E0,3.5309982E-1,-0E0,-3.6526272E-1,-0E0,2.8371978E-1,-6.061731E0,-0E0,5.506379E-1,-7.8065047E0,7.3512583E0,8.810023E-2,-0E0,-3.527627E-1,8.07971E0,-0E0,-0E0,-7.9256043E0,-2.2506714E0,6.606124E0,8.909856E0,2.4182136E0,1.5249275E1,-0E0,-7.3592824E-1,-1.9628023E-1,-3.638125E-1,-3.318239E-2,4.396998E-1,-2.54611E-1,2.8304145E-1,-9.031135E-2,-0E0,-4.6448776E-1,-0E0,4.5592165E-1,-2.174431E-1,1.6198437E-1,-0E0,4.7470814E-1,-1.6280213E-2,-0E0,-1.0300227E-2,1.8643317E-1,-0E0,-4.652627E-1,-0E0,-1.5315737E-1,4.6174765E-1,-4.2806484E-2,1.188456E-1,5.644638E-1,-0E0,2.8433976E-1,-0E0,7.9091436E-1],"categories":[],"categories_nodes":[],"categories_segments":[],"categories_sizes":[],"default_left":[0,0,0,0,0,0,0,0,0,0,0,0,0,0,0,0,0,0,0,0,0,0,0,0,0,0,0,0,0,0,0,0,0,0,0,0,0,0,0,0,0,0,0,0,0,0,0,0,0,0,0,0,0,0,0,0,0,0,0,0,0,0,0,0,0,0,0,0,0,0,0,0,0,0,0,0,0,0,0,0,0,0,0,0,0,0,0,0,0],"id":0,"left_children":[1,3,5,7,9,11,13,15,17,19,21,23,25,27,29,31,-1,33,35,37,39,41,43,-1,-1,45,47,49,51,53,55,-1,57,-1,-1,-1,-1,-1,-1,59,61,63,65,67,69,-1,-1,71,73,75,77,79,81,83,85,87,-1,-1,-1,-1,-1,-1,-1,-1,-1,-1,-1,-1,-1,-1,-1,-1,-1,-1,-1,-1,-1,-1,-1,-1,-1,-1,-1,-1,-1,-1,-1,-1,-1],"loss_changes":[8.275674E3,2.5279487E3,1.2746621E3,1.0640806E3,8.9286285E2,5.05095E2,9.3664355E2,7.8749805E2,2.4894075E2,5.2650525E2,8.9041425E2,1.0050659E0,3.0621082E2,4.9427383E2,8.0655225E2,1.5128662E2,0E0,8.255371E0,1.05886215E2,4.8630524E1,4.428944E2,5.4678577E2,4.07841E2,0E0,0E0,6.811264E1,2.7330084E2,2.453793E2,6.1737866E2,5.587932E2,8.1764746E2,0E0,4.892383E1,0E0,0E0,0E0,0E0,0E0,0E0,3.2224902E2,9.0437024E2,2.1738718E2,1.8241333E2,3.0355408E2,2.686832E2,0E0,0E0,8.386276E1,5.3009063E-1,4.200585E1,3.2274994E1,2.0090412E1,6.998214E2,3.961106E2,2.9796637E2,1.9172705E2,0E0,0E0,0E0,0E0,0E0,0E0,0E0,0E0,0E0,0E0,0E0,0E0,0E0,0E0,0E0,0E0,0E0,0E0,0E0,0E0,0E0,0E0,0E0,0E0,0E0,0E0,0E0,0E0,0E0,0E0,0E0,0E0,0E0],"parents":[2147483647,0,0,1,1,2,2,3,3,4,4,5,5,6,6,7,7,8,8,9,9,10,10,11,11,12,12,13,13,14,14,15,15,17,17,18,18,19,19,20,20,21,21,22,22,25,25,26,26,27,27,28,28,29,29,30,30,32,32,39,39,40,40,41,41,42,42,43,43,44,44,47,47,48,48,49,49,50,50,51,51,52,52,53,53,54,54,55,55],"right_children":[2,4,6,8,10,12,14,16,18,20,22,24,26,28,30,32,-1,34,36,38,40,42,44,-1,-1,46,48,50,52,54,56,-1,58,-1,-1,-1,-1,-1,-1,60,62,64,66,68,70,-1,-1,72,74,76,78,80,82,84,86,88,-1,-1,-1,-1,-1,-1,-1,-1,-1,-1,-1,-1,-1,-1,-1,-1,-1,-1,-1,-1,-1,-1,-1,-1,-1,-1,-1,-1,-1,-1,-1,-1,-1],"split_conditions":[3.93E1,1.01E1,1.36E1,3.6E-1,1.88E1,2.38E1,7.2E0,2.36E1,4.5E0,4.7E0,5.8E-1,2.88E1,3.02E1,5.5E-1,4.38E1,2.19E1,9.737301E-3,6.6E0,2.27E1,1.2E1,3.88E1,3.07E1,1.31E1,-0E0,-5.777627E-1,4.07E1,8.1E-1,1.29E1,1.02E1,5.6E0,1.42E1,-0E0,6.4E-1,-0E0,3.5309982E-1,-0E0,-3.6526272E-1,-0E0,2.8371978E-1,2.7E-1,4.1E0,1.9E1,1.02E1,2.8E-1,3.65E1,-0E0,-3.527627E-1,6E-1,5.8E0,5.2E-1,3.32E1,2.63E1,6.1E0,4.4E0,6.4E-1,4.6E-1,-0E0,-7.3592824E-1,-1.9628023E-1,-3.638125E-1,-3.318239E-2,4.396998E-1,-2.54611E-1,2.8304145E-1,-9.031135E-2,-0E0,-4.6448776E-1,-0E0,4.5592165E-1,-2.174431E-1,1.6198437E-1,-0E0,4.7470814E-1,-1.6280213E-2,-0E0,-1.0300227E-2,1.8643317E-1,-0E0,-4.652627E-1,-0E0,-1.5315737E-1,4.6174765E-1,-4.2806484E-2,1.188456E-1,5.644638E-1,-0E0,2.8433976E-1,-0E0,7.9091436E-1],"split_indices":[0,2,4,17,4,8,9,8,10,9,18,3,7,18,0,7,0,2,4,4,0,7,11,0,0,0,15,11,2,10,11,0,18,0,0,0,0,0,0,17,10,8,11,17,0,0,0,18,9,18,3,3,10,10,18,18,0,0,0,0,0,0,0,0,0,0,0,0,0,0,0,0,0,0,0,0,0,0,0,0,0,0,0,0,0,0,0,0,0],"split_type":[0,0,0,0,0,0,0,0,0,0,0,0,0,0,0,0,0,0,0,0,0,0,0,0,0,0,0,0,0,0,0,0,0,0,0,0,0,0,0,0,0,0,0,0,0,0,0,0,0,0,0,0,0,0,0,0,0,0,0,0,0,0,0,0,0,0,0,0,0,0,0,0,0,0,0,0,0,0,0,0,0,0,0,0,0,0,0,0,0],"sum_hessian":[3.62E2,1.97E2,1.65E2,5E1,1.47E2,2.2E1,1.43E2,4.1E1,9E0,8.5E1,6.2E1,4E0,1.8E1,5E1,9.3E1,3.8E1,3E0,3E0,6E0,5E0,8E1,2.6E1,3.6E1,1E0,3E0,5E0,1.3E1,1.2E1,3.8E1,6.6E1,2.7E1,1E0,3.7E1,1E0,2E0,3E0,3E0,1E0,4E0,6.1E1,1.9E1,1.3E1,1.3E1,1.8E1,1.8E1,2E0,3E0,6E0,7E0,8E0,4E0,8E0,3E1,3.5E1,3.1E1,2.4E1,3E0,3.3E1,4E0,4.8E1,1.3E1,6E0,1.3E1,5E0,8E0,2E0,1.1E1,3E0,1.5E1,6E0,1.2E1,1E0,5E0,4E0,3E0,6E0,2E0,1E0,3E0,2E0,6E0,2.3E1,7E0,1.1E1,2.4E1,1.7E1,1.4E1,1E0,2.3E1],"tree_param":{"num_deleted":"0","num_feature":"19","num_nodes":"89","size_leaf_vector":"1"}},{"base_weights":[-7.908703E-2,-4.1308594E0,4.657206E0,-1.1459959E1,-1.9868386E0,2.1838298E0,8.625366E0,-1.3777028E1,-1.2042191E0,-4.7497554E0,4.1322887E-1,-8.4128463E-1,4.9264483E0,-8.5568565E-1,9.813822E0,-1.5217708E1,-2.610794E0,-2.3098507E0,-0E0,-1.5119061E0,-8.740869E0,1.807169E0,-5.3597775E0,-3.501735E0,8.611703E-1,7.366457E0,1.6919231E0,-1.8270837E-1,-0E0,-1.6757508E-1,1.0758976E1,-2.0056413E-1,-1.6402878E1,-0E0,-3.7689325E-1,-1.8357176E-1,-0E0,-2.8766024E0,7.7080445E0,-9.961173E0,-0E0,3.1818643E0,-1.4516011E0,5.037834E0,-9.212333E0,-0E0,-5.959372E0,-2.2717407E-1,2.307654E0,-6.53759E-2,8.354576E0,-4.7587332E-1,2.9972532E-1,8.1345245E-2,-0E0,-2.4618672E-1,6.5555446E-2,-0E0,1.1584753E1,-8.8184184E-1,-1.353445E-1,5.520724E-2,-2.9965532E-1,-0E0,6.2123567E-1,-0E0,-5.1398367E-1,-0E0,1.0349058E-1,-0E0,2.7490792E-1,-2.9649767E-1,-0E0,-0E0,3.2613462E-1,-5.295673E-1,-0E0,1.1380323E-1,-9.0791896E-2,-6.1161906E-1,-6.1346512E-2,-7.1567565E-2,3.0309844E-1,4.6574432E-1,-0E0,-0E0,-1.5143655E-1,-1.09104924E-1,6.0571617E-1],"categories":[],"categories_nodes":[],"categories_segments":[],"categories_sizes":[],"default_left":[0,0,0,0,0,0,0,0,0,0,0,0,0,0,0,0,0,0,0,0,0,0,0,0,0,0,0,0,0,0,0,0,0,0,0,0,0,0,0,0,0,0,0,0,0,0,0,0,0,0,0,0,0,0,0,0,0,0,0,0,0,0,0,0,0,0,0,0,0,0,0,0,0,0,0,0,0,0,0,0,0,0,0,0,0,0,0,0,0],"id":1,"left_children":[1,3,5,7,9,11,13,15,17,19,21,23,25,27,29,31,33,35,-1,37,39,41,43,45,47,49,51,-1,53,55,57,-1,59,-1,-1,-1,-1,61,63,65,67,69,71,73,75,77,79,-1,81,-1,83,85,-1,-1,-1,-1,-1,-1,87,-1,-1,-1,-1,-1,-1,-1,-1,-1,-1,-1,-1,-1,-1,-1,-1,-1,-1,-1,-1,-1,-1,-1,-1,-1,-1,-1,-1,-1,-1],"loss_changes":[7.076035E3,2.9855107E3,1.5317649E3,8.7918066E2,1.0864243E3,9.327467E2,8.078511E2,3.4502832E2,2.8181845E1,8.534536E2,6.420796E2,2.5588605E2,3.5470447E2,4.8286366E1,6.454531E2,1.2850781E2,1.2956073E2,3.819333E1,0E0,5.2748553E2,4.3263525E2,3.3102875E2,6.8901587E2,2.2743033E2,2.1484094E2,3.470929E2,3.1919843E2,0E0,7.940458E0,7.7746086E1,5.752803E2,0E0,1.8822949E2,0E0,0E0,0E0,0E0,5.5174744E2,1.6605072E2,8.1282715E1,1.2852359E1,3.603252E2,1.3578595E2,2.6117455E1,2.1553778E2,4.427189E1,2.6601166E2,0E0,4.0591803E2,0E0,2.3177515E2,5.0963074E1,0E0,0E0,0E0,0E0,0E0,0E0,4.902827E2,0E0,0E0,0E0,0E0,0E0,0E0,0E0,0E0,0E0,0E0,0E0,0E0,0E0,0E0,0E0,0E0,0E0,0E0,0E0,0E0,0E0,0E0,0E0,0E0,0E0,0E0,0E0,0E0,0E0,0E0],"parents":[2147483647,0,0,1,1,2,2,3,3,4,4,5,5,6,6,7,7,8,8,9,9,10,10,11,11,12,12,13,13,14,14,15,15,16,16,17,17,19,19,20,20,21,21,22,22,23,23,24,24,25,25,26,26,28,28,29,29,30,30,32,32,37,37,38,38,39,39,40,40,41,41,42,42,43,43,44,44,45,45,46,46,48,48,50,50,51,51,58,58],"right_children":[2,4,6,8,10,12,14,16,18,20,22,24,26,28,30,32,34,36,-1,38,40,42,44,46,48,50,52,-1,54,56,58,-1,60,-1,-1,-1,-1,62,64,66,68,70,72,74,76,78,80,-1,82,-1,84,86,-1,-1,-1,-1,-1,-1,88,-1,-1,-1,-1,-1,-1,-1,-1,-1,-1,-1,-1,-1,-1,-1,-1,-1,-1,-1,-1,-1,-1,-1,-1,-1,-1,-1,-1,-1,-1],"split_conditions":[3.93E1,4.3E-1,4.29E1,6.3E-1,1.94E1,1.66E1,3E0,1.38E1,9.5E0,1.2E1,3.49E1,3.21E1,5.1E0,3.43E1,7.2E-1,3.13E1,2.57E1,3.58E1,-0E0,6.8E-1,2.39E1,6.4E-1,3.7E0,8.7E0,1.09E1,2.8E0,9E0,-1.8270837E-1,4.62E1,8.7E0,4.6E-1,-2.0056413E-1,3.8E-1,-0E0,-3.7689325E-1,-1.8357176E-1,-0E0,4.7E0,1.69E1,2.52E1,1.21E1,9.1E0,4E0,3.77E1,8.6E0,5.2E-1,1.56E1,-2.2717407E-1,6E-1,-6.53759E-2,2.72E1,8.1E0,2.9972532E-1,8.1345245E-2,-0E0,-2.4618672E-1,6.5555446E-2,-0E0,5.1E0,-8.8184184E-1,-1.353445E-1,5.520724E-2,-2.9965532E-1,-0E0,6.2123567E-1,-0E0,-5.1398367E-1,-0E0,1.0349058E-1,-0E0,2.7490792E-1,-2.9649767E-1,-0E0,-0E0,3.2613462E-1,-5.295673E-1,-0E0,1.1380323E-1,-9.0791896E-2,-6.1161906E-1,-6.1346512E-2,-7.1567565E-2,3.0309844E-1,4.6574432E-1,-0E0,-0E0,-1.5143655E-1,-1.09104924E-1,6.0571617E-1],"split_indices":[0,13,0,18,12,4,10,6,9,11,7,3,10,7,15,0,5,0,0,18,8,18,10,6,4,10,9,0,0,6,13,0,14,0,0,0,0,10,4,7,4,6,10,0,10,13,4,0,18,0,8,9,0,0,0,0,0,0,9,0,0,0,0,0,0,0,0,0,0,0,0,0,0,0,0,0,0,0,0,0,0,0,0,0,0,0,0,0,0],"split_type":[0,0,0,0,0,0,0,0,0,0,0,0,0,0,0,0,0,0,0,0,0,0,0,0,0,0,0,0,0,0,0,0,0,0,0,0,0,0,0,0,0,0,0,0,0,0,0,0,0,0,0,0,0,0,0,0,0,0,0,0,0,0,0,0,0,0,0,0,0,0,0,0,0,0,0,0,0,0,0,0,0,0,0,0,0,0,0,0,0],"sum_hessian":[3.67E2,1.99E2,1.68E2,4.3E1,1.56E2,1.06E2,6.2E1,3.4E1,9E0,7.4E1,8.2E1,4.9E1,5.7E1,6E0,5.6E1,2.9E1,5E0,7E0,2E0,4.3E1,3.1E1,6.8E1,1.4E1,2.1E1,2.8E1,3E1,2.7E1,3E0,3E0,4E0,5.2E1,4E0,2.5E1,3E0,2E0,5E0,2E0,3.9E1,4E0,2.8E1,3E0,5E1,1.8E1,3E0,1.1E1,8E0,1.3E1,4E0,2.4E1,2E0,2.8E1,1.7E1,1E1,2E0,1E0,2E0,2E0,3E0,4.9E1,2.2E1,3E0,1.6E1,2.3E1,2E0,2E0,1E0,2.7E1,1E0,2E0,2.2E1,2.8E1,4E0,1.4E1,1E0,2E0,1E1,1E0,5E0,3E0,4E0,9E0,1.1E1,1.3E1,2.5E1,3E0,1.2E1,5E0,1E0,4.8E1],"tree_param":{"num_deleted":"0","num_feature":"19","num_nodes":"89","size_leaf_vector":"1"}},{"base_weights":[1.6011082E-1,-5.774064E0,3.7013927E0,-1.0608617E1,-2.7798588E0,1.4135653E0,7.663552E0,-1.2088045E1,-1.4147695E0,-7.533489E0,-0E0,4.0179768E0,-1.403036E0,2.4690955E0,1.0126064E1,-0E0,-1.289043E1,-3.4801227E-1,4.2567126E-2,-8.53503E0,3.628958E-1,-4.5225396E0,1.7768986E0,5.4953537E0,-1.1051245E0,-1.946923E-1,-8.460177E0,5.9115237E-1,3.4290904E-1,-0E0,1.0689611E1,-1.431305E1,-2.9137323E0,-1.0300667E1,-1.7672187E0,-6.5933337E0,9.674085E-2,-5.2187836E-1,6.9618173E0,-0E0,6.1407905E0,-2.6966674E0,1.9438158E-1,-1.3285972E0,4.2741933E0,-1.2152471E1,-0E0,3.364006E0,-0E0,-1.779503E-1,-0E0,-0E0,1.1186433E1,-7.354056E-1,-0E0,-2.3552863E-1,-0E0,-0E0,-5.2851653E-1,-0E0,-2.0965493E-1,-0E0,-4.9842593E-1,1.2475862E-1,-2.4821292E-1,3.9637324E-1,-0E0,5.2304458E-2,-1.0002651E-1,3.2322916E-1,-4.9789812E-2,-0E0,-2.0414703E-1,-1.3811709E-1,1.02301E-1,-0E0,2.4958017E-1,-6.710615E-1,-0E0,-0E0,2.6087174E-1,-5.1490854E-2,1.6313839E-1,5.739996E-1,-0E0],"categories":[],"categories_nodes":[],"categories_segments":[],"categories_sizes":[],"default_left":[0,0,0,0,0,0,0,0,0,0,0,0,0,0,0,0,0,0,0,0,0,0,0,0,0,0,0,0,0,0,0,0,0,0,0,0,0,0,0,0,0,0,0,0,0,0,0,0,0,0,0,0,0,0,0,0,0,0,0,0,0,0,0,0,0,0,0,0,0,0,0,0,0,0,0,0,0,0,0,0,0,0,0,0,0],"id":2,"left_children":[1,3,5,7,9,11,13,15,17,19,21,23,25,27,29,-1,31,-1,-1,33,-1,35,37,39,41,43,45,47,-1,49,51,53,55,57,59,61,-1,63,65,67,69,71,-1,73,75,77,-1,79,81,-1,-1,-1,83,-1,-1,-1,-1,-1,-1,-1,-1,-1,-1,-1,-1,-1,-1,-1,-1,-1,-1,-1,-1,-1,-1,-1,-1,-1,-1,-1,-1,-1,-1,-1,-1],"loss_changes":[7.6289404E3,1.7908359E3,1.97422E3,5.2795264E2,1.2082893E3,1.117454E3,8.979419E2,3.4328955E2,1.801146E2,5.635864E2,4.157992E2,6.479066E2,5.087258E2,1.6048352E2,4.0491797E2,0E0,3.3955664E2,0E0,0E0,2.4350171E2,0E0,2.46548E2,5.5671045E2,2.4689893E2,1.3365916E2,2.9039478E2,3.8960632E2,7.1178154E1,0E0,2.5333044E1,3.1488916E2,1.6202148E2,5.1518635E1,2.334375E1,7.73849E1,2.7330627E2,0E0,4.123583E2,1.3844458E2,2.0385696E1,1.9283936E2,7.4294205E1,0E0,2.644087E2,2.3288895E1,4.699878E1,0E0,5.6892365E1,3.825968E1,0E0,0E0,0E0,2.0090576E2,0E0,0E0,0E0,0E0,0E0,0E0,0E0,0E0,0E0,0E0,0E0,0E0,0E0,0E0,0E0,0E0,0E0,0E0,0E0,0E0,0E0,0E0,0E0,0E0,0E0,0E0,0E0,0E0,0E0,0E0,0E0,0E0],"parents":[2147483647,0,0,1,1,2,2,3,3,4,4,5,5,6,6,7,7,8,8,9,9,10,10,11,11,12,12,13,13,14,14,16,16,19,19,21,21,22,22,23,23,24,24,25,25,26,26,27,27,29,29,30,30,31,31,32,32,33,33,34,34,35,35,37,37,38,38,39,39,40,40,41,41,43,43,44,44,45,45,47,47,48,48,52,52],"right_children":[2,4,6,8,10,12,14,16,18,20,22,24,26,28,30,-1,32,-1,-1,34,-1,36,38,40,42,44,46,48,-1,50,52,54,56,58,60,62,-1,64,66,68,70,72,-1,74,76,78,-1,80,82,-1,-1,-1,84,-1,-1,-1,-1,-1,-1,-1,-1,-1,-1,-1,-1,-1,-1,-1,-1,-1,-1,-1,-1,-1,-1,-1,-1,-1,-1,-1,-1,-1,-1,-1,-1],"split_conditions":[3.8E1,1.06E1,4.25E1,6.5E-1,7.8E-1,5.1E0,2.57E1,2.43E1,3.35E1,1.6E1,4.3E-1,3.61E1,1.43E1,3.68E1,6.7E-1,-0E0,3.34E1,-3.4801227E-1,4.2567126E-2,4.6E-1,3.628958E-1,3.67E1,9.7E0,2.01E1,4.9E0,2.35E1,1.37E1,1.08E1,3.4290904E-1,4.55E1,3E0,1.38E1,9.7E0,7.3E0,3.72E1,3.46E1,9.674085E-2,3.13E1,7E0,9.3E0,4.21E1,2.86E1,1.9438158E-1,4.5E-1,3.93E1,1.64E1,-0E0,8E0,1.53E1,-1.779503E-1,-0E0,-0E0,1.92E1,-7.354056E-1,-0E0,-2.3552863E-1,-0E0,-0E0,-5.2851653E-1,-0E0,-2.0965493E-1,-0E0,-4.9842593E-1,1.2475862E-1,-2.4821292E-1,3.9637324E-1,-0E0,5.2304458E-2,-1.0002651E-1,3.2322916E-1,-4.9789812E-2,-0E0,-2.0414703E-1,-1.3811709E-1,1.02301E-1,-0E0,2.4958017E-1,-6.710615E-1,-0E0,-0E0,2.6087174E-1,-5.1490854E-2,1.6313839E-1,5.739996E-1,-0E0],"split_indices":[0,2,0,18,15,10,8,3,0,6,13,3,11,7,15,0,7,0,0,13,0,7,6,8,10,4,6,11,0,0,10,6,2,6,0,0,0,3,10,6,0,7,0,16,0,11,0,6,6,0,0,0,2,0,0,0,0,0,0,0,0,0,0,0,0,0,0,0,0,0,0,0,0,0,0,0,0,0,0,0,0,0,0,0,0],"split_type":[0,0,0,0,0,0,0,0,0,0,0,0,0,0,0,0,0,0,0,0,0,0,0,0,0,0,0,0,0,0,0,0,0,0,0,0,0,0,0,0,0,0,0,0,0,0,0,0,0,0,0,0,0,0,0,0,0,0,0,0,0,0,0,0,0,0,0,0,0,0,0,0,0,0,0,0,0,0,0,0,0,0,0,0,0],"sum_hessian":[3.62E2,1.34E2,2.28E2,4.9E1,8.5E1,1.47E2,8.1E1,4.1E1,8E0,3.2E1,5.3E1,7.8E1,6.9E1,2.8E1,5.3E1,3E0,3.8E1,3E0,5E0,3.1E1,1E0,1.3E1,4E1,6.2E1,1.6E1,6.1E1,8E0,2.2E1,6E0,2E0,5.1E1,3.2E1,6E0,2.3E1,8E0,1.1E1,2E0,2.7E1,1.3E1,6E0,5.6E1,1.4E1,2E0,5.1E1,1E1,6E0,2E0,6E0,1.6E1,1E0,1E0,2E0,4.9E1,3.1E1,1E0,4E0,2E0,1E0,2.2E1,3E0,5E0,4E0,7E0,1.5E1,1.2E1,1.2E1,1E0,3E0,3E0,5.5E1,1E0,4E0,1E1,3.8E1,1.3E1,2E0,8E0,5E0,1E0,2E0,4E0,1.5E1,1E0,4.8E1,1E0],"tree_param":{"num_deleted":"0","num_feature":"19","num_nodes":"85","size_leaf_vector":"1"}},{"base_weights":[-3.549265E-1,-5.7667074E0,2.934182E0,-9.992557E0,-3.0858E0,8.916126E-1,6.518957E0,5.3345597E-1,-1.1527756E1,-6.8126383E0,-1.2508423E0,-1.3340598E0,3.5219994E0,2.8348615E0,9.492704E0,-1.0687599E-1,4.0293503E0,-1.2197176E1,-0E0,-8.140441E0,3.4464266E-2,-3.1691356E0,2.1008599E0,-6.9911327E0,-0E0,5.038428E0,-4.4690222E-1,-8.9451596E-2,4.0093217E0,-4.4819182E-1,1.0747998E1,-0E0,2.6942196E-1,-1.3385255E1,-3.7791538E0,-9.918735E0,-7.2215164E-1,1.4200729E0,-5.778411E0,7.4871697E0,-7.9754364E-1,-9.006714E0,-0E0,-2.18809E0,2.998162E0,-5.7825088E-3,5.3265357E0,-3.0072343E0,7.7945155E-1,-0E0,-8.4779434E-2,1.2050451E0,6.614155E0,-0E0,-1.3076048E-1,-0E0,1.1505429E1,-4.1835118E-2,-7.0756125E-1,-3.349617E-1,-0E0,-0E0,-5.673856E-1,-0E0,-1.0490105E-1,2.2452116E-1,-4.5124015E-1,-3.706806E-1,2.939733E-3,-0E0,5.04179E-1,-2.8049344E-1,6.9408886E-2,-0E0,-5.572249E-1,1.826645E-1,-1.4326783E-1,-0E0,-1.5808354E-1,2.650891E-1,-2.5246716E-1,-0E0,2.958984E-1,-0E0,-3.6255866E-1,1.3801962E-1,-7.4877935E-3,-0E0,7.797711E-2,-1.3090897E-1,1.5993468E-1,-0E0,4.2512456E-1,-0E0,5.9766567E-1],"categories":[],"categories_nodes":[],"categories_segments":[],"categories_sizes":[],"default_left":[0,0,0,0,0,0,0,0,0,0,0,0,0,0,0,0,0,0,0,0,0,0,0,0,0,0,0,0,0,0,0,0,0,0,0,0,0,0,0,0,0,0,0,0,0,0,0,0,0,0,0,0,0,0,0,0,0,0,0,0,0,0,0,0,0,0,0,0,0,0,0,0,0,0,0,0,0,0,0,0,0,0,0,0,0,0,0,0,0,0,0,0,0,0,0],"id":3,"left_children":[1,3,5,7,9,11,13,15,17,19,21,23,25,27,29,-1,31,33,-1,35,-1,37,39,41,43,45,47,49,51,53,55,-1,-1,57,59,61,63,65,67,69,71,73,75,77,79,-1,81,83,85,87,-1,89,91,-1,-1,-1,93,-1,-1,-1,-1,-1,-1,-1,-1,-1,-1,-1,-1,-1,-1,-1,-1,-1,-1,-1,-1,-1,-1,-1,-1,-1,-1,-1,-1,-1,-1,-1,-1,-1,-1,-1,-1,-1,-1],"loss_changes":[6.755821E3,1.4697734E3,1.6334655E3,9.8870703E2,5.3315533E2,9.1644366E2,7.591262E2,9.2893265E1,3.16021E2,3.590327E2,4.2883173E2,6.3785803E2,4.815028E2,1.7693695E2,6.568801E2,0E0,3.4962784E1,2.2782764E2,0E0,2.1622571E2,0E0,5.6669305E2,4.16325E2,2.7255664E2,4.4261435E2,1.3291125E2,8.427941E1,1.4295089E1,1.4028253E2,2.6352905E1,4.094673E2,0E0,0E0,2.0352979E2,6.5262924E1,1.9108423E2,1.8357939E1,4.762228E2,3.5078918E2,2.0723065E2,1.9726201E2,1.8742676E2,5.6460114E1,9.7958466E1,5.6690826E2,0E0,1.4233496E2,1.2892691E2,4.67675E1,7.296517E0,0E0,1.5137888E2,1.10464905E2,0E0,0E0,0E0,1.1349463E2,0E0,0E0,0E0,0E0,0E0,0E0,0E0,0E0,0E0,0E0,0E0,0E0,0E0,0E0,0E0,0E0,0E0,0E0,0E0,0E0,0E0,0E0,0E0,0E0,0E0,0E0,0E0,0E0,0E0,0E0,0E0,0E0,0E0,0E0,0E0,0E0,0E0,0E0],"parents":[2147483647,0,0,1,1,2,2,3,3,4,4,5,5,6,6,7,7,8,8,9,9,10,10,11,11,12,12,13,13,14,14,16,16,17,17,19,19,21,21,22,22,23,23,24,24,25,25,26,26,27,27,28,28,29,29,30,30,33,33,34,34,35,35,36,36,37,37,38,38,39,39,40,40,41,41,42,42,43,43,44,44,46,46,47,47,48,48,49,49,51,51,52,52,56,56],"right_children":[2,4,6,8,10,12,14,16,18,20,22,24,26,28,30,-1,32,34,-1,36,-1,38,40,42,44,46,48,50,52,54,56,-1,-1,58,60,62,64,66,68,70,72,74,76,78,80,-1,82,84,86,88,-1,90,92,-1,-1,-1,94,-1,-1,-1,-1,-1,-1,-1,-1,-1,-1,-1,-1,-1,-1,-1,-1,-1,-1,-1,-1,-1,-1,-1,-1,-1,-1,-1,-1,-1,-1,-1,-1,-1,-1,-1,-1,-1,-1],"split_conditions":[3.8E1,1.06E1,4.25E1,2.57E1,4.3E-1,1.79E1,1.35E1,1.72E1,4E-1,1.45E1,1.97E1,5.6E-1,3.66E1,3.3E-1,4.6E-1,-1.0687599E-1,2.19E1,6.5E-1,-0E0,3.48E1,3.4464266E-2,3.58E1,1.26E1,1.38E1,3.8E-1,1E0,3.9E1,5.3E-1,1.72E1,4.27E1,4.9E-1,-0E0,2.6942196E-1,1.49E1,3.35E1,3.44E1,3E1,1.66E1,2.2E1,1.23E1,1.49E1,1.66E1,1.78E1,4.4E0,3.43E1,-5.7825088E-3,3.5E-1,3.86E1,4.2E1,5.1E-1,-8.4779434E-2,8.5E0,3.8E-1,-0E0,-1.3076048E-1,-0E0,3.7E-1,-4.1835118E-2,-7.0756125E-1,-3.349617E-1,-0E0,-0E0,-5.673856E-1,-0E0,-1.0490105E-1,2.2452116E-1,-4.5124015E-1,-3.706806E-1,2.939733E-3,-0E0,5.04179E-1,-2.8049344E-1,6.9408886E-2,-0E0,-5.572249E-1,1.826645E-1,-1.4326783E-1,-0E0,-1.5808354E-1,2.650891E-1,-2.5246716E-1,-0E0,2.958984E-1,-0E0,-3.6255866E-1,1.3801962E-1,-7.4877935E-3,-0E0,7.797711E-2,-1.3090897E-1,1.5993468E-1,-0E0,4.2512456E-1,-0E0,5.9766567E-1],"split_indices":[0,2,0,7,13,4,2,12,17,6,4,18,3,14,13,0,7,18,0,7,0,0,11,6,14,10,0,18,4,0,18,0,0,12,0,3,5,11,12,2,11,12,4,10,7,0,16,0,3,18,0,6,14,0,0,0,16,0,0,0,0,0,0,0,0,0,0,0,0,0,0,0,0,0,0,0,0,0,0,0,0,0,0,0,0,0,0,0,0,0,0,0,0,0,0],"split_type":[0,0,0,0,0,0,0,0,0,0,0,0,0,0,0,0,0,0,0,0,0,0,0,0,0,0,0,0,0,0,0,0,0,0,0,0,0,0,0,0,0,0,0,0,0,0,0,0,0,0,0,0,0,0,0,0,0,0,0,0,0,0,0,0,0,0,0,0,0,0,0,0,0,0,0,0,0,0,0,0,0,0,0,0,0,0,0,0,0,0,0,0,0,0,0],"sum_hessian":[3.76E2,1.43E2,2.33E2,5.3E1,9E1,1.51E2,8.2E1,6E0,4.7E1,2.7E1,6.3E1,8E1,7.1E1,3.9E1,4.3E1,2E0,4E0,4.4E1,3E0,2.4E1,3E0,4.2E1,2.1E1,1.5E1,6.5E1,5.3E1,1.8E1,9E0,3E1,4E0,3.9E1,1E0,3E0,3.7E1,7E0,1.8E1,6E0,1.4E1,2.8E1,8E0,1.3E1,1.2E1,3E0,3.7E1,2.8E1,1E0,5.2E1,8E0,1E1,5E0,4E0,1.7E1,1.3E1,1E0,3E0,2E0,3.7E1,3E0,3.4E1,3E0,4E0,3E0,1.5E1,2E0,4E0,1.2E1,2E0,2.3E1,5E0,2E0,6E0,5E0,8E0,3E0,9E0,2E0,1E0,1E1,2.7E1,2.3E1,5E0,6E0,4.6E1,5E0,3E0,6E0,4E0,3E0,2E0,4E0,1.3E1,4E0,9E0,2E0,3.5E1],"tree_param":{"num_deleted":"0","num_feature":"19","num_nodes":"95","size_leaf_vector":"1"}},{"base_weights":[-1.5339294E-1,-4.1413503E0,4.1657E0,-8.69742E0,-2.0791771E0,7.6996547E-1,6.7238793E0,-0E0,-1.0283085E1,1.9529179E-2,-5.3140144E0,-1.2990565E0,3.6347368E0,1.1684173E-1,8.729988E0,3.6157063E-1,-1.7129059E0,-1.3042825E1,-4.9913344E0,-2.0921996E0,4.0125413E0,-2.9265864E0,-9.157215E0,-5.133217E-1,-3.8950437E-1,4.5786576E0,-4.722603E-2,-4.330588E0,4.1105223E-1,2.9378042E0,1.0104766E1,-0E0,-1.4819573E-1,-1.36117735E1,-0E0,1.1149881E0,-8.402258E0,-3.670416E0,2.6410568E0,-0E0,8.443833E0,-5.849088E0,2.6747984E-1,-1.1445634E1,-0E0,-2.6227992E0,9.780833E-1,6.199784E0,1.5844865E-1,-2.7772903E-1,-5.595666E-1,4.33638E0,-1.9166183E-1,3.4469604E-1,1.1031992E1,-0E0,-6.975974E-1,3.7317306E-1,-1.506116E-1,-0E0,-4.685032E-1,-4.4671217E-1,-6.8081275E-2,2.9301584E-1,-0E0,1.4974259E-1,-1.3772826E-1,-0E0,5.080513E-1,2.1428871E-1,-3.8338995E-1,-1.6475588E-1,8.14417E-2,-0E0,-6.0513103E-1,-2.5043383E-1,3.7711497E-2,-6.990751E-3,1.3519916E-1,4.838569E-1,9.760036E-2,-1.6020823E-2,1.7882834E-1,7.966172E-2,-1.3311826E-1,2.4529417E-1,-0E0,-1.6062585E-1,-0E0,8.584073E-2,-0E0,3.5313535E-1,6.489793E-1],"categories":[],"categories_nodes":[],"categories_segments":[],"categories_sizes":[],"default_left":[0,0,0,0,0,0,0,0,0,0,0,0,0,0,0,0,0,0,0,0,0,0,0,0,0,0,0,0,0,0,0,0,0,0,0,0,0,0,0,0,0,0,0,0,0,0,0,0,0,0,0,0,0,0,0,0,0,0,0,0,0,0,0,0,0,0,0,0,0,0,0,0,0,0,0,0,0,0,0,0,0,0,0,0,0,0,0,0,0,0,0,0,0],"id":4,"left_children":[1,3,5,7,9,11,13,15,17,19,21,23,25,27,29,-1,31,33,35,37,39,41,43,-1,45,47,-1,49,-1,51,53,-1,-1,55,-1,57,59,61,63,65,67,69,71,73,-1,75,77,79,81,83,-1,85,87,89,91,-1,-1,-1,-1,-1,-1,-1,-1,-1,-1,-1,-1,-1,-1,-1,-1,-1,-1,-1,-1,-1,-1,-1,-1,-1,-1,-1,-1,-1,-1,-1,-1,-1,-1,-1,-1,-1,-1],"loss_changes":[6.3211235E3,1.6780681E3,1.4400913E3,8.996753E2,9.6955994E2,4.90406E2,1.2094468E3,1.774183E2,4.847505E2,7.1060333E2,3.570078E2,2.4831885E2,1.9195197E2,9.7557837E2,4.2914795E2,0E0,2.3385616E1,2.848379E2,4.9880508E2,4.0843274E2,5.1516174E2,4.0276318E2,3.7180066E2,0E0,1.4728998E2,1.5757257E2,0E0,3.2709122E2,0E0,1.1668384E2,4.0731787E2,0E0,0E0,8.663672E1,0E0,2.5040475E2,6.5206055E1,3.8315228E2,1.5670102E2,1.490109E2,1.3753442E2,4.5376276E2,7.115363E1,8.558972E1,0E0,1.994085E2,7.232487E1,1.7501013E2,5.1712486E1,6.847188E1,0E0,4.9621277E1,3.0813856E1,1.6853008E1,1.0989502E2,0E0,0E0,0E0,0E0,0E0,0E0,0E0,0E0,0E0,0E0,0E0,0E0,0E0,0E0,0E0,0E0,0E0,0E0,0E0,0E0,0E0,0E0,0E0,0E0,0E0,0E0,0E0,0E0,0E0,0E0,0E0,0E0,0E0,0E0,0E0,0E0,0E0,0E0],"parents":[2147483647,0,0,1,1,2,2,3,3,4,4,5,5,6,6,7,7,8,8,9,9,10,10,11,11,12,12,13,13,14,14,16,16,17,17,18,18,19,19,20,20,21,21,22,22,24,24,25,25,27,27,29,29,30,30,33,33,35,35,36,36,37,37,38,38,39,39,40,40,41,41,42,42,43,43,45,45,46,46,47,47,48,48,49,49,51,51,52,52,53,53,54,54],"right_children":[2,4,6,8,10,12,14,16,18,20,22,24,26,28,30,-1,32,34,36,38,40,42,44,-1,46,48,-1,50,-1,52,54,-1,-1,56,-1,58,60,62,64,66,68,70,72,74,-1,76,78,80,82,84,-1,86,88,90,92,-1,-1,-1,-1,-1,-1,-1,-1,-1,-1,-1,-1,-1,-1,-1,-1,-1,-1,-1,-1,-1,-1,-1,-1,-1,-1,-1,-1,-1,-1,-1,-1,-1,-1,-1,-1,-1,-1],"split_conditions":[3.93E1,1.98E1,3.8E-1,7.45E1,8.31E1,8.96E1,2.32E1,4.4E-1,6.6E0,1.88E1,1.36E1,1.16E1,8.6E-1,2.6E-1,4.9E-1,3.6157063E-1,1.7E1,7.1E0,2.9E-1,4.9E-1,7.99E1,1.15E1,2.16E1,-5.133217E-1,1.98E1,5.6E0,-4.722603E-2,1.79E1,4.1105223E-1,2.26E1,1.12E1,-0E0,-1.4819573E-1,3.05E1,-0E0,3.55E1,1.74E1,3.9E-1,3.8E0,3.9E-1,3.9E-1,1E1,6E0,6.6E-1,-0E0,7.2E0,3.9E-1,9.45E1,9E0,2.1E-1,-5.595666E-1,4.47E1,2.68E1,1.43E1,3.7E-1,-0E0,-6.975974E-1,3.7317306E-1,-1.506116E-1,-0E0,-4.685032E-1,-4.4671217E-1,-6.8081275E-2,2.9301584E-1,-0E0,1.4974259E-1,-1.3772826E-1,-0E0,5.080513E-1,2.1428871E-1,-3.8338995E-1,-1.6475588E-1,8.14417E-2,-0E0,-6.0513103E-1,-2.5043383E-1,3.7711497E-2,-6.990751E-3,1.3519916E-1,4.838569E-1,9.760036E-2,-1.6020823E-2,1.7882834E-1,7.966172E-2,-1.3311826E-1,2.4529417E-1,-0E0,-1.6062585E-1,-0E0,8.584073E-2,-0E0,3.5313535E-1,6.489793E-1],"split_indices":[0,8,14,1,1,1,8,13,9,4,11,4,15,17,13,0,4,10,17,13,1,11,4,0,12,10,0,12,0,12,4,0,0,0,0,0,8,16,10,16,16,2,9,15,0,9,16,1,9,17,0,0,8,2,16,0,0,0,0,0,0,0,0,0,0,0,0,0,0,0,0,0,0,0,0,0,0,0,0,0,0,0,0,0,0,0,0,0,0,0,0,0,0],"split_type":[0,0,0,0,0,0,0,0,0,0,0,0,0,0,0,0,0,0,0,0,0,0,0,0,0,0,0,0,0,0,0,0,0,0,0,0,0,0,0,0,0,0,0,0,0,0,0,0,0,0,0,0,0,0,0,0,0,0,0,0,0,0,0,0,0,0,0,0,0,0,0,0,0,0,0,0,0,0,0,0,0,0,0,0,0,0,0,0,0,0,0,0,0],"sum_hessian":[3.65E2,1.91E2,1.74E2,5.7E1,1.34E2,7.7E1,9.7E1,8E0,4.9E1,8E1,5.4E1,4.3E1,3.4E1,2.4E1,7.3E1,2E0,6E0,3E1,1.9E1,5.1E1,2.9E1,3.6E1,1.8E1,2E0,4.1E1,3E1,4E0,1.5E1,9E0,1.6E1,5.7E1,2E0,4E0,2.9E1,1E0,6E0,1.3E1,4E1,1.1E1,1.6E1,1.3E1,2E1,1.6E1,1.4E1,4E0,1.8E1,2.3E1,2E1,1E1,1.1E1,4E0,1.3E1,3E0,6E0,5.1E1,1E0,2.8E1,3E0,3E0,2E0,1.1E1,1E1,3E1,6E0,5E0,8E0,8E0,3E0,1E1,2E0,1.8E1,2E0,1.4E1,1E0,1.3E1,1.2E1,6E0,1.1E1,1.2E1,9E0,1.1E1,7E0,3E0,4E0,7E0,1.2E1,1E0,2E0,1E0,5E0,1E0,2E1,3.1E1],"tree_param":{"num_deleted":"0","num_feature":"19","num_nodes":"93","size_leaf_vector":"1"}},{"base_weights":[2.0798534E-1,-3.0945814E0,5.020774E0,-9.130949E0,-1.7291257E0,2.5841472E0,8.489389E0,-0E0,-9.800616E0,-2.7096338E0,3.8735237E0,8.121594E-1,5.0894566E0,-0E0,9.10279E0,-7.999176E-1,-1.0588205E1,-8.723835E0,-1.7459116E0,-7.660898E-1,8.619342E0,-2.9840927E0,3.3177104E0,-0E0,7.592823E0,1.6276637E-1,-8.20797E-2,1.9373539E-1,9.968001E0,-7.953555E-2,-0E0,-1.081837E1,-0E0,-1.0233646E1,-1.8286667E0,-5.361971E0,-2.1818939E-1,1.1938269E0,-4.0451365E0,9.518304E0,-0E0,-4.2942853E0,7.426729E-2,1.0909742E0,5.844192E0,-2.0686557E0,1.6755781E0,9.1994E0,-0E0,3.469042E-1,-2.0495234E-1,4.677134E0,1.1252562E1,-0E0,-5.503757E-1,-0E0,-5.4440045E-1,-0E0,-1.03675775E-1,2.2452317E-1,-3.1430846E-1,1.5374278E-1,-7.759463E-2,-0E0,6.9367856E-2,-0E0,-3.711744E-1,5.1300603E-1,-0E0,-0E0,-2.9080948E-1,2.2308807E-1,-1.8802643E-3,3.0931458E-1,-0E0,-0E0,-1.8593703E-1,1.5338488E-1,-0E0,1.0472489E-2,5.404398E-1,-7.5543406E-3,-0E0,3.2187265E-1,-1.539866E-4,-0E0,5.797283E-1],"categories":[],"categories_nodes":[],"categories_segments":[],"categories_sizes":[],"default_left":[0,0,0,0,0,0,0,0,0,0,0,0,0,0,0,0,0,0,0,0,0,0,0,0,0,0,0,0,0,0,0,0,0,0,0,0,0,0,0,0,0,0,0,0,0,0,0,0,0,0,0,0,0,0,0,0,0,0,0,0,0,0,0,0,0,0,0,0,0,0,0,0,0,0,0,0,0,0,0,0,0,0,0,0,0,0,0],"id":5,"left_children":[1,3,5,7,9,11,13,-1,15,17,19,21,23,25,27,29,31,33,35,37,39,41,43,45,47,-1,-1,49,51,-1,-1,53,-1,55,57,59,61,63,65,67,-1,69,-1,71,73,75,77,79,81,-1,-1,83,85,-1,-1,-1,-1,-1,-1,-1,-1,-1,-1,-1,-1,-1,-1,-1,-1,-1,-1,-1,-1,-1,-1,-1,-1,-1,-1,-1,-1,-1,-1,-1,-1,-1,-1],"loss_changes":[5.947574E3,1.688937E3,1.16044E3,2.0627954E2,9.986635E2,3.4971246E2,2.439502E2,0E0,1.3284814E2,7.900465E2,6.5762354E2,5.6491534E2,4.5113055E2,5.0473114E1,3.2811182E2,4.391743E0,4.0627686E1,6.887097E1,7.053865E2,1.1688886E2,1.3767249E2,1.6329607E2,1.324274E2,4.8136513E1,3.0895605E2,0E0,0E0,2.5949402E2,1.2789453E2,0E0,0E0,6.8103027E0,0E0,8.876941E1,1.433197E0,4.0130334E2,4.2873666E2,1.5719986E0,1.6099895E2,8.5465576E1,0E0,1.5704407E2,0E0,1.3190599E2,2.3464172E1,2.9640106E1,1.5182577E1,1.7692151E2,9.130889E-2,0E0,0E0,1.7146628E2,1.6249121E2,0E0,0E0,0E0,0E0,0E0,0E0,0E0,0E0,0E0,0E0,0E0,0E0,0E0,0E0,0E0,0E0,0E0,0E0,0E0,0E0,0E0,0E0,0E0,0E0,0E0,0E0,0E0,0E0,0E0,0E0,0E0,0E0,0E0,0E0],"parents":[2147483647,0,0,1,1,2,2,3,3,4,4,5,5,6,6,8,8,9,9,10,10,11,11,12,12,13,13,14,14,15,15,16,16,17,17,18,18,19,19,20,20,21,21,22,22,23,23,24,24,27,27,28,28,31,31,33,33,34,34,35,35,36,36,37,37,38,38,39,39,41,41,43,43,44,44,45,45,46,46,47,47,48,48,51,51,52,52],"right_children":[2,4,6,8,10,12,14,-1,16,18,20,22,24,26,28,30,32,34,36,38,40,42,44,46,48,-1,-1,50,52,-1,-1,54,-1,56,58,60,62,64,66,68,-1,70,-1,72,74,76,78,80,82,-1,-1,84,86,-1,-1,-1,-1,-1,-1,-1,-1,-1,-1,-1,-1,-1,-1,-1,-1,-1,-1,-1,-1,-1,-1,-1,-1,-1,-1,-1,-1,-1,-1,-1,-1,-1,-1],"split_conditions":[4.8E-1,9.8E0,1.34E1,2.22E1,1.44E1,4E-1,2.68E1,-0E0,1.1E1,7.1E-1,4.9E0,8.06E1,1.08E1,4.1E0,5.1E0,8.7E0,9.56E1,8.6E0,6E0,3.9E0,1.66E1,1.12E1,8.7E0,1.74E1,8.7E0,1.6276637E-1,-8.20797E-2,9.9E0,2.43E1,-7.953555E-2,-0E0,6.62E1,-0E0,1.54E1,7.98E1,3.2E-1,7.1E0,8.14E1,3.01E1,1.52E1,-0E0,2.57E1,7.426729E-2,1.92E1,9.31E1,6.87E1,5E0,4.9E0,8.72E1,3.469042E-1,-2.0495234E-1,2.4E1,3.7E-1,-0E0,-5.503757E-1,-0E0,-5.4440045E-1,-0E0,-1.03675775E-1,2.2452317E-1,-3.1430846E-1,1.5374278E-1,-7.759463E-2,-0E0,6.9367856E-2,-0E0,-3.711744E-1,5.1300603E-1,-0E0,-0E0,-2.9080948E-1,2.2308807E-1,-1.8802643E-3,3.0931458E-1,-0E0,-0E0,-1.8593703E-1,1.5338488E-1,-0E0,1.0472489E-2,5.404398E-1,-7.5543406E-3,-0E0,3.2187265E-1,-1.539866E-4,-0E0,5.797283E-1],"split_indices":[13,2,2,3,6,14,7,0,11,15,10,1,11,10,9,2,1,9,9,10,2,6,9,12,9,0,0,11,8,0,0,1,0,12,1,16,9,1,7,11,0,7,0,12,1,1,10,9,1,0,0,8,16,0,0,0,0,0,0,0,0,0,0,0,0,0,0,0,0,0,0,0,0,0,0,0,0,0,0,0,0,0,0,0,0,0,0],"split_type":[0,0,0,0,0,0,0,0,0,0,0,0,0,0,0,0,0,0,0,0,0,0,0,0,0,0,0,0,0,0,0,0,0,0,0,0,0,0,0,0,0,0,0,0,0,0,0,0,0,0,0,0,0,0,0,0,0,0,0,0,0,0,0,0,0,0,0,0,0,0,0,0,0,0,0,0,0,0,0,0,0,0,0,0,0,0,0],"sum_hessian":[3.71E2,2.19E2,1.52E2,3.8E1,1.81E2,9.2E1,6E1,3E0,3.5E1,1.56E2,2.5E1,5.7E1,3.5E1,5E0,5.5E1,4E0,3.1E1,1.9E1,1.37E2,1.2E1,1.3E1,2.1E1,3.6E1,1.2E1,2.3E1,3E0,2E0,6E0,4.9E1,2E0,2E0,3E1,1E0,1.4E1,5E0,3.8E1,9.9E1,6E0,6E0,1.2E1,1E0,1.8E1,3E0,2.2E1,1.4E1,5E0,7E0,1.9E1,4E0,3E0,3E0,1.2E1,3.7E1,1E0,2.9E1,1E0,1.3E1,1E0,4E0,2E0,3.6E1,2.6E1,7.3E1,1E0,5E0,2E0,4E0,1.1E1,1E0,4E0,1.4E1,7E0,1.5E1,1.3E1,1E0,2E0,3E0,3E0,4E0,4E0,1.5E1,3E0,1E0,1E1,2E0,1E0,3.6E1],"tree_param":{"num_deleted":"0","num_feature":"19","num_nodes":"87","size_leaf_vector":"1"}},{"base_weights":[7.6688025E-3,-4.305428E0,3.5550673E0,5.340613E0,-5.38672E0,2.137099E0,7.821985E0,8.622807E0,7.1859485E-1,-8.123952E0,-2.4045694E0,-0E0,4.3809032E0,9.672823E0,1.3256654E0,6.7452085E-1,6.9512314E-1,-1.0953522E-2,1.2231833E-1,-8.992454E0,1.6958898E0,-4.3437223E0,2.9110699E0,-5.508796E0,1.2122548E0,-0E0,4.8053102E0,-0E0,1.0733246E1,-0E0,4.1330415E-1,8.7283425E-2,-0E0,2.4074352E0,-9.510207E0,2.1349095E-1,-0E0,-5.881943E0,-2.1403715E-1,5.1028216E-1,-0E0,-6.4094324E0,-0E0,-9.389574E-1,5.0917525E0,3.5698E0,-3.5453466E-1,2.464737E0,6.789748E0,-1.770054E-1,1.8412018E-2,9.494362E-2,1.1885853E1,-1.367942E0,7.911466E-2,-0E0,2.872057E-1,-5.34399E-1,-2.1947241E-1,-3.645244E-1,-3.4057999E-3,1.2559313E-1,-1.3098212E-1,1.2652935E-1,-1.7519799E-1,-6.608004E-2,-4.4050533E-1,-3.0779338E-1,5.4360386E-2,4.4496647E-1,-7.7748746E-2,-0E0,2.9421246E-1,-0E0,2.0914045E-1,4.3621573E-1,1.2752241E-1,-0E0,6.1343193E-1,-0E0,-1.5046856E-1],"categories":[],"categories_nodes":[],"categories_segments":[],"categories_sizes":[],"default_left":[0,0,0,0,0,0,0,0,0,0,0,0,0,0,0,0,0,0,0,0,0,0,0,0,0,0,0,0,0,0,0,0,0,0,0,0,0,0,0,0,0,0,0,0,0,0,0,0,0,0,0,0,0,0,0,0,0,0,0,0,0,0,0,0,0,0,0,0,0,0,0,0,0,0,0,0,0,0,0,0,0],"id":6,"left_children":[1,3,5,7,9,11,13,15,17,19,21,23,25,27,29,31,-1,-1,-1,33,35,37,39,41,43,45,47,49,51,53,-1,-1,-1,55,57,-1,-1,59,61,-1,63,65,-1,67,69,71,-1,73,75,-1,-1,-1,77,79,-1,-1,-1,-1,-1,-1,-1,-1,-1,-1,-1,-1,-1,-1,-1,-1,-1,-1,-1,-1,-1,-1,-1,-1,-1,-1,-1],"loss_changes":[5.561802E3,1.7293503E3,1.0998137E3,1.4311539E2,1.0832803E3,7.5526807E2,4.5432666E2,1.8056635E2,3.738953E1,7.2785693E2,7.897514E2,5.5072406E2,1.5775476E2,4.3339844E2,1.8213832E2,9.914541E0,0E0,0E0,0E0,5.0708594E2,3.7437798E1,2.9351392E2,3.5976355E2,1.19928986E2,5.887744E2,2.1455115E2,2.1585083E2,2.5471529E1,1.7560767E2,2.4352343E1,0E0,0E0,0E0,4.8602463E1,2.124253E2,0E0,0E0,2.4528967E2,1.25691864E2,0E0,1.3770511E2,5.8038635E1,0E0,4.9076245E2,7.199798E2,4.0155815E1,0E0,1.6621216E2,1.5204358E2,0E0,0E0,0E0,1.0836841E2,4.655281E1,0E0,0E0,0E0,0E0,0E0,0E0,0E0,0E0,0E0,0E0,0E0,0E0,0E0,0E0,0E0,0E0,0E0,0E0,0E0,0E0,0E0,0E0,0E0,0E0,0E0,0E0,0E0],"parents":[2147483647,0,0,1,1,2,2,3,3,4,4,5,5,6,6,7,7,8,8,9,9,10,10,11,11,12,12,13,13,14,14,15,15,19,19,20,20,21,21,22,22,23,23,24,24,25,25,26,26,27,27,28,28,29,29,33,33,34,34,37,37,38,38,40,40,41,41,43,43,44,44,45,45,47,47,48,48,52,52,53,53],"right_children":[2,4,6,8,10,12,14,16,18,20,22,24,26,28,30,32,-1,-1,-1,34,36,38,40,42,44,46,48,50,52,54,-1,-1,-1,56,58,-1,-1,60,62,-1,64,66,-1,68,70,72,-1,74,76,-1,-1,-1,78,80,-1,-1,-1,-1,-1,-1,-1,-1,-1,-1,-1,-1,-1,-1,-1,-1,-1,-1,-1,-1,-1,-1,-1,-1,-1,-1,-1],"split_conditions":[3.86E1,7.3E1,4.38E1,5.4E0,2.8E-1,1.73E1,9.55E1,6.87E1,3.36E1,1.52E1,1.29E1,5.6E-1,3.91E1,7.2E-1,4.86E1,3.33E1,6.9512314E-1,-1.0953522E-2,1.2231833E-1,3.1E-1,7.1E0,5.8E-1,3.49E1,1.65E1,4E-1,1.17E1,3.8E-1,8.43E1,1.63E1,6E0,4.1330415E-1,8.7283425E-2,-0E0,3.41E1,6.5E-1,2.1349095E-1,-0E0,3.7E-1,2.49E1,5.1028216E-1,2.05E1,5.2E-1,-0E0,1.77E1,2.1E1,1.05E1,-3.5453466E-1,8E0,5.8E0,-1.770054E-1,1.8412018E-2,9.494362E-2,4.9E-1,4.41E1,7.911466E-2,-0E0,2.872057E-1,-5.34399E-1,-2.1947241E-1,-3.645244E-1,-3.4057999E-3,1.2559313E-1,-1.3098212E-1,1.2652935E-1,-1.7519799E-1,-6.608004E-2,-4.4050533E-1,-3.0779338E-1,5.4360386E-2,4.4496647E-1,-7.7748746E-2,-0E0,2.9421246E-1,-0E0,2.0914045E-1,4.3621573E-1,1.2752241E-1,-0E0,6.1343193E-1,-0E0,-1.5046856E-1],"split_indices":[0,1,0,9,17,4,1,1,0,2,2,18,0,15,0,0,0,0,0,16,9,18,0,2,14,2,14,1,5,10,0,0,0,0,18,0,0,17,5,0,4,18,0,5,5,2,0,9,10,0,0,0,18,0,0,0,0,0,0,0,0,0,0,0,0,0,0,0,0,0,0,0,0,0,0,0,0,0,0,0,0],"split_type":[0,0,0,0,0,0,0,0,0,0,0,0,0,0,0,0,0,0,0,0,0,0,0,0,0,0,0,0,0,0,0,0,0,0,0,0,0,0,0,0,0,0,0,0,0,0,0,0,0,0,0,0,0,0,0,0,0,0,0,0,0,0,0,0,0,0,0,0,0,0,0,0,0,0,0,0,0,0,0,0,0],"sum_hessian":[3.62E2,1.62E2,2E2,1.5E1,1.47E2,1.53E2,4.7E1,7E0,8E0,7.4E1,7.3E1,7.8E1,7.5E1,3.5E1,1.2E1,4E0,3E0,2E0,6E0,6.9E1,5E0,5.5E1,1.8E1,1.4E1,6.4E1,6E0,6.9E1,3E0,3.2E1,1E1,2E0,3E0,1E0,2E0,6.7E1,2E0,3E0,3.8E1,1.7E1,4E0,1.4E1,1.3E1,1E0,4E1,2.4E1,4E0,2E0,3.5E1,3.4E1,1E0,2E0,5E0,2.7E1,8E0,2E0,1E0,1E0,5.2E1,1.5E1,2.9E1,9E0,6E0,1.1E1,9E0,5E0,6E0,7E0,1.2E1,2.8E1,1.6E1,8E0,2E0,2E0,1.4E1,2.1E1,2.1E1,1.3E1,1E0,2.6E1,2E0,6E0],"tree_param":{"num_deleted":"0","num_feature":"19","num_nodes":"81","size_leaf_vector":"1"}},{"base_weights":[3.442913E-1,-6.210633E0,2.0879688E0,3.8159523E0,-8.091063E0,-3.462453E-1,4.068539E0,3.6303222E-1,-0E0,-8.946459E0,2.8730774E-1,-2.4486086E0,2.250658E0,-2.208887E0,4.777674E0,-1.0181193E1,-0E0,-1.5944418E0,2.0633964E-1,-4.2566214E0,7.37901E-1,6.0589604E0,-3.0530876E-2,2.6239188E0,-6.3709626E0,2.5172436E0,6.5990853E0,2.324957E-1,-1.0748136E1,4.575784E-1,-1.5556335E-1,-0E0,-1.3008042E-1,-5.853152E0,-0E0,7.502809E0,-3.785737E-1,1.0038898E1,7.4077606E-1,-3.6543179E0,6.4878434E-1,-2.0709229E-1,3.6494753E-1,-0E0,-9.384608E0,-1.966556E0,4.2658277E0,1.9946474E0,7.933987E0,-0E0,-5.606066E-1,-0E0,9.811135E-2,-0E0,-3.460248E-1,1.0087639E-1,-1.6439728E-1,-0E0,4.2956373E-1,-1.8373142E-1,5.2653696E-2,5.918464E-1,-0E0,-2.5131226E-2,1.8673071E-1,-0E0,-2.9316056E-1,1.0231997E-1,-1.5751019E-1,5.228424E-3,-1.8395844E-1,-0E0,-5.7313544E-1,-0E0,-2.1686144E-1,-0E0,2.7010986E-1,2.7631387E-1,-1.4063232E-2,2.80295E-1,7.2343534E-1],"categories":[],"categories_nodes":[],"categories_segments":[],"categories_sizes":[],"default_left":[0,0,0,0,0,0,0,0,0,0,0,0,0,0,0,0,0,0,0,0,0,0,0,0,0,0,0,0,0,0,0,0,0,0,0,0,0,0,0,0,0,0,0,0,0,0,0,0,0,0,0,0,0,0,0,0,0,0,0,0,0,0,0,0,0,0,0,0,0,0,0,0,0,0,0,0,0,0,0,0,0],"id":7,"left_children":[1,3,5,7,9,11,13,-1,-1,15,17,19,21,23,25,27,29,31,-1,33,35,37,39,41,43,45,47,-1,49,51,-1,-1,-1,53,55,57,59,61,63,65,67,69,-1,-1,71,73,75,77,79,-1,-1,-1,-1,-1,-1,-1,-1,-1,-1,-1,-1,-1,-1,-1,-1,-1,-1,-1,-1,-1,-1,-1,-1,-1,-1,-1,-1,-1,-1,-1,-1],"loss_changes":[4.21215E3,1.525407E3,1.4608654E3,1.4156383E2,5.621719E2,7.227026E2,7.707461E2,0E0,0E0,6.1141797E2,7.5253136E1,4.7042184E2,5.556544E2,3.7601935E2,5.0980103E2,5.566045E2,3.0505594E1,5.9099984E0,0E0,3.6165607E2,2.7045676E2,3.7158563E2,1.1858548E2,1.6507559E2,2.1060452E2,5.88043E2,3.7660596E2,0E0,2.784292E2,1.0085357E1,0E0,0E0,0E0,2.6498706E2,9.475711E1,1.3779236E1,1.3389854E2,1.917749E2,7.886748E1,6.50539E1,1.4407515E2,4.0459164E1,0E0,0E0,1.7186597E2,9.582446E1,2.320769E2,2.2279572E2,6.309475E2,0E0,0E0,0E0,0E0,0E0,0E0,0E0,0E0,0E0,0E0,0E0,0E0,0E0,0E0,0E0,0E0,0E0,0E0,0E0,0E0,0E0,0E0,0E0,0E0,0E0,0E0,0E0,0E0,0E0,0E0,0E0,0E0],"parents":[2147483647,0,0,1,1,2,2,3,3,4,4,5,5,6,6,9,9,10,10,11,11,12,12,13,13,14,14,15,15,16,16,17,17,19,19,20,20,21,21,22,22,23,23,24,24,25,25,26,26,28,28,29,29,33,33,34,34,35,35,36,36,37,37,38,38,39,39,40,40,41,41,44,44,45,45,46,46,47,47,48,48],"right_children":[2,4,6,8,10,12,14,-1,-1,16,18,20,22,24,26,28,30,32,-1,34,36,38,40,42,44,46,48,-1,50,52,-1,-1,-1,54,56,58,60,62,64,66,68,70,-1,-1,72,74,76,78,80,-1,-1,-1,-1,-1,-1,-1,-1,-1,-1,-1,-1,-1,-1,-1,-1,-1,-1,-1,-1,-1,-1,-1,-1,-1,-1,-1,-1,-1,-1,-1,-1],"split_conditions":[2.02E1,7.43E1,3.93E1,3.8E0,1.39E1,2.9E-1,5.5E0,3.6303222E-1,-0E0,2.92E1,3.46E1,2E1,1.29E1,8.7E0,3.8E-1,2.18E1,3.47E1,3.43E1,2.0633964E-1,4.8E-1,2.79E1,8.33E1,3.7E-1,3.8E-1,3.3E-1,1.02E1,4.9E-1,2.324957E-1,1.49E1,2.29E1,-1.5556335E-1,-0E0,-1.3008042E-1,1.36E1,5.3E0,3.57E1,2.3E1,4.2E-1,1.06E1,4E-1,8.31E1,3.95E1,3.6494753E-1,-0E0,3.99E1,4.17E1,7E0,1.13E1,3.75E1,-0E0,-5.606066E-1,-0E0,9.811135E-2,-0E0,-3.460248E-1,1.0087639E-1,-1.6439728E-1,-0E0,4.2956373E-1,-1.8373142E-1,5.2653696E-2,5.918464E-1,-0E0,-2.5131226E-2,1.8673071E-1,-0E0,-2.9316056E-1,1.0231997E-1,-1.5751019E-1,5.228424E-3,-1.8395844E-1,-0E0,-5.7313544E-1,-0E0,-2.1686144E-1,-0E0,2.7010986E-1,2.7631387E-1,-1.4063232E-2,2.80295E-1,7.2343534E-1],"split_indices":[8,1,0,10,6,17,9,0,0,5,0,12,11,6,14,7,7,0,0,13,3,1,16,16,16,6,13,0,12,12,0,0,0,5,9,0,8,17,11,14,1,0,0,0,0,0,9,11,3,0,0,0,0,0,0,0,0,0,0,0,0,0,0,0,0,0,0,0,0,0,0,0,0,0,0,0,0,0,0,0,0],"split_type":[0,0,0,0,0,0,0,0,0,0,0,0,0,0,0,0,0,0,0,0,0,0,0,0,0,0,0,0,0,0,0,0,0,0,0,0,0,0,0,0,0,0,0,0,0,0,0,0,0,0,0,0,0,0,0,0,0,0,0,0,0,0,0,0,0,0,0,0,0,0,0,0,0,0,0,0,0,0,0,0,0],"sum_hessian":[3.7E2,7.6E1,2.94E2,1.1E1,6.5E1,1.3E2,1.64E2,5E0,6E0,6E1,5E0,7.4E1,5.6E1,1.5E1,1.49E2,5.2E1,8E0,2E0,3E0,4.9E1,2.5E1,2.2E1,3.4E1,6E0,9E0,7E1,7.9E1,1E0,5.1E1,6E0,2E0,1E0,1E0,3.6E1,1.3E1,4E0,2.1E1,1.1E1,1.1E1,7E0,2.7E1,3E0,3E0,3E0,6E0,1.8E1,5.2E1,2E1,5.9E1,2E0,4.9E1,4E0,2E0,5E0,3.1E1,9E0,4E0,1E0,3E0,8E0,1.3E1,9E0,2E0,6E0,5E0,3E0,4E0,2.2E1,5E0,1E0,2E0,1E0,5E0,1E1,8E0,1.2E1,4E1,9E0,1.1E1,4.6E1,1.3E1],"tree_param":{"num_deleted":"0","num_feature":"19","num_nodes":"81","size_leaf_vector":"1"}},{"base_weights":[1.4517634E-1,-2.201339E0,3.4302943E0,-4.6250677E0,1.095528E0,-3.5798538E0,4.206141E0,-6.6217585E0,-3.3800313E-1,-3.3985868E0,3.000853E0,-0E0,-7.61176E0,2.228806E0,6.066939E0,-9.783099E0,-4.013158E0,5.4001923E0,-3.0560205E0,3.6269912E-1,-5.9994264E0,6.436073E0,-0E0,-1.1033455E-1,2.2787161E-1,-0E0,-4.976866E-1,-0E0,3.1197345E0,1.9370402E0,7.5627556E0,-0E0,-1.0806331E1,2.6928636E-1,-4.518966E0,6.2984037E0,-0E0,9.8495865E-1,-4.25563E0,3.1075096E-1,-6.272583E-1,-7.338588E0,-0E0,-8.752861E-1,8.333356E0,2.5579364E0,-2.867209E0,7.5448716E-1,-3.3893852E0,8.286333E0,1.5990318E0,3.9339514E0,-1.475477E0,9.746007E-1,8.211718E0,1.8576317E-1,-1.6821098E-1,-6.0564345E-1,-1.3972479E-1,-4.039452E-1,-1.2083366E-1,3.4084937E-1,-0E0,-0E0,5.677101E-2,-2.4011008E-1,-0E0,-1.4271842E-1,-0E0,-5.258195E-1,-1.058782E-2,-0E0,-9.510765E-2,-1.9175081E-1,1.4724731E-3,4.5964465E-1,-0E0,-4.9443725E-3,2.3038487E-1,-2.2302938E-1,-0E0,-0E0,1.4630084E-1,-0E0,-2.0390657E-1,-0E0,4.4283134E-1,-3.0064633E-2,1.6960719E-1,2.6783225E-1,-0E0,-1.9082458E-1,-0E0,6.78936E-2,-0E0,4.2350957E-1,-0E0],"categories":[],"categories_nodes":[],"categories_segments":[],"categories_sizes":[],"default_left":[0,0,0,0,0,0,0,0,0,0,0,0,0,0,0,0,0,0,0,0,0,0,0,0,0,0,0,0,0,0,0,0,0,0,0,0,0,0,0,0,0,0,0,0,0,0,0,0,0,0,0,0,0,0,0,0,0,0,0,0,0,0,0,0,0,0,0,0,0,0,0,0,0,0,0,0,0,0,0,0,0,0,0,0,0,0,0,0,0,0,0,0,0,0,0,0,0],"id":8,"left_children":[1,3,5,7,9,11,13,15,17,19,21,23,25,27,29,31,33,35,37,39,41,43,45,-1,-1,-1,-1,47,49,51,53,55,57,-1,59,61,-1,63,65,-1,67,69,71,73,75,77,79,81,83,85,87,89,91,93,95,-1,-1,-1,-1,-1,-1,-1,-1,-1,-1,-1,-1,-1,-1,-1,-1,-1,-1,-1,-1,-1,-1,-1,-1,-1,-1,-1,-1,-1,-1,-1,-1,-1,-1,-1,-1,-1,-1,-1,-1,-1,-1],"loss_changes":[2.9028494E3,1.7743466E3,8.806505E2,1.01527686E3,7.854316E2,2.7128082E2,4.3335718E2,5.237434E2,6.637114E2,3.1288828E2,6.483533E2,1.0742818E2,1.309495E2,1.7743301E2,3.289602E2,4.0810913E2,2.5337207E2,5.726178E1,1.8717389E2,1.1771151E2,8.823041E1,4.9802625E2,2.771589E2,0E0,0E0,0E0,0E0,7.68971E1,3.2788043E2,1.8030804E2,1.1390674E2,6.4045494E1,1.6251343E2,0E0,2.4223785E2,2.8344421E1,0E0,6.2503386E-1,1.0565848E2,0E0,2.9442049E1,1.8491113E2,1.0854558E1,5.4235245E1,2.0759302E2,1.5990666E2,1.18903885E2,5.19615E1,1.422818E1,2.9101746E1,2.1143785E2,9.670816E1,5.758882E1,4.4139724E0,1.1797632E2,0E0,0E0,0E0,0E0,0E0,0E0,0E0,0E0,0E0,0E0,0E0,0E0,0E0,0E0,0E0,0E0,0E0,0E0,0E0,0E0,0E0,0E0,0E0,0E0,0E0,0E0,0E0,0E0,0E0,0E0,0E0,0E0,0E0,0E0,0E0,0E0,0E0,0E0,0E0,0E0,0E0,0E0],"parents":[2147483647,0,0,1,1,2,2,3,3,4,4,5,5,6,6,7,7,8,8,9,9,10,10,11,11,12,12,13,13,14,14,15,15,16,16,17,17,18,18,19,19,20,20,21,21,22,22,27,27,28,28,29,29,30,30,31,31,32,32,34,34,35,35,37,37,38,38,40,40,41,41,42,42,43,43,44,44,45,45,46,46,47,47,48,48,49,49,50,50,51,51,52,52,53,53,54,54],"right_children":[2,4,6,8,10,12,14,16,18,20,22,24,26,28,30,32,34,36,38,40,42,44,46,-1,-1,-1,-1,48,50,52,54,56,58,-1,60,62,-1,64,66,-1,68,70,72,74,76,78,80,82,84,86,88,90,92,94,96,-1,-1,-1,-1,-1,-1,-1,-1,-1,-1,-1,-1,-1,-1,-1,-1,-1,-1,-1,-1,-1,-1,-1,-1,-1,-1,-1,-1,-1,-1,-1,-1,-1,-1,-1,-1,-1,-1,-1,-1,-1,-1],"split_conditions":[4.02E1,1.88E1,5.5E0,4.7E-1,4.3E-1,1.21E1,4.29E1,2.12E1,5.3E0,8.3E1,1.31E1,1.16E1,1.96E1,3.15E1,2.56E1,1.31E1,2.17E1,4.5E0,7.36E1,1.1E1,1.54E1,3.3E-1,5.8E0,-1.1033455E-1,2.2787161E-1,-0E0,-4.976866E-1,4.21E1,9.8E0,9.29E1,1.23E1,1.16E1,1.69E1,2.6928636E-1,3.51E1,3.95E1,-0E0,3.3E1,1.71E1,3.1075096E-1,7.58E1,5.8E-1,3.53E1,2E1,3.68E1,2.67E1,1.47E1,1.02E1,8.33E1,1.19E1,1.14E1,4.7E0,2.54E1,1.12E1,1.91E1,1.8576317E-1,-1.6821098E-1,-6.0564345E-1,-1.3972479E-1,-4.039452E-1,-1.2083366E-1,3.4084937E-1,-0E0,-0E0,5.677101E-2,-2.4011008E-1,-0E0,-1.4271842E-1,-0E0,-5.258195E-1,-1.058782E-2,-0E0,-9.510765E-2,-1.9175081E-1,1.4724731E-3,4.5964465E-1,-0E0,-4.9443725E-3,2.3038487E-1,-2.2302938E-1,-0E0,-0E0,1.4630084E-1,-0E0,-2.0390657E-1,-0E0,4.4283134E-1,-3.0064633E-2,1.6960719E-1,2.6783225E-1,-0E0,-1.9082458E-1,-0E0,6.78936E-2,-0E0,4.2350957E-1,-0E0],"split_indices":[0,4,9,13,13,2,0,8,9,1,11,2,8,3,8,5,8,10,1,11,11,14,10,0,0,0,0,0,6,1,4,2,4,0,3,0,0,0,11,0,1,18,0,4,3,3,2,2,1,2,6,10,8,4,2,0,0,0,0,0,0,0,0,0,0,0,0,0,0,0,0,0,0,0,0,0,0,0,0,0,0,0,0,0,0,0,0,0,0,0,0,0,0,0,0,0,0],"split_type":[0,0,0,0,0,0,0,0,0,0,0,0,0,0,0,0,0,0,0,0,0,0,0,0,0,0,0,0,0,0,0,0,0,0,0,0,0,0,0,0,0,0,0,0,0,0,0,0,0,0,0,0,0,0,0,0,0,0,0,0,0,0,0,0,0,0,0,0,0,0,0,0,0,0,0,0,0,0,0,0,0,0,0,0,0,0,0,0,0,0,0,0,0,0,0,0,0],"sum_hessian":[3.73E2,2.16E2,1.57E2,1.26E2,9E1,1.4E1,1.43E2,8.4E1,4.2E1,2.5E1,6.5E1,7E0,7E0,7.3E1,7E1,3.5E1,4.9E1,1.2E1,3E1,9E0,1.6E1,2.9E1,3.6E1,4E0,3E0,2E0,5E0,1.8E1,5.5E1,2.1E1,4.9E1,3E0,3.2E1,1E0,4.8E1,1E1,2E0,5E0,2.5E1,2E0,7E0,1.2E1,4E0,5E0,2.4E1,2E1,1.6E1,1.3E1,5E0,1E1,4.5E1,1.5E1,6E0,6E0,4.3E1,2E0,1E0,2.6E1,6E0,1.5E1,3.3E1,9E0,1E0,1E0,4E0,2.4E1,1E0,3E0,4E0,7E0,5E0,2E0,2E0,3E0,2E0,2.2E1,2E0,7E0,1.3E1,1.2E1,4E0,7E0,6E0,1E0,4E0,1E0,9E0,1.8E1,2.7E1,1.1E1,4E0,4E0,2E0,5E0,1E0,4.2E1,1E0],"tree_param":{"num_deleted":"0","num_feature":"19","num_nodes":"97","size_leaf_vector":"1"}},{"base_weights":[-1.7305054E-1,-3.3051322E0,3.2071366E0,-8.996207E0,-2.1339688E0,-1.3962128E0,4.08689E0,-0E0,-9.434938E0,-3.9003477E0,2.7955854E-1,-9.627462E0,9.378328E-1,2.779705E0,6.571182E0,-0E0,-4.975083E-1,-8.089062E0,-2.0861247E0,4.166242E0,-3.7972286E-1,-6.499975E-1,-0E0,-1.8770633E0,3.5836968E0,4.008219E0,4.359976E-1,7.77536E0,2.1776733E-1,-9.401438E0,-0E0,5.7871497E-1,-7.3059845E0,-0E0,6.324221E0,-3.2408886E0,7.9769474E-1,-0E0,-4.906392E0,-0E0,5.045231E0,-1.3882034E0,4.557784E0,-2.329368E0,3.3934238E0,-5.0051372E-2,8.469978E0,-2.3329227E0,3.5635167E-1,-5.1681966E-1,-0E0,1.111983E-1,-1.15153395E-1,-4.651458E-1,-1.1901486E-1,3.6470768E-1,-0E0,-2.2344649E-1,-0E0,3.931055E-1,-3.642658E-2,-0E0,5.264015E-2,-0E0,-3.4120122E-1,3.3080646E-1,-0E0,-9.770012E-2,-0E0,2.7782857E-1,2.6215822E-2,-2.2656524E-1,7.650229E-2,2.9644904E-1,-1.0898924E-2,-1.9017544E-1,-0E0,-0E0,4.3759918E-1,-0E0,-1.4355712E-1],"categories":[],"categories_nodes":[],"categories_segments":[],"categories_sizes":[],"default_left":[0,0,0,0,0,0,0,0,0,0,0,0,0,0,0,0,0,0,0,0,0,0,0,0,0,0,0,0,0,0,0,0,0,0,0,0,0,0,0,0,0,0,0,0,0,0,0,0,0,0,0,0,0,0,0,0,0,0,0,0,0,0,0,0,0,0,0,0,0,0,0,0,0,0,0,0,0,0,0,0,0],"id":9,"left_children":[1,3,5,7,9,11,13,-1,15,17,19,21,23,25,27,-1,-1,29,31,33,35,-1,-1,37,39,41,43,45,47,49,-1,51,53,-1,55,57,59,61,63,-1,65,67,69,71,73,75,77,79,-1,-1,-1,-1,-1,-1,-1,-1,-1,-1,-1,-1,-1,-1,-1,-1,-1,-1,-1,-1,-1,-1,-1,-1,-1,-1,-1,-1,-1,-1,-1,-1,-1],"loss_changes":[3.8864302E3,1.1492148E3,7.413302E2,1.6165796E2,7.2793726E2,6.146523E2,3.7209204E2,0E0,1.01620605E2,6.109026E2,2.1112924E2,1.9617725E2,1.8019765E2,2.4749652E2,2.8560645E2,0E0,0E0,3.5459973E2,1.045207E3,1.516711E2,2.1566924E2,0E0,0E0,8.865311E1,8.758606E1,2.2782678E2,3.3750134E2,2.966145E2,2.4080188E2,1.223728E2,0E0,2.2242871E2,1.0693042E2,0E0,6.5675385E1,1.1997751E2,4.8677567E2,3.3251827E0,6.590582E1,0E0,5.186859E1,5.636957E0,1.7799231E2,1.9841122E2,2.5069765E2,2.8925842E1,1.031001E2,1.1363041E1,0E0,0E0,0E0,0E0,0E0,0E0,0E0,0E0,0E0,0E0,0E0,0E0,0E0,0E0,0E0,0E0,0E0,0E0,0E0,0E0,0E0,0E0,0E0,0E0,0E0,0E0,0E0,0E0,0E0,0E0,0E0,0E0,0E0],"parents":[2147483647,0,0,1,1,2,2,3,3,4,4,5,5,6,6,8,8,9,9,10,10,11,11,12,12,13,13,14,14,17,17,18,18,19,19,20,20,23,23,24,24,25,25,26,26,27,27,28,28,29,29,31,31,32,32,34,34,35,35,36,36,37,37,38,38,40,40,41,41,42,42,43,43,44,44,45,45,46,46,47,47],"right_children":[2,4,6,8,10,12,14,-1,16,18,20,22,24,26,28,-1,-1,30,32,34,36,-1,-1,38,40,42,44,46,48,50,-1,52,54,-1,56,58,60,62,64,-1,66,68,70,72,74,76,78,80,-1,-1,-1,-1,-1,-1,-1,-1,-1,-1,-1,-1,-1,-1,-1,-1,-1,-1,-1,-1,-1,-1,-1,-1,-1,-1,-1,-1,-1,-1,-1,-1,-1],"split_conditions":[3.93E1,4.2E-1,1.36E1,3.8E-1,1.92E1,1.18E1,4.37E1,-0E0,3.1E1,1E1,7.3E1,4.18E1,9.3E0,3.38E1,9.55E1,-0E0,-4.975083E-1,2.36E1,8.29E1,6.87E1,7.99E1,-6.499975E-1,-0E0,4.1E-1,2.88E1,2.04E1,1.79E1,6.7E-1,3.54E1,8.3E-1,-0E0,3.1E1,8.53E1,-0E0,3.86E1,3.76E1,8.22E1,9.6E0,4.07E1,-0E0,8.89E1,4.04E1,2.33E1,3.73E1,3.45E1,4.55E1,2.1E1,2.9E1,3.5635167E-1,-5.1681966E-1,-0E0,1.111983E-1,-1.15153395E-1,-4.651458E-1,-1.1901486E-1,3.6470768E-1,-0E0,-2.2344649E-1,-0E0,3.931055E-1,-3.642658E-2,-0E0,5.264015E-2,-0E0,-3.4120122E-1,3.3080646E-1,-0E0,-9.770012E-2,-0E0,2.7782857E-1,2.6215822E-2,-2.2656524E-1,7.650229E-2,2.9644904E-1,-1.0898924E-2,-1.9017544E-1,-0E0,-0E0,4.3759918E-1,-0E0,-1.4355712E-1],"split_indices":[0,13,4,13,4,2,0,0,0,2,1,0,11,7,1,0,0,8,1,1,1,0,0,16,7,8,4,15,7,15,0,7,1,0,0,0,1,4,0,0,1,0,12,7,3,0,3,3,0,0,0,0,0,0,0,0,0,0,0,0,0,0,0,0,0,0,0,0,0,0,0,0,0,0,0,0,0,0,0,0,0],"split_type":[0,0,0,0,0,0,0,0,0,0,0,0,0,0,0,0,0,0,0,0,0,0,0,0,0,0,0,0,0,0,0,0,0,0,0,0,0,0,0,0,0,0,0,0,0,0,0,0,0,0,0,0,0,0,0,0,0,0,0,0,0,0,0,0,0,0,0,0,0,0,0,0,0,0,0,0,0,0,0,0,0],"sum_hessian":[3.65E2,1.91E2,1.74E2,3E1,1.61E2,2.6E1,1.48E2,1E0,2.9E1,9.5E1,6.6E1,6E0,2E1,1.01E2,4.7E1,2E0,2.7E1,2.6E1,6.9E1,1.1E1,5.5E1,4E0,2E0,8E0,1.2E1,6.3E1,3.8E1,3.8E1,9E0,2.3E1,3E0,4.5E1,2.4E1,3E0,8E0,1.8E1,3.7E1,4E0,4E0,3E0,9E0,4E0,5.9E1,1.8E1,2E1,2E0,3.6E1,6E0,3E0,2E1,3E0,3.1E1,1.4E1,1.5E1,9E0,7E0,1E0,1.5E1,3E0,7E0,3E1,2E0,2E0,1E0,3E0,6E0,3E0,3E0,1E0,4.5E1,1.4E1,1.3E1,5E0,1.3E1,7E0,1E0,1E0,1E0,3.5E1,1E0,5E0],"tree_param":{"num_deleted":"0","num_feature":"19","num_nodes":"81","size_leaf_vector":"1"}},{"base_weights":[-1.9843727E-1,-2.0994167E0,3.6164594E0,-5.813987E0,-6.2850136E-1,2.874969E0,1.0063136E1,1.8996843E0,-7.4538183E0,-2.8222442E0,1.01107E0,2.1959858E0,5.755715E-1,6.294746E-1,-0E0,2.977694E-1,-0E0,2.273964E-1,-7.9115715E0,4.898595E0,-3.4091923E0,3.11385E0,-2.3169956E0,3.3295715E-1,3.5681121E0,-1.4504807E0,3.395939E-3,-8.669568E0,-0E0,-0E0,3.597704E-1,-1.0208926E0,-5.193904E0,-3.197719E0,3.964969E0,-3.9066205E0,3.935324E-1,-1.3214066E0,2.2955008E0,4.84308E0,-1.616478E-1,-0E0,-1.2781735E-1,-4.74856E-1,-0E0,-0E0,-4.6562195E-2,-1.3849746E-1,1.808639E-1,-4.653729E-1,-1.4524505E-1,-0E0,-2.6277757E-1,-0E0,2.30974E-1,-2.3552687E-1,-0E0,2.4375275E-1,-8.8340044E-2,2.220189E-2,-1.8772176E-1,3.7111557E-1,1.2259892E-2,-1.8542099E-1,2.6688728E-1,1.4874235E-1,-2.575846E-1],"categories":[],"categories_nodes":[],"categories_segments":[],"categories_sizes":[],"default_left":[0,0,0,0,0,0,0,0,0,0,0,0,0,0,0,0,0,0,0,0,0,0,0,0,0,0,0,0,0,0,0,0,0,0,0,0,0,0,0,0,0,0,0,0,0,0,0,0,0,0,0,0,0,0,0,0,0,0,0,0,0,0,0,0,0,0,0],"id":10,"left_children":[1,3,5,7,9,11,13,15,17,19,21,23,-1,-1,-1,-1,25,-1,27,29,31,33,35,37,39,41,-1,43,45,-1,-1,47,49,51,53,55,57,59,61,63,65,-1,-1,-1,-1,-1,-1,-1,-1,-1,-1,-1,-1,-1,-1,-1,-1,-1,-1,-1,-1,-1,-1,-1,-1,-1,-1],"loss_changes":[2.7264412E3,1.3197308E3,4.3442615E2,9.551399E2,6.863728E2,5.0614417E2,3.125238E2,1.3402762E2,3.9375366E2,3.7340826E2,7.429951E2,2.3588281E2,0E0,0E0,0E0,0E0,1.0537923E1,0E0,2.780017E2,8.7114426E1,2.6501898E2,3.7489642E2,2.0470845E2,1.7511227E2,3.2816144E2,1.5620166E1,0E0,3.307854E2,2.6016457E0,0E0,0E0,3.017061E2,2.4630847E2,6.6526245E1,1.6640033E2,1.2047452E2,1.6555635E2,1.421555E2,1.9480437E2,2.306737E2,2.562114E2,0E0,0E0,0E0,0E0,0E0,0E0,0E0,0E0,0E0,0E0,0E0,0E0,0E0,0E0,0E0,0E0,0E0,0E0,0E0,0E0,0E0,0E0,0E0,0E0,0E0,0E0],"parents":[2147483647,0,0,1,1,2,2,3,3,4,4,5,5,6,6,7,7,8,8,9,9,10,10,11,11,16,16,18,18,19,19,20,20,21,21,22,22,23,23,24,24,25,25,27,27,28,28,31,31,32,32,33,33,34,34,35,35,36,36,37,37,38,38,39,39,40,40],"right_children":[2,4,6,8,10,12,14,16,18,20,22,24,-1,-1,-1,-1,26,-1,28,30,32,34,36,38,40,42,-1,44,46,-1,-1,48,50,52,54,56,58,60,62,64,66,-1,-1,-1,-1,-1,-1,-1,-1,-1,-1,-1,-1,-1,-1,-1,-1,-1,-1,-1,-1,-1,-1,-1,-1,-1,-1],"split_conditions":[2.49E1,1.98E1,1.65E1,7.45E1,1.74E1,2.42E1,1.98E1,3.4E0,2.18E1,3.1E-1,1.39E1,3.8E-1,5.755715E-1,6.294746E-1,-0E0,2.977694E-1,1.02E1,2.273964E-1,3.42E1,8E0,8.29E1,4.3E-1,8.3E-1,1.06E1,1.43E1,6.6E0,3.395939E-3,9E-1,1.94E1,-0E0,3.597704E-1,9.5E0,1.35E1,9.6E0,7.4E-1,9.62E1,2.21E1,5.2E0,7.4E-1,6.7E-1,3.51E1,-0E0,-1.2781735E-1,-4.74856E-1,-0E0,-0E0,-4.6562195E-2,-1.3849746E-1,1.808639E-1,-4.653729E-1,-1.4524505E-1,-0E0,-2.6277757E-1,-0E0,2.30974E-1,-2.3552687E-1,-0E0,2.4375275E-1,-8.8340044E-2,2.220189E-2,-1.8772176E-1,3.7111557E-1,1.2259892E-2,-1.8542099E-1,2.6688728E-1,1.4874235E-1,-2.575846E-1],"split_indices":[8,8,2,1,4,4,4,10,7,16,11,14,0,0,0,0,2,0,7,6,1,13,15,6,11,2,0,15,8,0,0,6,4,2,15,1,8,10,15,15,3,0,0,0,0,0,0,0,0,0,0,0,0,0,0,0,0,0,0,0,0,0,0,0,0,0,0],"split_type":[0,0,0,0,0,0,0,0,0,0,0,0,0,0,0,0,0,0,0,0,0,0,0,0,0,0,0,0,0,0,0,0,0,0,0,0,0,0,0,0,0,0,0,0,0,0,0,0,0,0,0,0,0,0,0,0,0,0,0,0,0,0,0,0,0,0,0],"sum_hessian":[3.76E2,2.53E2,1.23E2,6.9E1,1.84E2,1.13E2,1E1,1.1E1,5.8E1,8.1E1,1.03E2,1.07E2,6E0,8E0,2E0,4E0,7E0,1E0,5.7E1,4E0,7.7E1,6.5E1,3.8E1,4.9E1,5.8E1,4E0,3E0,5.1E1,6E0,1E0,3E0,3.6E1,4.1E1,6E0,5.9E1,2.6E1,1.2E1,2.4E1,2.5E1,4.5E1,1.3E1,1E0,3E0,4.6E1,5E0,4E0,2E0,2.8E1,8E0,1.2E1,2.9E1,2E0,4E0,8E0,5.1E1,2.3E1,3E0,5E0,7E0,1.2E1,1.2E1,5E0,2E1,1E0,4.4E1,7E0,6E0],"tree_param":{"num_deleted":"0","num_feature":"19","num_nodes":"67","size_leaf_vector":"1"}},{"base_weights":[-2.207809E-1,-4.567884E0,1.4728506E0,-9.622354E0,-2.9098885E0,-1.19768865E-1,4.580205E0,1.4630764E-2,-1.093203E1,4.7303253E-1,-3.4424393E0,-2.0518496E0,2.6033063E0,7.039124E0,4.4342804E-1,-0E0,-1.1333122E1,-3.9559696E0,5.188772E0,-3.8115582E0,1.2956666E0,-0E0,4.310441E0,7.109155E-2,7.9525876E0,4.09001E0,-8.233281E-1,-0E0,-1.1661222E1,-6.192804E0,-1.8563694E0,-0E0,3.6686668E-1,-1.5538522E0,-5.932672E0,-4.373303E0,3.4287045E0,-1.387908E0,3.9471576E0,6.9294906E0,1.2042507E0,8.617592E-2,-0E0,4.673786E0,1.0414797E1,2.728386E-1,7.379483E0,-3.0878713E0,5.274979E-1,-5.979991E-1,-0E0,-3.595031E-1,-0E0,-1.956513E-1,5.8650386E-2,-1.4564316E-1,3.0950282E-2,-5.5268724E-2,-3.709688E-1,1.4714305E-1,-4.156308E-1,-1.5302064E-1,2.527204E-1,1.5850259E-2,-1.6104262E-1,2.9236794E-1,-0E0,-0E0,3.9369306E-1,-1.2904504E-1,2.1570341E-1,3.8163385E-1,-0E0,5.563263E-1,-0E0,6.2642984E-2,-0E0,4.132025E-1,-0E0,-2.3656738E-1,-0E0,1.03349745E-1,-0E0],"categories":[],"categories_nodes":[],"categories_segments":[],"categories_sizes":[],"default_left":[0,0,0,0,0,0,0,0,0,0,0,0,0,0,0,0,0,0,0,0,0,0,0,0,0,0,0,0,0,0,0,0,0,0,0,0,0,0,0,0,0,0,0,0,0,0,0,0,0,0,0,0,0,0,0,0,0,0,0,0,0,0,0,0,0,0,0,0,0,0,0,0,0,0,0,0,0,0,0,0,0,0,0],"id":11,"left_children":[1,3,5,7,9,11,13,-1,15,-1,17,19,21,23,25,-1,27,29,31,33,35,37,39,41,43,45,47,-1,49,51,53,-1,-1,55,57,59,61,63,65,67,69,-1,-1,71,73,75,77,79,81,-1,-1,-1,-1,-1,-1,-1,-1,-1,-1,-1,-1,-1,-1,-1,-1,-1,-1,-1,-1,-1,-1,-1,-1,-1,-1,-1,-1,-1,-1,-1,-1,-1,-1],"loss_changes":[2.8501116E3,7.6012915E2,1.4011333E3,4.3422778E2,5.3236066E2,9.4684314E2,8.8839294E2,0E0,7.695947E1,0E0,3.760868E2,6.6628796E2,3.5993967E2,2.883706E2,2.115688E2,0E0,2.9993408E1,2.8372876E2,5.381597E1,2.6550244E2,4.4086536E2,1.3778494E2,2.8454004E2,1.4807091E1,2.0409229E2,7.214114E1,1.09825676E2,0E0,5.1572266E0,1.7028015E2,3.1235767E2,0E0,0E0,1.3990623E2,1.5773804E2,3.3754633E2,3.3079114E2,1.0193476E2,7.747771E1,1.9754126E2,3.1097296E2,0E0,0E0,3.277594E2,2.7482178E2,8.822418E0,8.942261E-1,9.990218E1,2.5733463E1,0E0,0E0,0E0,0E0,0E0,0E0,0E0,0E0,0E0,0E0,0E0,0E0,0E0,0E0,0E0,0E0,0E0,0E0,0E0,0E0,0E0,0E0,0E0,0E0,0E0,0E0,0E0,0E0,0E0,0E0,0E0,0E0,0E0,0E0],"parents":[2147483647,0,0,1,1,2,2,3,3,4,4,5,5,6,6,8,8,10,10,11,11,12,12,13,13,14,14,16,16,17,17,18,18,19,19,20,20,21,21,22,22,23,23,24,24,25,25,26,26,28,28,29,29,30,30,33,33,34,34,35,35,36,36,37,37,38,38,39,39,40,40,43,43,44,44,45,45,46,46,47,47,48,48],"right_children":[2,4,6,8,10,12,14,-1,16,-1,18,20,22,24,26,-1,28,30,32,34,36,38,40,42,44,46,48,-1,50,52,54,-1,-1,56,58,60,62,64,66,68,70,-1,-1,72,74,76,78,80,82,-1,-1,-1,-1,-1,-1,-1,-1,-1,-1,-1,-1,-1,-1,-1,-1,-1,-1,-1,-1,-1,-1,-1,-1,-1,-1,-1,-1,-1,-1,-1,-1,-1,-1],"split_conditions":[2.13E1,1.43E1,1.88E1,7.43E1,2.4E1,4.9E-1,1.35E1,1.4630764E-2,5.9E0,4.7303253E-1,5E-1,1.16E1,3.9E-1,3.3E-1,7.7E-1,-0E0,1.46E1,3.4E-1,7.8E1,1.16E1,5.7E-1,9.02E1,6.9E0,1.05E1,1.11E1,1.34E1,8.3E-1,-0E0,1.38E1,1.45E1,8.2E0,-0E0,3.6686668E-1,3.7E-1,1.38E1,3.8E0,6.6E-1,3.01E1,9.45E1,1.06E1,1.35E1,8.617592E-2,-0E0,2.13E1,1.53E1,2.35E1,9.5E1,2.5E1,6.3E-1,-5.979991E-1,-0E0,-3.595031E-1,-0E0,-1.956513E-1,5.8650386E-2,-1.4564316E-1,3.0950282E-2,-5.5268724E-2,-3.709688E-1,1.4714305E-1,-4.156308E-1,-1.5302064E-1,2.527204E-1,1.5850259E-2,-1.6104262E-1,2.9236794E-1,-0E0,-0E0,3.9369306E-1,-1.2904504E-1,2.1570341E-1,3.8163385E-1,-0E0,5.563263E-1,-0E0,6.2642984E-2,-0E0,4.132025E-1,-0E0,-2.3656738E-1,-0E0,1.03349745E-1,-0E0],"split_indices":[8,4,4,1,7,13,11,0,2,0,16,6,14,14,15,0,12,14,1,11,18,1,9,2,11,6,15,0,2,6,9,0,0,14,4,10,15,7,1,4,2,0,0,4,2,12,1,12,18,0,0,0,0,0,0,0,0,0,0,0,0,0,0,0,0,0,0,0,0,0,0,0,0,0,0,0,0,0,0,0,0,0,0],"split_type":[0,0,0,0,0,0,0,0,0,0,0,0,0,0,0,0,0,0,0,0,0,0,0,0,0,0,0,0,0,0,0,0,0,0,0,0,0,0,0,0,0,0,0,0,0,0,0,0,0,0,0,0,0,0,0,0,0,0,0,0,0,0,0,0,0,0,0,0,0,0,0,0,0,0,0,0,0,0,0,0,0,0,0],"sum_hessian":[3.81E2,1.08E2,2.73E2,2.4E1,8.4E1,1.79E2,9.4E1,2E0,2.2E1,2E0,8.2E1,1.07E2,7.2E1,5.7E1,3.7E1,1E0,2.1E1,7.9E1,3E0,7.2E1,3.5E1,2.7E1,4.5E1,8E0,4.9E1,1.1E1,2.6E1,1E0,2E1,3.5E1,4.4E1,1E0,2E0,3.8E1,3.4E1,8E0,2.7E1,2.2E1,5E0,2.2E1,2.3E1,4E0,4E0,2.4E1,2.5E1,7E0,4E0,1.2E1,1.4E1,1.9E1,1E0,2.9E1,6E0,2.8E1,1.6E1,2.6E1,1.2E1,1E1,2.4E1,2E0,6E0,4E0,2.3E1,9E0,1.3E1,4E0,1E0,2E0,2E1,9E0,1.4E1,1.4E1,1E1,2.4E1,1E0,5E0,2E0,3E0,1E0,9E0,3E0,6E0,8E0],"tree_param":{"num_deleted":"0","num_feature":"19","num_nodes":"83","size_leaf_vector":"1"}},{"base_weights":[-2.0755194E-1,-4.0017977E0,2.0368762E0,-6.7264366E0,-1.8374057E0,7.725933E-1,4.6248856E0,-8.438087E0,-3.6227825E-1,-5.7393427E0,4.5081764E-1,2.7033842E0,-5.961887E-1,-4.028406E-1,5.3054366E0,-9.305496E0,-0E0,3.3298137E0,-3.5413055E0,-6.2203493E0,-0E0,1.3895899E0,-4.2135772E-1,4.177705E0,-5.6215037E-2,-1.6932489E0,3.7551498E0,-1.5847139E-1,-0E0,6.779882E0,1.9645605E0,-9.57294E0,-0E0,-0E0,-2.823995E-2,-0E0,1.851545E-1,-0E0,-5.485589E0,-0E0,-6.7737494E0,-6.069556E-1,6.4891205E0,1.311079E0,6.3625574E0,-1.7555097E0,2.6501029E0,-5.335149E-1,-5.3839064E0,5.007232E0,-0E0,-0E0,2.5831858E-2,-0E0,7.6544943E0,-2.2898738E0,4.8598948E0,-0E0,-4.882174E-1,3.3621408E-2,-0E0,-3.2364076E-1,-0E0,-0E0,-3.619077E-1,2.1062521E-2,-1.5347692E-1,4.4373814E-2,4.5069152E-1,1.8406223E-1,-6.8763845E-2,-0E0,3.5902938E-1,-0E0,-1.792971E-1,-0E0,1.923674E-1,-2.8079614E-1,2.2064564E-3,-4.1312358E-1,3.0071562E-2,-0E0,2.9670668E-1,-0E0,3.9897838E-1,-3.6054507E-1,-0E0,-0E0,2.8043827E-1],"categories":[],"categories_nodes":[],"categories_segments":[],"categories_sizes":[],"default_left":[0,0,0,0,0,0,0,0,0,0,0,0,0,0,0,0,0,0,0,0,0,0,0,0,0,0,0,0,0,0,0,0,0,0,0,0,0,0,0,0,0,0,0,0,0,0,0,0,0,0,0,0,0,0,0,0,0,0,0,0,0,0,0,0,0,0,0,0,0,0,0,0,0,0,0,0,0,0,0,0,0,0,0,0,0,0,0,0,0],"id":12,"left_children":[1,3,5,7,9,11,13,15,17,19,21,23,25,27,29,31,33,35,37,39,-1,41,-1,43,45,47,49,-1,51,53,55,57,-1,-1,-1,-1,-1,59,61,-1,63,65,67,69,71,73,75,77,79,81,-1,-1,-1,-1,83,85,87,-1,-1,-1,-1,-1,-1,-1,-1,-1,-1,-1,-1,-1,-1,-1,-1,-1,-1,-1,-1,-1,-1,-1,-1,-1,-1,-1,-1,-1,-1,-1,-1],"loss_changes":[3.2127515E3,7.3350586E2,7.080943E2,5.625327E2,7.8761E2,4.4817957E2,3.0436353E2,2.7502148E2,1.8996571E2,1.4539343E2,3.663888E2,3.262472E2,4.2491797E2,3.8882847E1,2.2927393E2,1.153645E2,9.5699376E-1,2.0384216E0,1.1532504E2,1.3115149E2,0E0,5.514696E2,0E0,2.1555328E2,1.0147948E2,2.6324713E2,1.11293655E2,0E0,8.007419E-1,2.62521E2,3.3246097E2,5.271045E1,0E0,0E0,0E0,0E0,0E0,9.0431917E-1,1.0650528E1,0E0,8.3926636E1,1.1386537E2,1.05125305E2,1.80933E2,1.7384595E2,7.619897E1,2.4849121E1,2.3505095E2,3.572466E2,3.634012E1,0E0,0E0,0E0,0E0,7.0859375E1,1.6079669E2,6.251828E1,0E0,0E0,0E0,0E0,0E0,0E0,0E0,0E0,0E0,0E0,0E0,0E0,0E0,0E0,0E0,0E0,0E0,0E0,0E0,0E0,0E0,0E0,0E0,0E0,0E0,0E0,0E0,0E0,0E0,0E0,0E0,0E0],"parents":[2147483647,0,0,1,1,2,2,3,3,4,4,5,5,6,6,7,7,8,8,9,9,10,10,11,11,12,12,13,13,14,14,15,15,16,16,17,17,18,18,19,19,21,21,23,23,24,24,25,25,26,26,28,28,29,29,30,30,31,31,37,37,38,38,40,40,41,41,42,42,43,43,44,44,45,45,46,46,47,47,48,48,49,49,54,54,55,55,56,56],"right_children":[2,4,6,8,10,12,14,16,18,20,22,24,26,28,30,32,34,36,38,40,-1,42,-1,44,46,48,50,-1,52,54,56,58,-1,-1,-1,-1,-1,60,62,-1,64,66,68,70,72,74,76,78,80,82,-1,-1,-1,-1,84,86,88,-1,-1,-1,-1,-1,-1,-1,-1,-1,-1,-1,-1,-1,-1,-1,-1,-1,-1,-1,-1,-1,-1,-1,-1,-1,-1,-1,-1,-1,-1,-1,-1],"split_conditions":[3.8E1,4E-1,4.29E1,2.82E1,7.8E-1,8.44E1,3E0,6.4E-1,7.7E0,4.7E-1,8.55E1,5.4E0,2.83E1,8.2E0,6.1E0,1.6E1,8.8E0,6.87E1,4.7E-1,2.8E-1,-0E0,1.1E1,-4.2135772E-1,8.02E1,8.1E-1,1.36E1,1.48E1,-1.5847139E-1,8.95E1,4.6E-1,6.9E0,5.9E0,-0E0,-0E0,-2.823995E-2,-0E0,1.851545E-1,8.22E1,6E0,-0E0,3.13E1,6.9E0,3.2E-1,7.91E1,4.6E0,7.5E-1,3.82E1,1.35E1,8.6E0,4.4E-1,-0E0,-0E0,2.5831858E-2,-0E0,1.23E1,1.48E1,1.15E1,-0E0,-4.882174E-1,3.3621408E-2,-0E0,-3.2364076E-1,-0E0,-0E0,-3.619077E-1,2.1062521E-2,-1.5347692E-1,4.4373814E-2,4.5069152E-1,1.8406223E-1,-6.8763845E-2,-0E0,3.5902938E-1,-0E0,-1.792971E-1,-0E0,1.923674E-1,-2.8079614E-1,2.2064564E-3,-4.1312358E-1,3.0071562E-2,-0E0,2.9670668E-1,-0E0,3.9897838E-1,-3.6054507E-1,-0E0,-0E0,2.8043827E-1],"split_indices":[0,16,0,5,15,1,10,18,9,13,1,10,5,6,10,6,2,1,18,14,0,6,0,1,15,11,11,0,1,13,10,2,0,0,0,0,0,1,10,0,0,9,14,1,9,15,0,4,9,13,0,0,0,0,4,4,2,0,0,0,0,0,0,0,0,0,0,0,0,0,0,0,0,0,0,0,0,0,0,0,0,0,0,0,0,0,0,0,0],"split_type":[0,0,0,0,0,0,0,0,0,0,0,0,0,0,0,0,0,0,0,0,0,0,0,0,0,0,0,0,0,0,0,0,0,0,0,0,0,0,0,0,0,0,0,0,0,0,0,0,0,0,0,0,0,0,0,0,0,0,0,0,0,0,0,0,0,0,0,0,0,0,0,0,0,0,0,0,0,0,0,0,0,0,0,0,0,0,0,0,0],"sum_hessian":[3.73E2,1.4E2,2.33E2,5.9E1,8.1E1,1.6E2,7.3E1,4.5E1,1.4E1,3.1E1,5E1,6.9E1,9.1E1,7E0,6.6E1,4E1,5E0,5E0,9E0,3E1,1E0,4.7E1,3E0,4.7E1,2.2E1,7.5E1,1.6E1,3E0,4E0,4.3E1,2.3E1,3.9E1,1E0,3E0,2E0,1E0,4E0,2E0,7E0,2E0,2.8E1,3.3E1,1.4E1,2.3E1,2.4E1,1.6E1,6E0,6E1,1.5E1,1.3E1,3E0,2E0,2E0,5E0,3.8E1,8E0,1.5E1,1E0,3.8E1,1E0,1E0,5E0,2E0,2E0,2.6E1,2.1E1,1.2E1,6E0,8E0,1.4E1,9E0,2E0,2.2E1,7E0,9E0,2E0,4E0,7E0,5.3E1,1.1E1,4E0,3E0,1E1,2E0,3.6E1,3E0,5E0,2E0,1.3E1],"tree_param":{"num_deleted":"0","num_feature":"19","num_nodes":"89","size_leaf_vector":"1"}},{"base_weights":[-1.388557E-1,-2.724988E0,2.7374513E0,-4.8576417E0,-4.3916273E-1,4.6860397E-1,4.52779E0,-5.8178535E0,-0E0,7.967444E-1,-5.143244E0,-7.1421665E-1,3.8143506E0,-2.9599478E0,5.1931505E0,-6.8907166E0,-0E0,-2.1194553E0,4.408095E0,3.197932E0,-1.0871457E0,-5.5501765E-1,-2.1499553E0,9.6749336E-1,-3.6770704E0,9.532661E0,1.1407831E0,-0E0,-3.293456E-1,-0E0,5.7917542E0,-7.5974045E0,1.290741E-1,2.6962879E0,-2.5598173E0,-0E0,-1.5660362E-1,-0E0,3.140509E-1,-1.4803765E0,5.182567E0,-4.836491E0,2.8625542E-1,-0E0,-2.9207659E0,-2.8176972E-1,4.6278644E0,-5.30424E0,-0E0,-0E0,5.291869E-1,-1.2251402E0,3.2591732E0,-7.366883E-2,1.8865596E0,3.336154E0,7.33036E0,-4.179724E-1,-1.1283513E-1,-0E0,1.5665817E-1,-0E0,2.4957705E-1,-0E0,-1.7502736E-1,-1.6554992E-1,-0E0,3.6609975E-1,2.4797266E-2,-3.2867414E-1,-0E0,-3.0460168E-2,1.9814925E-1,-1.7473565E-1,-0E0,5.3626727E-2,-1.0683806E-1,3.0980918E-1,-0E0,-2.9622218E-1,-0E0,-1.9569932E-2,2.8152753E-2,-8.138059E-2,-0E0,1.8317577E-1,-0E0,1.0881468E-1,-0E0,-0E0,2.3415501E-1,-0E0,4.097418E-1],"categories":[],"categories_nodes":[],"categories_segments":[],"categories_sizes":[],"default_left":[0,0,0,0,0,0,0,0,0,0,0,0,0,0,0,0,0,0,0,0,0,0,0,0,0,0,0,0,0,0,0,0,0,0,0,0,0,0,0,0,0,0,0,0,0,0,0,0,0,0,0,0,0,0,0,0,0,0,0,0,0,0,0,0,0,0,0,0,0,0,0,0,0,0,0,0,0,0,0,0,0,0,0,0,0,0,0,0,0,0,0,0,0],"id":13,"left_children":[1,3,5,7,9,11,13,15,17,19,21,23,25,27,29,31,33,35,37,39,41,-1,43,45,47,49,51,-1,-1,53,55,57,59,61,63,-1,-1,-1,-1,65,67,69,71,-1,73,75,77,79,81,-1,-1,83,85,-1,87,89,91,-1,-1,-1,-1,-1,-1,-1,-1,-1,-1,-1,-1,-1,-1,-1,-1,-1,-1,-1,-1,-1,-1,-1,-1,-1,-1,-1,-1,-1,-1,-1,-1,-1,-1,-1,-1],"loss_changes":[2.7149526E3,8.9062415E2,6.425172E2,4.6301343E2,6.1150214E2,3.4636163E2,5.010338E2,5.007683E2,1.7049289E2,3.683761E2,2.3592126E2,3.1466495E2,2.3402151E2,1.1222061E2,2.366333E2,4.1795898E2,1.033111E2,3.4383812E1,8.0668144E1,3.7894452E2,2.5801038E2,0E0,3.232212E1,2.0481175E2,1.3917996E2,1.4847656E1,1.1454835E2,0E0,0E0,3.5767944E1,1.5980103E2,1.354436E2,1.9533466E1,4.8772144E1,3.335549E1,0E0,0E0,0E0,0E0,5.4823814E1,1.8890991E2,1.2801538E2,1.3143051E2,0E0,3.565486E1,7.5739586E1,3.3160385E1,7.632599E1,2.0340881E0,0E0,0E0,5.3879414E0,2.0168266E1,0E0,3.5037746E0,1.9179971E2,2.5475415E2,0E0,0E0,0E0,0E0,0E0,0E0,0E0,0E0,0E0,0E0,0E0,0E0,0E0,0E0,0E0,0E0,0E0,0E0,0E0,0E0,0E0,0E0,0E0,0E0,0E0,0E0,0E0,0E0,0E0,0E0,0E0,0E0,0E0,0E0,0E0,0E0],"parents":[2147483647,0,0,1,1,2,2,3,3,4,4,5,5,6,6,7,7,8,8,9,9,10,10,11,11,12,12,13,13,14,14,15,15,16,16,17,17,18,18,19,19,20,20,22,22,23,23,24,24,25,25,26,26,29,29,30,30,31,31,32,32,33,33,34,34,39,39,40,40,41,41,42,42,44,44,45,45,46,46,47,47,48,48,51,51,52,52,54,54,55,55,56,56],"right_children":[2,4,6,8,10,12,14,16,18,20,22,24,26,28,30,32,34,36,38,40,42,-1,44,46,48,50,52,-1,-1,54,56,58,60,62,64,-1,-1,-1,-1,66,68,70,72,-1,74,76,78,80,82,-1,-1,84,86,-1,88,90,92,-1,-1,-1,-1,-1,-1,-1,-1,-1,-1,-1,-1,-1,-1,-1,-1,-1,-1,-1,-1,-1,-1,-1,-1,-1,-1,-1,-1,-1,-1,-1,-1,-1,-1,-1,-1],"split_conditions":[3.93E1,3.6E-1,1.3E1,4.7E-1,8.42E1,2.41E1,5.1E0,2.95E1,9.6E0,1.17E1,9.5E0,3.34E1,2.58E1,1.46E1,4.03E1,1.39E1,5.6E0,3.62E1,3.36E1,2.1E0,3.9E-1,-5.5501765E-1,3.7E-1,1.14E1,6E0,2.47E1,8.3E0,-0E0,-3.293456E-1,1.2E1,1.43E1,6.5E-1,1.11E1,3.8E-1,2.97E1,-0E0,-1.5660362E-1,-0E0,3.140509E-1,3.85E1,7.1E0,4.9E-1,3.2E-1,-0E0,1.42E1,4.5E0,4.7E0,9.63E1,8.79E1,-0E0,5.291869E-1,1.25E1,1.23E1,-7.366883E-2,1.6E1,2.98E1,4.6E-1,-4.179724E-1,-1.1283513E-1,-0E0,1.5665817E-1,-0E0,2.4957705E-1,-0E0,-1.7502736E-1,-1.6554992E-1,-0E0,3.6609975E-1,2.4797266E-2,-3.2867414E-1,-0E0,-3.0460168E-2,1.9814925E-1,-1.7473565E-1,-0E0,5.3626727E-2,-1.0683806E-1,3.0980918E-1,-0E0,-2.9622218E-1,-0E0,-1.9569932E-2,2.8152753E-2,-8.138059E-2,-0E0,1.8317577E-1,-0E0,1.0881468E-1,-0E0,-0E0,2.3415501E-1,-0E0,4.097418E-1],"split_indices":[0,14,2,13,1,5,9,5,6,11,6,7,5,2,0,2,10,0,0,10,16,0,16,6,10,5,9,0,0,6,2,18,6,16,5,0,0,0,0,0,9,13,17,0,2,10,10,1,1,0,0,2,2,0,2,7,13,0,0,0,0,0,0,0,0,0,0,0,0,0,0,0,0,0,0,0,0,0,0,0,0,0,0,0,0,0,0,0,0,0,0,0,0],"split_type":[0,0,0,0,0,0,0,0,0,0,0,0,0,0,0,0,0,0,0,0,0,0,0,0,0,0,0,0,0,0,0,0,0,0,0,0,0,0,0,0,0,0,0,0,0,0,0,0,0,0,0,0,0,0,0,0,0,0,0,0,0,0,0,0,0,0,0,0,0,0,0,0,0,0,0,0,0,0,0,0,0,0,0,0,0,0,0,0,0,0,0,0,0],"sum_hessian":[3.63E2,1.93E2,1.7E2,9.7E1,9.6E1,7.8E1,9.2E1,8.1E1,1.6E1,7.5E1,2.1E1,5.6E1,2.2E1,6E0,8.6E1,6.8E1,1.3E1,1.1E1,5E0,3.5E1,4E1,5E0,1.6E1,3.4E1,2.2E1,5E0,1.7E1,3E0,3E0,1E1,7.6E1,6.3E1,5E0,6E0,7E0,3E0,8E0,1E0,4E0,9E0,2.6E1,1.2E1,2.8E1,4E0,1.2E1,2.4E1,1E1,1.5E1,7E0,1E0,4E0,6E0,1.1E1,4E0,6E0,3.3E1,4.3E1,5.3E1,1E1,4E0,1E0,3E0,3E0,1E0,6E0,6E0,3E0,1.6E1,1E1,9E0,3E0,2.1E1,7E0,1.1E1,1E0,1.1E1,1.3E1,6E0,4E0,1.4E1,1E0,4E0,3E0,5E0,1E0,1E1,1E0,5E0,1E0,8E0,2.5E1,5E0,3.8E1],"tree_param":{"num_deleted":"0","num_feature":"19","num_nodes":"93","size_leaf_vector":"1"}},{"base_weights":[5.7601057E-2,-3.2816255E0,2.1640003E0,-5.574283E0,-5.638923E-1,1.4949312E0,7.773113E0,-7.184181E0,1.3541363E0,-5.2500167E0,6.4984626E-1,-6.157414E0,1.797719E0,-1.9136555E-2,9.044275E0,-8.484006E0,-2.2106957E0,-9.5962524E-1,6.265756E0,-0E0,-7.5672607E0,1.6378516E0,-2.9302529E-1,-5.28454E-1,-0E0,2.8774912E0,-2.27303E-1,9.622615E0,-0E0,-8.768827E0,-0E0,7.853409E-1,-4.108153E0,-2.805046E0,-0E0,8.093547E0,-0E0,-0E0,-1.802063E-3,-4.4050112E-1,-0E0,-3.355603E-1,3.9457495E0,7.7013546E-1,4.4272094E0,-1.4621552E0,1.7323014E0,-0E0,1.0227369E1,-4.9553964E-1,-1.9370152E-1,5.525427E-2,-0E0,-0E0,-2.6577786E-1,-1.699283E-1,-0E0,-0E0,4.6650505E-1,1.3716339E-1,-9.8926E-2,-0E0,3.5182837E-1,-4.9452305E-2,1.728779E-1,2.598085E-1,-0E0,1.11521624E-1,-1.2192642E-1,1.5011106E-1,-2.4122722E-1,-0E0,5.5746096E-1],"categories":[],"categories_nodes":[],"categories_segments":[],"categories_sizes":[],"default_left":[0,0,0,0,0,0,0,0,0,0,0,0,0,0,0,0,0,0,0,0,0,0,0,0,0,0,0,0,0,0,0,0,0,0,0,0,0,0,0,0,0,0,0,0,0,0,0,0,0,0,0,0,0,0,0,0,0,0,0,0,0,0,0,0,0,0,0,0,0,0,0,0,0],"id":14,"left_children":[1,3,5,7,9,11,13,15,17,19,21,23,25,-1,27,29,31,33,35,37,39,41,-1,-1,-1,43,45,47,-1,49,-1,51,53,55,-1,57,-1,-1,-1,-1,-1,59,61,63,65,67,69,-1,71,-1,-1,-1,-1,-1,-1,-1,-1,-1,-1,-1,-1,-1,-1,-1,-1,-1,-1,-1,-1,-1,-1,-1,-1],"loss_changes":[2.6406133E3,8.327146E2,7.701212E2,9.157366E2,4.4186676E2,4.5636707E2,3.2852734E2,2.8157104E2,2.181745E2,1.8889496E2,3.147143E2,1.814256E2,4.7540112E2,0E0,1.3411694E2,8.208667E1,1.2741205E2,3.8921776E1,9.1969345E1,6.494862E-3,6.8650635E1,2.6059317E2,0E0,0E0,0E0,3.920326E2,1.6679913E2,1.3548828E2,0E0,8.0882324E1,0E0,1.8010533E0,8.00284E1,1.0541542E1,0E0,2.0675598E1,0E0,0E0,0E0,0E0,0E0,1.2423989E2,2.5444913E2,3.2121997E2,2.3839807E2,1.733657E2,1.9610114E2,0E0,1.25803955E2,0E0,0E0,0E0,0E0,0E0,0E0,0E0,0E0,0E0,0E0,0E0,0E0,0E0,0E0,0E0,0E0,0E0,0E0,0E0,0E0,0E0,0E0,0E0,0E0],"parents":[2147483647,0,0,1,1,2,2,3,3,4,4,5,5,6,6,7,7,8,8,9,9,10,10,11,11,12,12,14,14,15,15,16,16,17,17,18,18,19,19,20,20,21,21,25,25,26,26,27,27,29,29,31,31,32,32,33,33,35,35,41,41,42,42,43,43,44,44,45,45,46,46,48,48],"right_children":[2,4,6,8,10,12,14,16,18,20,22,24,26,-1,28,30,32,34,36,38,40,42,-1,-1,-1,44,46,48,-1,50,-1,52,54,56,-1,58,-1,-1,-1,-1,-1,60,62,64,66,68,70,-1,72,-1,-1,-1,-1,-1,-1,-1,-1,-1,-1,-1,-1,-1,-1,-1,-1,-1,-1,-1,-1,-1,-1,-1,-1],"split_conditions":[3.8E1,4.2E-1,4.6E1,3.6E-1,3.36E1,6.7E-1,5.1E-1,4.7E-1,8.1E-1,3.12E1,1.83E1,2.23E1,3.4E1,-1.9136555E-2,9.99E1,3.83E1,2.66E1,6E0,8.22E1,2.99E1,5.4E-1,9.8E0,-2.9302529E-1,-5.28454E-1,-0E0,3.8E-1,3.68E1,2.1E1,-0E0,2.41E1,-0E0,7.36E1,7.5E-1,3.76E1,-0E0,2.17E1,-0E0,-0E0,-1.802063E-3,-4.4050112E-1,-0E0,3.43E1,4.5E0,1.06E1,1.32E1,1.02E1,5E-1,-0E0,1.45E1,-4.9553964E-1,-1.9370152E-1,5.525427E-2,-0E0,-0E0,-2.6577786E-1,-1.699283E-1,-0E0,-0E0,4.6650505E-1,1.3716339E-1,-9.8926E-2,-0E0,3.5182837E-1,-4.9452305E-2,1.728779E-1,2.598085E-1,-0E0,1.11521624E-1,-1.2192642E-1,1.5011106E-1,-2.4122722E-1,-0E0,5.5746096E-1],"split_indices":[0,16,0,17,0,15,18,13,15,0,11,5,7,0,1,7,7,10,1,0,16,6,0,0,0,14,7,3,0,5,0,1,15,0,0,3,0,0,0,0,0,0,10,6,11,6,16,0,5,0,0,0,0,0,0,0,0,0,0,0,0,0,0,0,0,0,0,0,0,0,0,0,0],"split_type":[0,0,0,0,0,0,0,0,0,0,0,0,0,0,0,0,0,0,0,0,0,0,0,0,0,0,0,0,0,0,0,0,0,0,0,0,0,0,0,0,0,0,0,0,0,0,0,0,0,0,0,0,0,0,0,0,0,0,0,0,0,0,0,0,0,0,0,0,0,0,0,0,0],"sum_hessian":[3.75E2,1.43E2,2.32E2,7.5E1,6.8E1,2.1E2,2.2E1,6.2E1,1.3E1,1.5E1,5.3E1,6E0,2.04E2,2E0,2E1,4.7E1,1.5E1,8E0,5E0,5E0,1E1,4.8E1,5E0,3E0,3E0,1.36E2,6.8E1,1.9E1,1E0,4.5E1,2E0,4E0,1.1E1,5E0,3E0,4E0,1E0,1E0,4E0,8E0,2E0,2.4E1,2.4E1,6.1E1,7.5E1,4.5E1,2.3E1,1E0,1.8E1,3.4E1,1.1E1,3E0,1E0,2E0,9E0,4E0,1E0,1E0,3E0,6E0,1.8E1,1.2E1,1.2E1,3.5E1,2.6E1,6.3E1,1.2E1,7E0,3.8E1,2.1E1,2E0,2E0,1.6E1],"tree_param":{"num_deleted":"0","num_feature":"19","num_nodes":"73","size_leaf_vector":"1"}},{"base_weights":[-3.3928758E-1,-2.8837168E0,2.1670866E0,-5.7689323E0,-1.0782647E0,5.2873796E-1,5.1512766E0,-7.430897E0,-1.0609716E0,-5.792404E0,-8.176059E-2,-2.7041876E-1,2.4637275E0,-1.3874164E0,6.2887225E0,-3.4589207E0,-9.069221E0,3.7182133E0,-3.4118552E0,-0E0,-7.010875E0,-5.544405E0,5.3638935E-1,1.3244758E0,-1.7357432E0,4.361285E0,-0E0,4.5848975E-1,-3.1547108E-1,9.212543E0,2.4367476E0,-5.1735783E0,3.5055592E0,-9.65358E0,-0E0,-0E0,2.3146425E-1,-4.584508E0,-0E0,-8.17321E0,-0E0,-0E0,-6.1624236E0,2.8229027E0,-7.8817195E-1,-1.611194E0,2.9505336E0,-3.0013845E0,3.581257E-1,2.761116E-1,7.5122666E0,2.516407E0,-2.256324E0,7.373696E-2,-0E0,3.3168082E0,1.1105151E1,-1.9223785E-1,3.673231E0,-0E0,-2.9362833E-1,-0E0,2.3553887E-1,-0E0,-5.230917E-1,-2.534584E-1,-0E0,-0E0,-4.4353136E-1,-3.9700383E-1,-2.2061234E-2,-1.9717408E-2,2.3271334E-1,1.5838249E-1,-9.241952E-2,8.0042906E-2,-1.706845E-1,1.8770714E-1,-0E0,1.4431E-3,-2.0231059E-1,-8.501651E-2,1.9395614E-1,-2.0797158E-2,1.6640885E-1,6.921709E-1,1.0788288E-1,-0E0,2.1620238E-1,-1.3664885E-1,-0E0,2.108755E-1,-0E0,5.733218E-1,-0E0,4.717331E-2,-1.4176063E-1,2.100195E-1,-0E0],"categories":[],"categories_nodes":[],"categories_segments":[],"categories_sizes":[],"default_left":[0,0,0,0,0,0,0,0,0,0,0,0,0,0,0,0,0,0,0,0,0,0,0,0,0,0,0,0,0,0,0,0,0,0,0,0,0,0,0,0,0,0,0,0,0,0,0,0,0,0,0,0,0,0,0,0,0,0,0,0,0,0,0,0,0,0,0,0,0,0,0,0,0,0,0,0,0,0,0,0,0,0,0,0,0,0,0,0,0,0,0,0,0,0,0,0,0,0,0],"id":15,"left_children":[1,3,5,7,9,11,13,15,17,19,21,23,25,27,29,31,33,35,37,-1,39,41,43,45,47,49,51,53,-1,55,57,59,61,63,-1,-1,-1,65,-1,67,-1,-1,69,71,73,75,77,79,81,83,85,87,89,-1,-1,91,93,95,97,-1,-1,-1,-1,-1,-1,-1,-1,-1,-1,-1,-1,-1,-1,-1,-1,-1,-1,-1,-1,-1,-1,-1,-1,-1,-1,-1,-1,-1,-1,-1,-1,-1,-1,-1,-1,-1,-1,-1,-1],"loss_changes":[2.3985227E3,9.0462195E2,8.5474603E2,4.549099E2,4.9980627E2,2.1434798E2,5.337323E2,1.6871826E2,2.4556389E2,1.9810327E2,3.941042E2,2.0505984E2,1.7565965E2,1.4317215E2,4.9175732E2,2.49767E2,1.7466406E2,2.4200722E1,8.6978165E1,0E0,1.6643018E2,4.884497E1,2.9514868E2,1.995429E2,1.5471162E2,2.032327E2,1.1423302E2,9.613E0,0E0,1.5369629E2,1.2328488E2,5.4563995E1,7.5160103E0,1.7565894E2,0E0,0E0,0E0,3.512732E1,0E0,2.092389E1,0E0,0E0,2.4557007E1,2.5654514E2,2.233344E2,9.30697E1,7.5006424E1,1.4477109E2,1.4434879E2,5.5853027E1,1.8302917E2,6.755867E1,8.843323E0,0E0,0E0,5.0074318E1,3.9770996E1,4.2603855E1,6.9520386E1,0E0,0E0,0E0,0E0,0E0,0E0,0E0,0E0,0E0,0E0,0E0,0E0,0E0,0E0,0E0,0E0,0E0,0E0,0E0,0E0,0E0,0E0,0E0,0E0,0E0,0E0,0E0,0E0,0E0,0E0,0E0,0E0,0E0,0E0,0E0,0E0,0E0,0E0,0E0,0E0],"parents":[2147483647,0,0,1,1,2,2,3,3,4,4,5,5,6,6,7,7,8,8,9,9,10,10,11,11,12,12,13,13,14,14,15,15,16,16,17,17,18,18,20,20,21,21,22,22,23,23,24,24,25,25,26,26,27,27,29,29,30,30,31,31,32,32,33,33,37,37,39,39,42,42,43,43,44,44,45,45,46,46,47,47,48,48,49,49,50,50,51,51,52,52,55,55,56,56,57,57,58,58],"right_children":[2,4,6,8,10,12,14,16,18,20,22,24,26,28,30,32,34,36,38,-1,40,42,44,46,48,50,52,54,-1,56,58,60,62,64,-1,-1,-1,66,-1,68,-1,-1,70,72,74,76,78,80,82,84,86,88,90,-1,-1,92,94,96,98,-1,-1,-1,-1,-1,-1,-1,-1,-1,-1,-1,-1,-1,-1,-1,-1,-1,-1,-1,-1,-1,-1,-1,-1,-1,-1,-1,-1,-1,-1,-1,-1,-1,-1,-1,-1,-1,-1,-1,-1],"split_conditions":[4.7E-1,6.5E0,1.35E1,6.4E0,9.9E0,1.88E1,5.1E0,1.07E1,5.5E0,1.47E1,7.2E-1,1.17E1,2.63E1,1.46E1,1.3E1,2E1,2.87E1,3.05E1,1.39E1,-0E0,4E-1,1.04E1,7.9E-1,1.78E1,3.22E1,8.24E1,8.16E1,4E0,-3.1547108E-1,5.7E-1,2.43E1,8.5E0,3.56E1,1.69E1,-0E0,-0E0,2.3146425E-1,2.41E1,-0E0,3.13E1,-0E0,-0E0,3.75E1,7.5E-1,3.56E1,4.15E1,6E0,1.68E1,1.98E1,1.1E1,2E1,1.08E1,8.64E1,7.373696E-2,-0E0,4.47E1,8.2E0,3.2E1,4.39E1,-0E0,-2.9362833E-1,-0E0,2.3553887E-1,-0E0,-5.230917E-1,-2.534584E-1,-0E0,-0E0,-4.4353136E-1,-3.9700383E-1,-2.2061234E-2,-1.9717408E-2,2.3271334E-1,1.5838249E-1,-9.241952E-2,8.0042906E-2,-1.706845E-1,1.8770714E-1,-0E0,1.4431E-3,-2.0231059E-1,-8.501651E-2,1.9395614E-1,-2.0797158E-2,1.6640885E-1,6.921709E-1,1.0788288E-1,-0E0,2.1620238E-1,-1.3664885E-1,-0E0,2.108755E-1,-0E0,5.733218E-1,-0E0,4.717331E-2,-1.4176063E-1,2.100195E-1,-0E0],"split_indices":[13,9,2,10,2,4,9,11,9,4,15,11,5,2,11,12,5,0,2,0,17,4,15,12,3,1,1,10,0,18,8,2,0,8,0,0,0,12,0,0,0,0,3,15,0,0,10,5,12,2,4,11,1,0,0,0,10,3,3,0,0,0,0,0,0,0,0,0,0,0,0,0,0,0,0,0,0,0,0,0,0,0,0,0,0,0,0,0,0,0,0,0,0,0,0,0,0,0,0],"split_type":[0,0,0,0,0,0,0,0,0,0,0,0,0,0,0,0,0,0,0,0,0,0,0,0,0,0,0,0,0,0,0,0,0,0,0,0,0,0,0,0,0,0,0,0,0,0,0,0,0,0,0,0,0,0,0,0,0,0,0,0,0,0,0,0,0,0,0,0,0,0,0,0,0,0,0,0,0,0,0,0,0,0,0,0,0,0,0,0,0,0,0,0,0,0,0,0,0,0,0],"sum_hessian":[3.73E2,1.87E2,1.86E2,6.9E1,1.18E2,1.23E2,6.3E1,4.9E1,2E1,1.8E1,1E2,8.4E1,3.9E1,8E0,5.5E1,1.7E1,3.2E1,5E0,1.5E1,2E0,1.6E1,1.1E1,8.9E1,3.7E1,4.7E1,2.1E1,1.8E1,5E0,3E0,2.9E1,2.6E1,1.5E1,2E0,3E1,2E0,1E0,4E0,1.2E1,3E0,1.4E1,2E0,1E0,1E1,3.5E1,5.4E1,1.1E1,2.6E1,3.2E1,1.5E1,1.1E1,1E1,9E0,9E0,4E0,1E0,9E0,2E1,6E0,2E1,2E0,1.3E1,1E0,1E0,3E0,2.7E1,1.1E1,1E0,2E0,1.2E1,6E0,4E0,1.1E1,2.4E1,9E0,4.5E1,2E0,9E0,2.1E1,5E0,6E0,2.6E1,8E0,7E0,7E0,4E0,3E0,7E0,3E0,6E0,7E0,2E0,8E0,1E0,1.9E1,1E0,2E0,4E0,1.9E1,1E0],"tree_param":{"num_deleted":"0","num_feature":"19","num_nodes":"99","size_leaf_vector":"1"}},{"base_weights":[3.2486364E-2,-2.9580705E0,1.7088217E0,-6.169807E0,-6.569368E-1,6.3904405E-1,4.131495E0,3.2832928E0,-6.986328E0,-4.24612E0,1.2340716E0,1.5629876E0,-1.157176E0,-2.3878021E0,4.594476E0,-0E0,2.2676685E-1,-7.9397535E0,-0E0,-6.391624E0,5.7597227E0,2.9739072E0,-9.9968135E-1,8.386827E-1,7.118149E0,-2.736518E0,1.3224652E0,-2.3359565E-1,-0E0,4.0565178E-1,5.6626935E0,-2.112484E-1,-9.125923E0,-0E0,-4.6892453E-2,-7.6690593E0,-1.3087616E0,4.0378103E-1,-0E0,-1.4359881E-1,3.7926986E0,5.367521E0,-3.949902E0,-7.7529424E-1,2.6522021E0,-8.2871124E-2,1.0039005E1,-3.714765E0,1.13360904E-1,5.3089733E0,-3.0287085E0,-1.4600917E0,2.4651566E0,-0E0,6.4520054E0,-0E0,-3.4552272E-2,-0E0,-4.7679377E-1,-0E0,-4.0861842E-1,-1.3235238E-1,-0E0,2.3581028E-1,-0E0,3.097371E-1,-0E0,5.360508E-3,-2.8318182E-1,-1.5251346E-1,5.1234633E-2,2.333629E-1,-2.5337774E-2,5.4130167E-1,-0E0,-3.1909126E-1,-2.9105697E-2,-0E0,3.161319E-1,-2.7865022E-1,-0E0,-0E0,-1.140049E-1,2.0866604E-1,-0E0,-0E0,-1.2240753E-1,1.956949E-1,4.7968245E-1],"categories":[],"categories_nodes":[],"categories_segments":[],"categories_sizes":[],"default_left":[0,0,0,0,0,0,0,0,0,0,0,0,0,0,0,0,0,0,0,0,0,0,0,0,0,0,0,0,0,0,0,0,0,0,0,0,0,0,0,0,0,0,0,0,0,0,0,0,0,0,0,0,0,0,0,0,0,0,0,0,0,0,0,0,0,0,0,0,0,0,0,0,0,0,0,0,0,0,0,0,0,0,0,0,0,0,0,0,0],"id":16,"left_children":[1,3,5,7,9,11,13,15,17,19,21,23,25,27,29,-1,-1,31,33,35,37,39,41,43,45,47,49,-1,-1,51,53,55,57,-1,-1,59,61,-1,-1,-1,63,65,67,69,71,-1,73,75,-1,77,79,81,83,85,87,-1,-1,-1,-1,-1,-1,-1,-1,-1,-1,-1,-1,-1,-1,-1,-1,-1,-1,-1,-1,-1,-1,-1,-1,-1,-1,-1,-1,-1,-1,-1,-1,-1,-1],"loss_changes":[1.8875428E3,9.180243E2,5.846261E2,4.7677612E2,5.8512177E2,2.946382E2,2.5035583E2,1.8587795E1,2.8449854E2,6.871603E2,2.2480609E2,3.9327383E2,2.3706671E2,4.267392E1,2.4576526E2,0E0,0E0,3.080625E2,3.5182433E0,6.900354E1,9.499057E1,1.7326968E2,4.015027E2,3.36939E2,4.080409E2,2.0400864E2,3.858018E2,0E0,0E0,7.8972626E1,2.986587E2,2.9858E0,1.01200195E2,0E0,0E0,8.4701904E1,2.1331448E1,0E0,0E0,0E0,1.467706E2,1.9012451E1,1.6741647E2,2.4860222E2,3.8770587E2,0E0,4.7010742E1,2.0235965E2,0E0,1.015108E2,1.0379259E2,5.8723125E0,7.248589E1,1.7980326E1,2.1011975E2,0E0,0E0,0E0,0E0,0E0,0E0,0E0,0E0,0E0,0E0,0E0,0E0,0E0,0E0,0E0,0E0,0E0,0E0,0E0,0E0,0E0,0E0,0E0,0E0,0E0,0E0,0E0,0E0,0E0,0E0,0E0,0E0,0E0,0E0],"parents":[2147483647,0,0,1,1,2,2,3,3,4,4,5,5,6,6,7,7,8,8,9,9,10,10,11,11,12,12,13,13,14,14,17,17,18,18,19,19,20,20,21,21,22,22,23,23,24,24,25,25,26,26,29,29,30,30,31,31,32,32,35,35,36,36,40,40,41,41,42,42,43,43,44,44,46,46,47,47,49,49,50,50,51,51,52,52,53,53,54,54],"right_children":[2,4,6,8,10,12,14,16,18,20,22,24,26,28,30,-1,-1,32,34,36,38,40,42,44,46,48,50,-1,-1,52,54,56,58,-1,-1,60,62,-1,-1,-1,64,66,68,70,72,-1,74,76,-1,78,80,82,84,86,88,-1,-1,-1,-1,-1,-1,-1,-1,-1,-1,-1,-1,-1,-1,-1,-1,-1,-1,-1,-1,-1,-1,-1,-1,-1,-1,-1,-1,-1,-1,-1,-1,-1,-1],"split_conditions":[3.77E1,1.07E1,4.29E1,2.4E1,7.8E-1,3.4E1,7.2E-1,2.19E1,6.5E-1,2.39E1,8.5E-1,3.3E1,2.48E1,8.7E0,2.38E1,-0E0,2.2676685E-1,4.7E-1,9.6E0,9.1E0,3.72E1,1.09E1,7.8E0,3.8E-1,9.3E0,9.1E0,3.63E1,-2.3359565E-1,-0E0,8.3E0,5.9E0,3.38E1,2.39E1,-0E0,-4.6892453E-2,1.54E1,3.45E1,4.0378103E-1,-0E0,-1.4359881E-1,9E0,1.15E1,3.46E1,2.7E-1,1.23E1,-8.2871124E-2,2.42E1,2.45E1,1.13360904E-1,3.41E1,1.91E1,4.36E1,4.49E1,3.43E1,3.57E1,-0E0,-3.4552272E-2,-0E0,-4.7679377E-1,-0E0,-4.0861842E-1,-1.3235238E-1,-0E0,2.3581028E-1,-0E0,3.097371E-1,-0E0,5.360508E-3,-2.8318182E-1,-1.5251346E-1,5.1234633E-2,2.333629E-1,-2.5337774E-2,5.4130167E-1,-0E0,-3.1909126E-1,-2.9105697E-2,-0E0,3.161319E-1,-2.7865022E-1,-0E0,-0E0,-1.140049E-1,2.0866604E-1,-0E0,-0E0,-1.2240753E-1,1.956949E-1,4.7968245E-1],"split_indices":[0,2,0,7,15,7,15,7,18,8,15,7,5,6,8,0,0,18,2,9,0,2,6,14,11,9,3,0,0,9,9,0,3,0,0,12,7,0,0,0,9,2,0,17,11,0,12,8,0,7,11,0,0,7,3,0,0,0,0,0,0,0,0,0,0,0,0,0,0,0,0,0,0,0,0,0,0,0,0,0,0,0,0,0,0,0,0,0,0],"split_type":[0,0,0,0,0,0,0,0,0,0,0,0,0,0,0,0,0,0,0,0,0,0,0,0,0,0,0,0,0,0,0,0,0,0,0,0,0,0,0,0,0,0,0,0,0,0,0,0,0,0,0,0,0,0,0,0,0,0,0,0,0,0,0,0,0,0,0,0,0,0,0,0,0,0,0,0,0,0,0,0,0,0,0,0,0,0,0,0,0],"sum_hessian":[3.77E2,1.33E2,2.44E2,5.3E1,8E1,1.73E2,7.1E1,3E0,5E1,2.9E1,5.1E1,1.18E2,5.5E1,3E0,6.8E1,1E0,2E0,4.3E1,7E0,2.5E1,4E0,3.1E1,2E1,1.07E2,1.1E1,3.6E1,1.9E1,2E0,1E0,1.6E1,5.2E1,7E0,3.6E1,4E0,3E0,1.8E1,7E0,3E0,1E0,2E0,2.9E1,5E0,1.5E1,5.4E1,5.3E1,2E0,9E0,3.2E1,4E0,1.1E1,8E0,6E0,1E1,5E0,4.7E1,1E0,6E0,2E0,3.4E1,1E0,1.7E1,4E0,3E0,2.5E1,4E0,4E0,1E0,3E0,1.2E1,2.6E1,2.8E1,3.4E1,1.9E1,8E0,1E0,1.5E1,1.7E1,1E0,1E1,5E0,3E0,3E0,3E0,7E0,3E0,3E0,2E0,2.9E1,1.8E1],"tree_param":{"num_deleted":"0","num_feature":"19","num_nodes":"89","size_leaf_vector":"1"}},{"base_weights":[-3.791598E-1,-2.6447594E0,1.968702E0,-3.958008E0,1.4179064E0,-0E0,3.2717428E0,-6.575284E0,-2.5381863E0,7.039432E0,-0E0,-1.8731273E0,2.0399063E0,4.6088524E0,-5.9479904E-1,-7.969739E0,4.9182224E-1,-1.6204202E0,-4.9000893E0,-0E0,7.6055746E0,-5.909251E0,2.9669251E0,7.880955E-2,-2.4656718E0,3.665755E0,-0E0,1.9837333E0,6.09482E0,-4.829481E0,2.2580552E0,-8.1217957E-1,-9.546382E0,-0E0,1.1208687E-1,-3.808927E0,-1.910357E-1,-0E0,-6.596835E0,-0E0,4.137168E-1,-3.5801393E-1,-0E0,-0E0,4.519305E0,-6.6883035E0,-5.123866E-1,4.863062E0,-0E0,-2.0854778E0,1.6406046E0,-1.0601313E0,4.052712E0,1.547849E0,6.659091E0,-0E0,-6.5959177E0,-1.9854095E0,4.6713276E0,-2.5582707E-1,-0E0,-0E0,-5.3533435E-1,-7.465257E-2,-5.192482E-1,-1.5941612E-1,4.9226664E-2,-1.20761946E-1,1.0396242E-1,-8.4611095E-2,-5.633037E-1,-5.5491067E-2,8.281434E-2,3.8129607E-1,2.9104082E-2,-0E0,-3.645892E-1,-8.7724894E-2,1.7761123E-1,3.1443793E-1,4.8624675E-4,-0E0,-1.2632148E-1,1.6164131E-1,-0E0,-0E0,-2.1074899E-1,2.8833085E-1,-4.8894244E-3,-0E0,1.1741724E-1,3.7172318E-1,8.532961E-2,-2.4144745E-2,6.9028474E-2,-4.0602937E-1,-0E0,-0E0,-1.3761778E-1,-0E0,2.694327E-1],"categories":[],"categories_nodes":[],"categories_segments":[],"categories_sizes":[],"default_left":[0,0,0,0,0,0,0,0,0,0,0,0,0,0,0,0,0,0,0,0,0,0,0,0,0,0,0,0,0,0,0,0,0,0,0,0,0,0,0,0,0,0,0,0,0,0,0,0,0,0,0,0,0,0,0,0,0,0,0,0,0,0,0,0,0,0,0,0,0,0,0,0,0,0,0,0,0,0,0,0,0,0,0,0,0,0,0,0,0,0,0,0,0,0,0,0,0,0,0,0,0],"id":17,"left_children":[1,3,5,7,9,11,13,15,17,19,21,23,25,27,29,31,33,35,37,-1,39,41,43,-1,45,47,49,51,53,55,57,59,61,-1,-1,63,65,67,69,-1,-1,-1,-1,71,73,75,77,79,-1,81,83,85,87,89,91,93,95,97,99,-1,-1,-1,-1,-1,-1,-1,-1,-1,-1,-1,-1,-1,-1,-1,-1,-1,-1,-1,-1,-1,-1,-1,-1,-1,-1,-1,-1,-1,-1,-1,-1,-1,-1,-1,-1,-1,-1,-1,-1,-1,-1],"loss_changes":[2.0439454E3,1.0820653E3,4.8868964E2,4.5330176E2,3.514909E2,2.8598688E2,6.270908E2,5.7143677E2,1.4795752E2,1.6775665E1,6.9162164E2,9.453615E1,1.23112564E2,2.4259631E2,3.748856E2,3.739126E2,2.8217205E1,2.0327373E2,1.8305634E2,0E0,1.6494293E1,1.1001514E2,1.0953862E2,0E0,2.297423E2,8.598541E1,5.9017998E1,2.5464137E2,4.1040894E1,1.3185071E2,1.9998386E2,7.1940636E1,3.404585E2,0E0,0E0,2.921345E2,2.0487631E2,4.645999E1,2.6356702E2,0E0,0E0,0E0,0E0,2.3849937E1,1.2141556E2,3.1197052E1,1.2961868E2,4.074478E1,0E0,9.886169E0,2.8031576E1,7.421984E1,2.2086414E2,2.2555258E1,6.486316E1,6.184291E0,9.2490234E1,1.059259E1,5.755786E1,0E0,0E0,0E0,0E0,0E0,0E0,0E0,0E0,0E0,0E0,0E0,0E0,0E0,0E0,0E0,0E0,0E0,0E0,0E0,0E0,0E0,0E0,0E0,0E0,0E0,0E0,0E0,0E0,0E0,0E0,0E0,0E0,0E0,0E0,0E0,0E0,0E0,0E0,0E0,0E0,0E0,0E0],"parents":[2147483647,0,0,1,1,2,2,3,3,4,4,5,5,6,6,7,7,8,8,9,9,10,10,11,11,12,12,13,13,14,14,15,15,16,16,17,17,18,18,20,20,21,21,22,22,24,24,25,25,26,26,27,27,28,28,29,29,30,30,31,31,32,32,35,35,36,36,37,37,38,38,43,43,44,44,45,45,46,46,47,47,49,49,50,50,51,51,52,52,53,53,54,54,55,55,56,56,57,57,58,58],"right_children":[2,4,6,8,10,12,14,16,18,20,22,24,26,28,30,32,34,36,38,-1,40,42,44,-1,46,48,50,52,54,56,58,60,62,-1,-1,64,66,68,70,-1,-1,-1,-1,72,74,76,78,80,-1,82,84,86,88,90,92,94,96,98,100,-1,-1,-1,-1,-1,-1,-1,-1,-1,-1,-1,-1,-1,-1,-1,-1,-1,-1,-1,-1,-1,-1,-1,-1,-1,-1,-1,-1,-1,-1,-1,-1,-1,-1,-1,-1,-1,-1,-1,-1,-1,-1],"split_conditions":[4.7E-1,1.32E1,3.8E-1,3.3E-1,3.53E1,1.07E1,1.35E1,3.86E1,1.4E1,2.4E0,3.91E1,9E0,2.34E1,3.04E1,4.9E-1,1.1E1,9.8E0,2.1E1,3.45E1,-0E0,8.5E0,3.5E1,1.29E1,7.880955E-2,1.79E1,6.2E0,1.4E1,1.09E1,7.89E1,1.52E1,1.72E1,1.67E1,3.13E1,-0E0,1.1208687E-1,3.54E1,9.1E0,1E1,2.33E1,-0E0,4.137168E-1,-3.5801393E-1,-0E0,2.36E1,2.19E1,1.57E1,3.22E1,7.8E-1,-0E0,2.7E1,4.04E1,2.89E1,6.1E0,3.1E1,2.1E1,1.47E1,2.49E1,2.52E1,3.57E1,-2.5582707E-1,-0E0,-0E0,-5.3533435E-1,-7.465257E-2,-5.192482E-1,-1.5941612E-1,4.9226664E-2,-1.20761946E-1,1.0396242E-1,-8.4611095E-2,-5.633037E-1,-5.5491067E-2,8.281434E-2,3.8129607E-1,2.9104082E-2,-0E0,-3.645892E-1,-8.7724894E-2,1.7761123E-1,3.1443793E-1,4.8624675E-4,-0E0,-1.2632148E-1,1.6164131E-1,-0E0,-0E0,-2.1074899E-1,2.8833085E-1,-4.8894244E-3,-0E0,1.1741724E-1,3.7172318E-1,8.532961E-2,-2.4144745E-2,6.9028474E-2,-4.0602937E-1,-0E0,-0E0,-1.3761778E-1,-0E0,2.694327E-1],"split_indices":[13,6,14,14,0,6,11,0,11,10,0,11,5,3,13,11,6,8,0,0,2,7,11,0,5,10,11,11,1,4,4,8,0,0,0,3,6,2,8,0,0,0,0,5,4,5,3,15,0,7,0,3,10,3,4,4,8,8,0,0,0,0,0,0,0,0,0,0,0,0,0,0,0,0,0,0,0,0,0,0,0,0,0,0,0,0,0,0,0,0,0,0,0,0,0,0,0,0,0,0,0],"split_type":[0,0,0,0,0,0,0,0,0,0,0,0,0,0,0,0,0,0,0,0,0,0,0,0,0,0,0,0,0,0,0,0,0,0,0,0,0,0,0,0,0,0,0,0,0,0,0,0,0,0,0,0,0,0,0,0,0,0,0,0,0,0,0,0,0,0,0,0,0,0,0,0,0,0,0,0,0,0,0,0,0,0,0,0,0,0,0,0,0,0,0,0,0,0,0,0,0,0,0,0,0],"sum_hessian":[3.81E2,1.96E2,1.85E2,1.5E2,4.6E1,7.3E1,1.12E2,4.9E1,1.01E2,8E0,3.8E1,3.9E1,3.4E1,8.5E1,2.7E1,4.2E1,7E0,7.7E1,2.4E1,1E0,7E0,1.2E1,2.6E1,3E0,3.6E1,1.9E1,1.5E1,3.4E1,5.1E1,1.2E1,1.5E1,9E0,3.3E1,2E0,5E0,2.7E1,5E1,7E0,1.7E1,1E0,6E0,1E1,2E0,1E1,1.6E1,9E0,2.7E1,1.4E1,5E0,7E0,8E0,1.2E1,2.2E1,8E0,4.3E1,3E0,9E0,4E0,1.1E1,2E0,7E0,4E0,2.9E1,2.2E1,5E0,1.6E1,3.4E1,4E0,3E0,1E1,7E0,5E0,5E0,7E0,9E0,1E0,8E0,2.3E1,4E0,9E0,5E0,1E0,6E0,4E0,4E0,8E0,4E0,1.7E1,5E0,1E0,7E0,3.5E1,8E0,1E0,2E0,7E0,2E0,1E0,3E0,1E0,1E1],"tree_param":{"num_deleted":"0","num_feature":"19","num_nodes":"101","size_leaf_vector":"1"}},{"base_weights":[4.2927954E-2,-2.739122E0,1.8503672E0,-4.7651973E0,-9.393544E-1,1.1032677E0,6.603472E0,-0E0,-5.634239E0,-1.9642177E0,4.5724688E0,-5.416357E0,1.4665653E0,-0E0,7.630441E0,-1.3353853E-1,3.3931339E0,-0E0,-5.9591575E0,-4.4305863E0,6.364026E-1,5.638217E-1,-0E0,-6.554323E0,-0E0,2.301721E0,-7.958086E-2,2.7308593E0,1.0048105E1,-0E0,1.9681084E-1,-6.759153E0,-1.9625753E0,3.9559077E-2,-5.208718E0,2.2355394E0,-1.7106351E0,3.3802893E-2,-2.1973095E0,-0E0,-3.953016E-1,5.6034026E0,1.600472E0,-9.2260545E-1,1.938149E-1,-0E0,2.820513E-1,5.4878736E-1,-0E0,-3.65168E-1,-0E0,-0E0,-2.3285854E-1,-0E0,-2.8192773E-1,2.1066795E-1,-1.03710234E-1,-1.7750257E-1,-0E0,-1.8573456E-1,-0E0,3.490096E-1,-3.6643602E-2,-3.3827075E-1,1.00150086E-1,-1.2049025E-1,4.4779256E-2,-0E0,-5.2452087E-3],"categories":[],"categories_nodes":[],"categories_segments":[],"categories_sizes":[],"default_left":[0,0,0,0,0,0,0,0,0,0,0,0,0,0,0,0,0,0,0,0,0,0,0,0,0,0,0,0,0,0,0,0,0,0,0,0,0,0,0,0,0,0,0,0,0,0,0,0,0,0,0,0,0,0,0,0,0,0,0,0,0,0,0,0,0,0,0,0,0],"id":18,"left_children":[1,3,5,7,9,11,13,15,17,19,21,23,25,-1,27,-1,29,-1,31,33,35,-1,37,39,-1,41,43,45,47,-1,-1,49,51,-1,53,55,57,-1,59,-1,-1,61,63,65,-1,67,-1,-1,-1,-1,-1,-1,-1,-1,-1,-1,-1,-1,-1,-1,-1,-1,-1,-1,-1,-1,-1,-1,-1],"loss_changes":[1.8063998E3,4.4898328E2,7.004276E2,3.1540808E2,4.2351028E2,4.2794696E2,2.346272E2,9.761221E1,6.513367E1,4.7691946E2,4.058075E2,7.964087E1,2.6258136E2,0E0,1.4090906E2,0E0,8.388863E0,0E0,6.2577026E1,1.9863562E2,1.2917674E2,0E0,2.1140892E1,9.386417E1,0E0,2.0840582E2,1.8080334E2,1.088935E2,1.7207202E2,0E0,0E0,9.276062E1,8.391501E1,0E0,9.494037E1,2.1765665E2,4.342819E1,0E0,2.2084118E1,0E0,0E0,2.3333942E2,3.262513E2,1.6331705E2,0E0,3.301466E-2,0E0,0E0,0E0,0E0,0E0,0E0,0E0,0E0,0E0,0E0,0E0,0E0,0E0,0E0,0E0,0E0,0E0,0E0,0E0,0E0,0E0,0E0,0E0],"parents":[2147483647,0,0,1,1,2,2,3,3,4,4,5,5,6,6,7,7,8,8,9,9,10,10,11,11,12,12,14,14,16,16,18,18,19,19,20,20,22,22,23,23,25,25,26,26,27,27,28,28,31,31,32,32,34,34,35,35,36,36,38,38,41,41,42,42,43,43,45,45],"right_children":[2,4,6,8,10,12,14,16,18,20,22,24,26,-1,28,-1,30,-1,32,34,36,-1,38,40,-1,42,44,46,48,-1,-1,50,52,-1,54,56,58,-1,60,-1,-1,62,64,66,-1,68,-1,-1,-1,-1,-1,-1,-1,-1,-1,-1,-1,-1,-1,-1,-1,-1,-1,-1,-1,-1,-1,-1,-1],"split_conditions":[3.8E1,4E-1,4.55E1,7.39E1,1.32E1,1.19E1,4.9E-1,5.2E0,2.43E1,4.5E-1,8.18E1,3.48E1,3.4E1,-0E0,6.6E0,-1.3353853E-1,6.87E1,-0E0,2.08E1,4.1E-1,3.67E1,5.638217E-1,3.53E1,8E1,-0E0,2.1E-1,5.2E-1,3.54E1,9.61E1,-0E0,1.9681084E-1,3.76E1,2.27E1,3.9559077E-2,3.8E0,3.6E-1,1.26E1,3.3802893E-2,3.71E1,-0E0,-3.953016E-1,6.7E-1,1.78E1,1.88E1,1.938149E-1,4.75E1,2.820513E-1,5.4878736E-1,-0E0,-3.65168E-1,-0E0,-0E0,-2.3285854E-1,-0E0,-2.8192773E-1,2.1066795E-1,-1.03710234E-1,-1.7750257E-1,-0E0,-1.8573456E-1,-0E0,3.490096E-1,-3.6643602E-2,-3.3827075E-1,1.00150086E-1,-1.2049025E-1,4.4779256E-2,-0E0,-5.2452087E-3],"split_indices":[0,16,0,1,6,4,18,9,3,13,1,7,7,0,9,0,1,0,4,16,3,0,0,1,0,17,13,3,1,0,0,0,4,0,9,17,4,0,0,0,0,18,5,4,0,0,0,0,0,0,0,0,0,0,0,0,0,0,0,0,0,0,0,0,0,0,0,0,0],"split_type":[0,0,0,0,0,0,0,0,0,0,0,0,0,0,0,0,0,0,0,0,0,0,0,0,0,0,0,0,0,0,0,0,0,0,0,0,0,0,0,0,0,0,0,0,0,0,0,0,0,0,0,0,0,0,0,0,0,0,0,0,0,0,0,0,0,0,0,0,0],"sum_hessian":[3.59E2,1.39E2,2.2E2,6.2E1,7.7E1,1.93E2,2.7E1,8E0,5.4E1,6.7E1,1E1,8E0,1.85E2,3E0,2.4E1,3E0,5E0,4E0,5E1,3.6E1,3.1E1,4E0,6E0,7E0,1E0,1.24E2,6.1E1,1E1,1.4E1,1E0,4E0,3.9E1,1.1E1,3E0,3.3E1,2.1E1,1E1,3E0,3E0,1E0,6E0,1.8E1,1.06E2,5.3E1,8E0,5E0,5E0,1.3E1,1E0,3.5E1,4E0,6E0,5E0,2E0,3.1E1,1.6E1,5E0,5E0,5E0,2E0,1E0,1.6E1,2E0,3E0,1.03E2,3.2E1,2.1E1,3E0,2E0],"tree_param":{"num_deleted":"0","num_feature":"19","num_nodes":"69","size_leaf_vector":"1"}},{"base_weights":[-5.4634806E-2,-1.8476685E0,2.628109E0,-3.6533203E0,6.151835E-1,9.930368E-1,4.7339926E0,-4.4537616E0,4.7179413E-1,-4.589537E0,1.6563342E0,-9.223639E-2,2.466275E0,-1.0497856E-1,5.563762E0,5.792074E-1,-4.8942423E0,2.746025E0,-1.0770394E0,-0E0,-7.382373E0,4.969365E0,-0E0,6.828548E-1,-3.178566E0,3.633341E0,-0E0,-1.272852E-1,7.3906586E-2,6.9995613E0,1.1810036E0,-0E0,8.597552E-2,2.5250294E0,-5.1625123E0,2.5731057E-1,-0E0,-0E0,-1.3636145E-1,1.5596009E-2,-0E0,-4.162096E-1,-0E0,7.0059586E0,-0E0,2.376221E0,-1.9538289E0,-0E0,4.4351554E0,-0E0,-2.9902732E-1,4.826163E0,-0E0,-9.606369E-1,8.1702906E-1,3.2294478E0,9.140123E0,-2.1452928E0,3.3018768E0,-0E0,2.0616208E-1,-3.7762758E-1,-1.5615593E-1,-0E0,3.7246963E-1,5.7730485E-2,-0E0,-0E0,3.0081174E-1,-1.6578558E-1,-0E0,6.043948E-2,-8.307299E-2,2.58946E-1,-0E0,-1.2256928E-2,-0E0,3.8594586E-1,5.557657E-2,-0E0,8.318405E-3,-1.0347964E-1,-0E0,7.494793E-2,-0E0,2.0562096E-1,-0E0,2.3748827E-1,6.094797E-1,-0E0,-2.1897355E-1,-3.5354234E-2,2.5871888E-1],"categories":[],"categories_nodes":[],"categories_segments":[],"categories_sizes":[],"default_left":[0,0,0,0,0,0,0,0,0,0,0,0,0,0,0,0,0,0,0,0,0,0,0,0,0,0,0,0,0,0,0,0,0,0,0,0,0,0,0,0,0,0,0,0,0,0,0,0,0,0,0,0,0,0,0,0,0,0,0,0,0,0,0,0,0,0,0,0,0,0,0,0,0,0,0,0,0,0,0,0,0,0,0,0,0,0,0,0,0,0,0,0,0],"id":19,"left_children":[1,3,5,7,9,11,13,15,17,19,21,23,25,27,29,31,33,35,37,39,41,43,45,47,49,51,53,-1,-1,55,57,-1,-1,59,61,-1,-1,-1,-1,-1,-1,-1,-1,63,65,67,69,71,73,75,-1,77,79,81,83,85,87,89,91,-1,-1,-1,-1,-1,-1,-1,-1,-1,-1,-1,-1,-1,-1,-1,-1,-1,-1,-1,-1,-1,-1,-1,-1,-1,-1,-1,-1,-1,-1,-1,-1,-1,-1],"loss_changes":[1.7479825E3,1.0154276E3,4.3385962E2,4.7116943E2,4.7680838E2,1.5987146E2,2.960857E2,2.9206396E2,9.0095535E1,2.5010043E2,4.7471655E2,1.3716821E2,9.9929825E1,4.53501E1,2.4344421E2,1.5056446E1,2.4640894E2,4.9470253E1,3.3026527E1,3.8917676E-1,7.863519E1,2.4113708E2,2.4256226E2,1.0170344E2,5.7595306E1,9.931482E1,1.1957018E1,0E0,0E0,1.5345288E2,1.3152376E2,0E0,0E0,1.4874918E1,3.668274E2,0E0,0E0,0E0,0E0,0E0,0E0,0E0,0E0,6.629651E1,6.6656175E0,1.6533923E2,7.955011E1,6.3486206E1,1.608245E1,3.0046454E-1,0E0,1.0728049E2,1.3839173E-1,8.235527E0,1.5125868E1,7.638121E1,6.725061E1,5.3707653E1,1.3841306E2,0E0,0E0,0E0,0E0,0E0,0E0,0E0,0E0,0E0,0E0,0E0,0E0,0E0,0E0,0E0,0E0,0E0,0E0,0E0,0E0,0E0,0E0,0E0,0E0,0E0,0E0,0E0,0E0,0E0,0E0,0E0,0E0,0E0,0E0],"parents":[2147483647,0,0,1,1,2,2,3,3,4,4,5,5,6,6,7,7,8,8,9,9,10,10,11,11,12,12,13,13,14,14,15,15,16,16,17,17,18,18,19,19,20,20,21,21,22,22,23,23,24,24,25,25,26,26,29,29,30,30,33,33,34,34,43,43,44,44,45,45,46,46,47,47,48,48,49,49,51,51,52,52,53,53,54,54,55,55,56,56,57,57,58,58],"right_children":[2,4,6,8,10,12,14,16,18,20,22,24,26,28,30,32,34,36,38,40,42,44,46,48,50,52,54,-1,-1,56,58,-1,-1,60,62,-1,-1,-1,-1,-1,-1,-1,-1,64,66,68,70,72,74,76,-1,78,80,82,84,86,88,90,92,-1,-1,-1,-1,-1,-1,-1,-1,-1,-1,-1,-1,-1,-1,-1,-1,-1,-1,-1,-1,-1,-1,-1,-1,-1,-1,-1,-1,-1,-1,-1,-1,-1,-1],"split_conditions":[4.03E1,1.88E1,1.35E1,4.9E-1,5.1E-1,2.23E1,4.6E-1,7.36E1,7.9E1,7.48E1,2.63E1,1.96E1,3.35E1,1.38E1,1.35E1,1.02E1,3.1E-1,1.42E1,1.96E1,7.39E1,8.4E0,8.5E-1,1.3E1,5.4E-1,2.37E1,4.1E-1,4E-1,-1.272852E-1,7.3906586E-2,3.75E1,2.49E1,-0E0,8.597552E-2,3.41E1,1.15E1,2.5731057E-1,-0E0,-0E0,-1.3636145E-1,1.5596009E-2,-0E0,-4.162096E-1,-0E0,3E-1,3.33E1,2.24E1,2.95E1,3.7E-1,4.52E1,1.18E1,-2.9902732E-1,2E1,2.41E1,1.1E1,4.2E1,4.72E1,2.74E1,8.05E1,2.03E1,-0E0,2.0616208E-1,-3.7762758E-1,-1.5615593E-1,-0E0,3.7246963E-1,5.7730485E-2,-0E0,-0E0,3.0081174E-1,-1.6578558E-1,-0E0,6.043948E-2,-8.307299E-2,2.58946E-1,-0E0,-1.2256928E-2,-0E0,3.8594586E-1,5.557657E-2,-0E0,8.318405E-3,-1.0347964E-1,-0E0,7.494793E-2,-0E0,2.0562096E-1,-0E0,2.3748827E-1,6.094797E-1,-0E0,-2.1897355E-1,-3.5354234E-2,2.5871888E-1],"split_indices":[0,4,2,13,18,5,13,1,1,1,5,5,3,11,11,2,16,2,5,1,9,15,11,13,8,14,16,0,0,3,8,0,0,0,2,0,0,0,0,0,0,0,0,14,3,8,5,14,0,11,0,4,5,2,3,0,8,1,5,0,0,0,0,0,0,0,0,0,0,0,0,0,0,0,0,0,0,0,0,0,0,0,0,0,0,0,0,0,0,0,0,0,0],"split_type":[0,0,0,0,0,0,0,0,0,0,0,0,0,0,0,0,0,0,0,0,0,0,0,0,0,0,0,0,0,0,0,0,0,0,0,0,0,0,0,0,0,0,0,0,0,0,0,0,0,0,0,0,0,0,0,0,0,0,0,0,0,0,0,0,0,0,0,0,0,0,0,0,0,0,0,0,0,0,0,0,0,0,0,0,0,0,0,0,0,0,0,0,0],"sum_hessian":[3.63E2,2.2E2,1.43E2,1.29E2,9.1E1,8.4E1,5.9E1,1.1E2,1.9E1,1.3E1,7.8E1,4.5E1,3.9E1,7E0,5.2E1,7E0,1.03E2,1E1,9E0,4E0,9E0,2.7E1,5.1E1,3.4E1,1.1E1,2.5E1,1.4E1,5E0,2E0,3.7E1,1.5E1,2E0,5E0,2E0,1.01E2,4E0,6E0,4E0,5E0,3E0,1E0,8E0,1E0,1.8E1,9E0,2.1E1,3E1,2.9E1,5E0,7E0,4E0,1.8E1,7E0,4E0,1E1,1.6E1,2.1E1,4E0,1.1E1,1E0,1E0,4.3E1,5.8E1,1E0,1.7E1,4E0,5E0,1.4E1,7E0,1.7E1,1.3E1,1.6E1,1.3E1,4E0,1E0,4E0,3E0,8E0,1E1,3E0,4E0,2E0,2E0,9E0,1E0,1.4E1,2E0,1.1E1,1E1,1E0,3E0,2E0,9E0],"tree_param":{"num_deleted":"0","num_feature":"19","num_nodes":"93","size_leaf_vector":"1"}}]},"name":"gbtree"},"learner_model_param":{"base_score":"1.08407005E2","boost_from_average":"1","num_class":"0","num_feature":"19","num_target":"1"},"objective":{"name":"reg:squarederror","reg_loss_param":{"scale_pos_weight":"1"}}},"version":[2,1,4]}